
#include <eml_net.h>
static const float mlp_modbus_layer_0_biases[64] = { -0.002903f, -0.213507f, -0.036163f, -0.010896f, -0.061059f, 0.172181f, 0.396005f, 0.178548f, 0.026577f, -0.017882f, 0.024602f, -0.004387f, 0.213976f, 0.083897f, -0.105531f, 0.058804f, -0.268589f, 0.006528f, -0.090507f, 0.256141f, 0.104385f, 0.002908f, 0.249824f, -0.086125f, 0.259073f, -0.044416f, -0.055810f, -0.211802f, 0.068669f, 0.036053f, -0.218945f, -0.194496f, 0.067394f, -0.269346f, -0.000547f, 0.272663f, -0.060289f, -0.107976f, -0.017051f, 0.065647f, 0.066651f, 0.157468f, -0.229695f, -0.119554f, 0.022726f, 0.086557f, -0.156418f, 0.083205f, -0.010233f, -0.031964f, -0.208820f, 0.208214f, -0.267051f, -0.088848f, -0.192159f, -0.105050f, 0.109076f, 0.057875f, -0.235164f, -0.019720f, 0.054827f, 0.113681f, -0.017173f, -0.288119f };
static const float mlp_modbus_layer_0_weights[2944] = { -0.032477f, -0.000000f, -0.000000f, -0.000000f, -0.000000f, 0.002731f, 2.213084f, 1.870274f, -0.000000f, 0.000000f, -0.583875f, 0.892807f, -0.826413f, -0.000014f, 0.000000f, -0.027231f, -0.447106f, 1.402746f, -0.000000f, -0.640254f, -0.000006f, -0.000000f, 1.611598f, -1.595893f, -0.063899f, 0.007251f, -0.000000f, 0.004281f, -0.006951f, -0.258739f, -0.000000f, 0.314148f, 0.000000f, 0.494437f, -0.000000f, 0.000274f, 0.718031f, -0.077918f, 0.498760f, -0.682589f, -1.242527f, -0.379805f, -0.386278f, 0.123271f, -0.000000f, 0.302375f, -0.000000f, -0.179612f, 1.893438f, -0.021046f, -0.000000f, 0.395760f, 2.103103f, 0.000000f, -0.000000f, -2.686697f, -1.022681f, -3.724500f, -1.347549f, -0.000959f, -0.000004f, -0.006839f, -2.823055f, 1.615072f, -0.038305f, 0.000000f, -0.000000f, 0.000000f, 0.000000f, 0.049188f, 0.121422f, -0.183731f, -0.000007f, -0.000000f, -0.013483f, -0.007788f, 0.099248f, -0.046901f, 0.000000f, -0.028723f, 0.114712f, 0.153556f, -0.000000f, -0.180443f, -0.026426f, -0.138722f, 0.114302f, 0.044908f, 0.230381f, -0.104479f, 0.000000f, 0.041288f, -0.007519f, 0.008783f, -0.004150f, -0.016819f, -0.000116f, -0.129894f, -0.026451f, -0.014498f, -0.242549f, 0.016998f, -0.067687f, -0.028409f, 0.127423f, -0.123711f, -0.093292f, 0.058745f, -0.026195f, -0.186481f, 0.000000f, -0.176380f, 0.253306f, 0.126876f, 0.000000f, 0.042420f, 0.093753f, -0.000000f, 0.000000f, 0.060077f, 0.147695f, 0.259664f, -0.084038f, -0.020969f, -0.033371f, -0.018627f, 0.141438f, 0.118112f, -0.035399f, -0.000000f, 0.000000f, 0.000000f, 0.000000f, 0.002302f, 1.314240f, 0.739844f, 0.000000f, 0.000000f, -0.232189f, 0.472322f, -0.316509f, -0.000003f, -0.000000f, -0.026729f, -0.355853f, 0.391253f, -0.000000f, -0.260470f, -0.000001f, -0.092438f, 1.030992f, -1.078659f, -0.026076f, 0.000417f, 0.000000f, -0.056018f, -0.005233f, -0.042254f, -0.000000f, 0.374058f, 0.000000f, 0.164385f, -0.000000f, 0.000142f, 0.069433f, 0.040871f, 0.102132f, -0.307490f, -0.559781f, -0.124414f, -0.152261f, -0.105676f, -0.000000f, -0.176118f, -0.000000f, -0.350228f, 0.595007f, -0.070678f, -0.000000f, -0.187255f, 0.864727f, 0.000000f, 0.000000f, -1.069782f, -0.607984f, -1.535325f, -0.462321f, -0.000405f, -0.000000f, -0.003655f, -1.543824f, 1.019033f, -0.044312f, -0.000000f, 0.000000f, -0.000000f, 0.000000f, 0.002777f, -0.796102f, -0.184609f, 0.000000f, -0.000000f, -0.009501f, -0.238429f, 0.146868f, -0.000004f, -0.000000f, -0.026373f, -0.546417f, -0.404566f, -0.000000f, -0.047944f, -0.000000f, -0.113544f, 0.120163f, 0.339493f, -0.030915f, -0.000390f, -0.000000f, 0.048349f, -0.005461f, -0.004977f, -0.000000f, -0.299774f, 0.000000f, -0.807120f, -0.000000f, 0.000236f, 0.587301f, 0.058570f, 0.151227f, 0.756438f, 0.308027f, -0.266934f, -0.391607f, 0.535900f, -0.000000f, -0.361163f, -0.000000f, -0.637806f, -0.113933f, -0.164624f, -0.000000f, -0.281189f, -0.209510f, -0.000000f, 0.000000f, 1.367954f, 0.161448f, 1.842997f, 0.132649f, -0.000388f, -0.000000f, -0.004616f, 0.126438f, -0.804684f, -0.034740f, -0.000000f, 0.000000f, 0.000000f, 0.000000f, 0.000867f, 3.109814f, -3.746072f, -0.000000f, -0.000000f, -1.035888f, 0.539140f, -0.746965f, -0.000000f, 0.000000f, -0.023617f, 2.505752f, 5.034375f, -0.000000f, 4.211953f, -0.000000f, -0.029834f, -1.552627f, -0.116307f, 0.195220f, 0.000022f, 0.000000f, 0.385607f, -0.011223f, 0.404818f, -0.000000f, 3.125096f, 0.000000f, 0.446477f, -0.000000f, 0.000013f, -0.818867f, -0.006519f, -0.238499f, -3.281072f, -2.636388f, 2.343253f, 1.702046f, -4.158245f, 0.000000f, -1.441191f, -0.000000f, -2.902089f, 2.501829f, -1.849490f, -0.000000f, 3.850058f, -1.845949f, -0.000000f, 0.000000f, 2.647382f, -3.372864f, 1.522110f, 1.358830f, -0.000015f, -0.000000f, -0.000719f, -0.973223f, -0.963173f, -0.039507f, -0.000000f, -0.000000f, -0.000000f, -0.000000f, 0.018580f, -0.041639f, -0.025895f, -0.000000f, 0.000000f, -0.217859f, 0.202845f, -0.831058f, -0.044903f, 0.000000f, -0.028663f, 0.184568f, 0.047099f, -0.000000f, -0.259062f, -0.028000f, -0.179319f, -0.300354f, -0.270815f, -0.114071f, -0.199039f, 0.000000f, -0.331895f, -0.003666f, 0.115279f, -0.108222f, 0.185040f, -0.000008f, -0.161525f, -0.022919f, 0.010837f, -0.440178f, 0.006331f, 0.295535f, -0.087081f, -0.209959f, 0.043846f, -0.264706f, 0.091864f, -0.013318f, -0.188066f, 0.000000f, 0.243816f, -0.147598f, -0.264863f, -0.000000f, -0.343188f, -0.346254f, 0.000000f, 0.000000f, -0.184344f, 0.116705f, -0.522559f, 0.085697f, -0.018418f, -0.027869f, -0.020521f, 0.089240f, 0.304658f, -0.037481f, 0.000000f, -0.000000f, -0.000000f, -0.000000f, 0.075734f, 0.476689f, -0.017138f, 0.000000f, -0.000000f, -0.059525f, -0.111017f, 0.375155f, -0.005226f, -0.000000f, -0.028794f, -0.673445f, -0.115723f, -0.000000f, -0.061064f, -0.002167f, 0.080526f, 0.290942f, 0.188290f, 0.243703f, -0.050868f, -0.000000f, 0.145555f, -0.007694f, -0.121090f, -0.000058f, -0.293643f, 0.000000f, -0.418746f, -0.000014f, 0.001045f, 0.263206f, 0.123837f, -0.411805f, 0.271515f, -0.031315f, -0.379091f, -0.088834f, 0.327374f, -0.000000f, -0.163946f, -0.000000f, 0.281004f, -0.230678f, -0.005911f, -0.000000f, 0.113332f, -0.221329f, -0.000000f, -0.000000f, -0.602488f, 0.016838f, 0.138353f, -0.007256f, -0.007773f, -0.001959f, -0.016414f, -0.034593f, -0.295761f, -0.037007f, 0.000000f, -0.000000f, 0.000000f, 0.000000f, 0.259246f, -0.159083f, -0.096487f, -0.000000f, -0.000000f, -0.374699f, -0.347872f, -0.335159f, -0.044378f, -0.000000f, -0.028633f, 0.201635f, -0.017283f, -0.000000f, 0.254735f, -0.027348f, 0.243861f, -0.296681f, 0.246912f, -0.204542f, 0.091303f, -0.000000f, 0.268300f, -0.007155f, -0.081178f, 0.077901f, -0.000904f, -0.000038f, 0.031902f, -0.024801f, 0.021371f, -0.020229f, 0.358525f, -0.394241f, -0.186007f, 0.195034f, 0.171617f, -0.082640f, 0.022768f, -0.022216f, -0.308350f, 0.000000f, -0.176556f, -0.023898f, -0.302674f, 0.000000f, 0.334461f, -0.034994f, -0.000000f, -0.000000f, 0.103238f, 0.093357f, -0.211735f, 0.179555f, -0.019111f, -0.027646f, -0.021720f, -0.082646f, -0.272124f, -0.045379f, -0.000000f, -0.000000f, -0.000000f, 0.000000f, 0.003468f, -0.651354f, -1.562620f, -0.000000f, -0.000000f, -0.058175f, -0.136833f, -0.560650f, -0.000013f, 0.000000f, -0.026621f, 0.072136f, 0.961112f, 0.000000f, 0.960770f, -0.000002f, -0.000000f, -0.822061f, 1.166550f, -0.000000f, -0.002542f, -0.000000f, 0.098511f, -0.005975f, 0.115599f, -0.000000f, 0.264511f, 0.000000f, -1.264771f, -0.000000f, 0.000437f, 0.480767f, 0.071721f, 0.243808f, 0.486729f, -0.478136f, 0.380168f, 0.350935f, -0.351312f, -0.000000f, -0.399965f, -0.000000f, -1.446652f, -0.058860f, -1.365444f, -0.000000f, 0.465567f, -0.065221f, -0.000000f, -0.000000f, 3.155037f, -0.873259f, 3.293904f, 1.197843f, -0.000724f, -0.000000f, -0.007963f, 0.534611f, -1.789140f, -0.038647f, -0.000000f, 0.000000f, 0.000000f, -0.000000f, 0.000870f, -0.073570f, -0.415390f, -0.000000f, -0.000000f, 0.032296f, -0.861174f, 0.321505f, -0.000000f, -0.000000f, -0.024220f, -1.428986f, -0.872363f, 0.000000f, -0.896272f, -0.000000f, 0.072457f, 0.175545f, -0.202712f, -0.086374f, 0.000008f, 0.000000f, -0.206090f, -0.006001f, -0.092980f, -0.000000f, -0.253605f, 0.000000f, 0.124876f, -0.000000f, 0.000014f, 0.599914f, 0.057488f, 0.343630f, 1.141717f, 0.926023f, -1.645130f, -0.635479f, 1.473923f, -0.000000f, -0.973336f, 0.000000f, 0.634077f, -0.888471f, 0.561563f, -0.000000f, -0.344842f, -0.584179f, 0.000000f, 0.000000f, -0.979737f, 0.873445f, -0.399267f, -0.790626f, -0.000015f, -0.000000f, -0.000593f, -0.476640f, 0.211815f, -0.038576f, -0.000000f, 0.000000f, 0.000000f, 0.000000f, 0.000870f, 0.282641f, 0.163923f, -0.000000f, -0.000000f, -0.120614f, -0.075768f, 0.145670f, -0.000000f, 0.000000f, -0.023618f, -0.223121f, 0.014901f, -0.000000f, 0.065205f, -0.000000f, 0.011419f, 0.189218f, -0.233511f, -0.109090f, -0.000012f, 0.000000f, -0.045242f, -0.007589f, -0.046234f, -0.000000f, 0.208655f, 0.000000f, -0.029323f, -0.000000f, 0.000013f, -0.206085f, -0.003129f, 0.101043f, 0.085481f, 0.187704f, -0.171010f, -0.164276f, -0.042521f, 0.000000f, -0.055806f, 0.000000f, -0.156416f, 0.087373f, -0.128302f, -0.000000f, 0.003662f, -0.101078f, -0.000000f, 0.000000f, -0.222866f, -0.067612f, -0.041926f, -0.274456f, -0.000013f, -0.000000f, -0.000788f, -0.274828f, -0.225916f, -0.038576f, -0.000000f, 0.000000f, 0.000000f, 0.000000f, 0.000861f, 0.359188f, 1.545458f, -0.000000f, 0.000000f, -0.075775f, 1.095582f, 0.243953f, -0.000000f, 0.000000f, -0.023618f, 0.361666f, 0.034762f, -0.000000f, 0.428174f, -0.000000f, -0.006319f, 0.465736f, -0.354086f, -0.070543f, -0.000020f, 0.000000f, 0.000906f, -0.008645f, 0.057146f, -0.000000f, 0.234825f, 0.000000f, 1.171849f, -0.000000f, 0.000013f, -0.488611f, -0.011816f, 0.129451f, -0.664367f, -0.397332f, 0.902002f, 0.141934f, -0.658541f, -0.000000f, 0.444480f, -0.000000f, -0.174101f, 0.425828f, 0.022226f, -0.000000f, -0.666444f, -0.421826f, 0.000000f, 0.000000f, -0.285555f, -0.564662f, -0.306235f, -1.309309f, -0.000013f, -0.000000f, -0.000787f, -0.147941f, 0.882189f, -0.038762f, -0.000000f, 0.000000f, -0.000000f, 0.000000f, 0.002857f, -0.358614f, -1.814029f, 0.000000f, -0.000000f, 0.036696f, -1.123249f, -0.204999f, -0.000003f, 0.000000f, -0.026373f, -0.439579f, 0.155240f, -0.000000f, -0.286826f, -0.000000f, -0.020067f, -0.938997f, 0.748634f, 0.041333f, 0.000463f, -0.000000f, 0.093341f, -0.003748f, -0.084809f, -0.000000f, 0.008791f, 0.000000f, -1.712232f, -0.000000f, 0.000236f, 0.518452f, 0.054782f, 0.150390f, 1.028040f, 0.245226f, -0.931112f, -0.283984f, 0.812781f, -0.000000f, -0.311043f, -0.000000f, -0.150084f, -0.613187f, -0.505710f, -0.000000f, 0.695536f, 0.573513f, -0.000000f, 0.000000f, 1.184905f, 0.202205f, 1.663006f, 1.345505f, -0.000382f, -0.000000f, -0.004806f, 0.130811f, -1.533997f, -0.044801f, -0.000000f, -0.000000f, -0.000000f, 0.000000f, 0.027830f, 0.003500f, 1.025279f, -0.000000f, -0.000000f, -0.310752f, 0.550469f, -0.364245f, -0.016604f, -0.000000f, -0.028619f, 0.177494f, 0.221739f, -0.000000f, -0.034043f, -0.007877f, -0.209207f, -0.410580f, -0.536107f, -3.120176f, 0.110301f, 0.000000f, -0.051438f, 0.006239f, -0.211749f, 0.006118f, 0.066079f, -0.000000f, -0.015022f, -0.001040f, 0.002038f, -0.663561f, 0.297434f, 0.268566f, 0.057041f, 0.781465f, 0.015123f, -2.244016f, -0.075964f, -0.000000f, -0.026660f, -0.000000f, -0.248812f, -1.060310f, -0.177350f, -0.000000f, 0.341397f, 0.490364f, 0.000000f, -0.000000f, -0.096931f, -0.761341f, 0.706056f, 0.514490f, -0.013877f, -0.007010f, -0.021920f, -0.424439f, -0.628427f, -0.046519f, 0.000000f, 0.000000f, -0.000000f, 0.000000f, 0.007454f, -0.269646f, -0.105205f, -0.000000f, -0.000000f, 0.174018f, -0.232682f, 0.546104f, -0.000007f, -0.000000f, -0.025179f, -0.589012f, 0.347618f, -0.000000f, -0.273821f, -0.000001f, 0.057861f, 0.211504f, 0.073034f, -3.829480f, 0.000000f, 0.000000f, 0.185800f, 0.008947f, -0.342910f, -0.000000f, -0.359795f, 0.000000f, -0.569916f, -0.000000f, -0.000220f, 0.353510f, 0.305221f, -0.754959f, 0.668950f, 0.824497f, 0.094226f, -3.442463f, 1.241830f, -0.000000f, 0.110727f, 0.000000f, 0.868700f, -0.633001f, -0.494015f, -0.000000f, 0.488826f, -0.436751f, 0.000000f, 0.000000f, -0.210925f, 0.602132f, 0.606039f, 0.538340f, -0.000520f, -0.000001f, -0.003416f, -0.207983f, -0.533140f, -0.035985f, -0.000000f, -0.000000f, -0.000000f, 0.000000f, -0.141967f, 0.068764f, -0.133463f, -0.000209f, 0.000000f, -0.037553f, 0.172547f, 0.065546f, -0.046939f, -0.000000f, -0.028678f, -0.014179f, -0.268187f, -0.000000f, 0.031046f, -0.028741f, 0.128257f, -0.175228f, -0.287319f, 0.177428f, -0.130747f, -0.000000f, -0.064814f, -0.009026f, 0.157105f, 0.004818f, 0.080172f, -0.000320f, 0.047367f, -0.027969f, -0.038954f, 0.220346f, -0.156090f, 0.168028f, -0.084439f, -0.245913f, 0.022566f, 0.252374f, 0.024144f, -0.002727f, 0.060777f, 0.000000f, 0.059290f, -0.168550f, -0.024193f, -0.000000f, 0.239508f, 0.204539f, 0.000000f, -0.000000f, 0.127551f, -0.210299f, 0.056100f, 0.182597f, -0.017692f, -0.025338f, -0.023089f, 0.233051f, 0.177682f, -0.036136f, -0.000000f, 0.000000f, 0.000000f, -0.000000f, 0.000871f, 0.628036f, -0.035812f, -0.000000f, 0.000000f, -0.337957f, 0.173411f, 0.009111f, -0.000000f, 0.000000f, -0.021660f, 0.581241f, 0.276867f, -0.000000f, 1.171686f, -0.000000f, -0.022239f, -0.532806f, -0.688598f, 0.207953f, -0.000028f, -0.000000f, -0.039996f, -0.006680f, 0.283436f, -0.000000f, 1.084835f, 0.000000f, 0.653114f, -0.000000f, 0.000022f, -0.828879f, 0.049962f, 0.330335f, -0.983069f, -0.307127f, 0.477135f, 0.661804f, -0.913655f, -0.000000f, -1.276919f, -0.000000f, -1.132525f, -0.013461f, -1.153343f, -0.000000f, 0.353818f, -1.476760f, 0.000000f, 0.000000f, 0.587600f, -0.094481f, 0.045619f, -0.936960f, -0.000013f, -0.000000f, -0.000761f, -0.407021f, -0.103562f, -0.043613f, -0.000000f, 0.000000f, -0.000000f, -0.000000f, 0.000736f, -0.159573f, 0.085069f, 0.000000f, -0.000000f, 0.170909f, -0.432485f, 0.072302f, -0.000004f, -0.000000f, -0.025991f, 0.134641f, 0.017053f, -0.000000f, 0.043149f, -0.000000f, -0.157535f, 0.346665f, -0.102018f, -0.138805f, 0.000069f, -0.000000f, 0.036223f, -0.001074f, -0.126348f, -0.000000f, -0.336113f, 0.000000f, -0.050420f, -0.000000f, 0.000028f, 0.129921f, 0.003967f, -0.671526f, 0.175204f, 0.317861f, -0.043699f, -0.383649f, -0.055121f, 0.000000f, 0.016165f, 0.000000f, -0.159222f, -0.489998f, -0.032384f, -0.000000f, -0.032261f, 0.293713f, -0.000000f, 0.000000f, 0.199995f, -0.244286f, 0.466210f, 0.406195f, -0.000367f, -0.000000f, -0.003397f, -0.522344f, -0.297975f, -0.033224f, -0.000000f, 0.000000f, 0.000000f, -0.000000f, 0.001226f, -0.001000f, -0.363977f, 0.000000f, 0.000000f, -0.005156f, -0.466180f, 0.459213f, -0.000000f, -0.000000f, -0.021586f, -0.527699f, 0.208889f, -0.000000f, -0.248026f, -0.000000f, -0.041814f, 0.300189f, 0.247409f, -0.000963f, -0.000016f, 0.000000f, 0.016255f, -0.005125f, -0.162628f, -0.000000f, -0.207380f, 0.000000f, -0.482279f, -0.000000f, 0.000022f, 0.223441f, 0.033280f, -0.117477f, 0.397300f, 0.245039f, -0.381111f, -1.320828f, 0.249154f, 0.000000f, 0.872829f, 0.000000f, 0.227622f, -0.352525f, 0.337087f, -0.000000f, -0.534660f, 0.081545f, 0.000000f, 0.000000f, -0.428283f, -0.058029f, 0.517172f, 0.455191f, -0.000019f, -0.000000f, -0.000719f, 0.053710f, -0.840447f, -0.037200f, -0.000000f, 0.000000f, -0.000000f, -0.000000f, 0.002465f, 0.258159f, 0.189087f, 0.000000f, 0.000000f, -0.231290f, -0.149057f, -0.213408f, -0.000000f, 0.000000f, -0.023413f, -0.533931f, 0.356021f, -0.000000f, -0.252247f, -0.000000f, -0.077574f, -0.050965f, 0.190092f, 0.354016f, -0.000015f, 0.000000f, 0.031332f, -0.005883f, 0.026067f, -0.000000f, -0.404938f, 0.000000f, -0.468253f, -0.000000f, 0.000004f, -0.073127f, -0.094049f, 0.294800f, 0.004759f, -0.284077f, -0.547606f, -0.686626f, 0.463147f, 0.000000f, -0.063045f, -0.000000f, 0.329978f, 0.044673f, -0.052175f, -0.000000f, 0.701722f, -0.033568f, -0.000000f, 0.000000f, -0.770481f, 0.715833f, -0.425082f, 0.694518f, -0.000017f, -0.000000f, -0.000596f, -0.058947f, -0.459541f, -0.038576f, -0.000000f, 0.000000f, 0.000000f, -0.000000f, 0.000869f, 0.050861f, 0.017444f, -0.000000f, -0.000000f, -0.075211f, -0.257106f, 0.137220f, -0.000000f, 0.000000f, -0.023618f, -0.276392f, -0.104816f, -0.000000f, 0.127878f, -0.000000f, 0.005251f, -0.062859f, -0.094479f, 0.125362f, 0.000002f, -0.000000f, 0.010793f, -0.007589f, 0.018563f, -0.000000f, 0.207632f, 0.000000f, 0.104886f, -0.000000f, 0.000013f, -0.018420f, 0.026880f, -0.295734f, -0.280610f, -0.069369f, -0.216146f, 0.145003f, -0.246990f, 0.000000f, -0.155985f, -0.000000f, 0.076260f, 0.037528f, 0.015267f, -0.000000f, 0.136148f, -0.227626f, 0.000000f, 0.000000f, -0.204845f, -0.107891f, 0.002730f, -0.311896f, -0.000013f, -0.000000f, -0.000788f, -0.036139f, 0.044590f, -0.043516f, -0.000000f, 0.000000f, -0.000000f, 0.000000f, 0.005303f, 0.339508f, 0.069072f, 0.000000f, 0.000000f, -0.023975f, -0.003338f, 0.280976f, -0.000004f, 0.000000f, -0.025974f, -0.129876f, 0.239357f, -0.000000f, 0.017712f, -0.000000f, -0.153730f, 0.186049f, 0.270608f, -1.638835f, 0.000026f, 0.000000f, 0.020116f, 0.000287f, -0.170135f, -0.000000f, 0.028107f, 0.000000f, -0.223394f, -0.000000f, 0.000050f, -0.099964f, 0.055206f, -0.197105f, 0.156571f, 0.496817f, -0.065755f, -1.205980f, 0.245812f, -0.000000f, -0.035204f, 0.000000f, 0.086800f, -0.408897f, -0.116685f, -0.000000f, 0.445101f, -0.250066f, 0.000000f, 0.000000f, -0.161703f, 0.137508f, -0.189237f, 0.094789f, -0.000395f, -0.000000f, -0.003586f, -0.163352f, -0.233334f, -0.036176f, 0.000000f, -0.000000f, -0.000000f, -0.000000f, -0.270740f, 0.268521f, 0.290542f, -0.000000f, 0.000000f, -0.197482f, 0.113347f, 0.022137f, -0.041145f, 0.000000f, -0.028645f, 0.134749f, 0.298739f, -0.000000f, 0.250889f, -0.024958f, 0.059443f, 0.109601f, -0.123862f, 0.044998f, 0.045602f, -0.000000f, -0.261511f, -0.007746f, 0.055778f, -0.224401f, 0.121543f, -0.000001f, -0.240546f, -0.019545f, -0.014389f, 0.113344f, -0.200933f, -0.005134f, 0.058700f, 0.235283f, 0.035347f, 0.018054f, -0.119623f, -0.007714f, -0.038509f, -0.000000f, 0.116567f, 0.061665f, 0.108359f, -0.000000f, 0.108369f, -0.174890f, 0.000000f, 0.000000f, -0.167213f, 0.230956f, -0.269509f, 0.119341f, -0.018702f, -0.026481f, -0.023798f, -0.152046f, 0.050090f, -0.036866f, -0.000000f, -0.000000f, 0.000000f, 0.000000f, 0.087519f, 0.177394f, -0.051048f, -0.000000f, 0.000000f, 0.038589f, -0.504465f, -0.074597f, -0.041066f, 0.000000f, -0.028654f, -0.364110f, -0.104363f, -0.000000f, -0.257576f, -0.025368f, -0.130823f, 0.152179f, 0.180329f, 0.121806f, -0.041141f, 0.000000f, 0.117646f, -0.009432f, -0.203553f, -0.182251f, -0.282502f, -0.000001f, -0.287503f, -0.019345f, 0.005594f, 0.223172f, 0.220675f, -0.029046f, 0.178657f, 0.280034f, -0.530641f, -0.146950f, -0.189838f, -0.007927f, 0.245026f, 0.000000f, 0.381199f, -0.356066f, 0.394602f, -0.000000f, -0.281117f, 0.101384f, 0.000000f, -0.000000f, -0.395167f, 0.312695f, -0.006185f, 0.055710f, -0.018709f, -0.026156f, -0.023159f, -0.098783f, -0.358818f, -0.038323f, 0.000000f, 0.000000f, -0.000000f, 0.000000f, -0.000000f, -1.262177f, 0.171053f, -0.000000f, -0.000000f, 0.435821f, -0.663418f, -0.471814f, -0.000001f, -0.000000f, -0.026296f, -1.036889f, -0.925108f, -0.000000f, -1.263421f, -0.000000f, -0.001866f, 0.383936f, 0.609906f, -0.315101f, -0.000000f, -0.000000f, -0.114190f, -0.007133f, -0.361582f, -0.000000f, -1.328577f, 0.000000f, -0.982470f, -0.000000f, -0.000705f, 1.217428f, 0.126061f, -1.478163f, 0.877054f, 0.300167f, -0.448041f, -0.020541f, 1.424903f, 0.000000f, 0.738997f, 0.000000f, 0.768811f, -0.545637f, -0.057158f, -0.000000f, -2.100786f, 0.190398f, -0.000000f, -0.000000f, 0.552752f, 0.908776f, 0.471946f, 0.124539f, -0.000254f, -0.000000f, -0.003382f, 0.328382f, 0.291534f, -0.036363f, -0.000000f, -0.000000f, -0.000000f, 0.000000f, -0.131963f, -0.333958f, 0.097464f, -0.000267f, -0.000000f, 0.119827f, 0.005066f, 0.082679f, -0.045976f, 0.000000f, -0.028624f, 0.150032f, 0.144180f, -0.000000f, 0.091841f, -0.028114f, -0.432258f, 0.074423f, 0.296836f, -0.312360f, 0.019173f, -0.000000f, -0.049261f, -0.007554f, -0.055921f, 0.008391f, -0.151844f, -0.000235f, 0.135568f, -0.028523f, -0.022913f, -0.054769f, -0.293483f, 0.105669f, 0.137487f, -0.071288f, 0.196446f, -0.085494f, -0.057814f, -0.073997f, 0.187774f, -0.000000f, 0.040423f, 0.170900f, 0.098920f, -0.000000f, -0.184603f, -0.067221f, 0.000000f, -0.000000f, 0.170021f, -0.046691f, -0.028954f, -0.091514f, -0.019718f, -0.036282f, -0.026040f, 0.102241f, -0.070526f, -0.038576f, -0.000000f, 0.000000f, 0.000000f, 0.000000f, 0.000870f, 0.185110f, 0.252638f, -0.000000f, 0.000000f, -0.017796f, -0.179990f, -0.081496f, -0.000000f, 0.000000f, -0.023618f, -0.194611f, 0.298153f, -0.000000f, 0.181731f, -0.000000f, -0.003845f, 0.333409f, -0.119239f, 0.085671f, -0.000000f, 0.000000f, -0.015344f, -0.007589f, -0.063248f, -0.000000f, -0.171002f, 0.000000f, -0.207804f, -0.000000f, 0.000013f, 0.180568f, -0.000015f, -0.192832f, -0.077972f, 0.017368f, -0.240778f, 0.043114f, -0.248594f, 0.000000f, -0.013279f, -0.000000f, -0.256249f, 0.092442f, -0.002332f, -0.000000f, 0.260514f, -0.304917f, -0.000000f, 0.000000f, -0.391184f, -0.134087f, -0.249372f, -0.206461f, -0.000013f, -0.000000f, -0.000788f, -0.197346f, 0.167523f, -0.038410f, -0.000000f, 0.000000f, -0.000000f, -0.000000f, 0.000251f, 0.064635f, 0.261822f, -0.000000f, -0.000000f, -0.135847f, -0.136942f, 0.255563f, -0.000005f, 0.000000f, -0.026839f, -0.164622f, 0.071042f, -0.000000f, -0.079159f, -0.000001f, -0.105139f, 0.158817f, -0.244891f, -0.220724f, -0.000022f, 0.000000f, 0.012742f, -0.006480f, -0.042970f, -0.000000f, 0.056715f, 0.000000f, 0.118458f, -0.000000f, -0.000061f, -0.192760f, -0.009168f, 0.000577f, -0.092705f, 0.011098f, -0.109278f, -0.062674f, 0.020880f, -0.000000f, 0.127679f, 0.000000f, -0.143666f, 0.051860f, -0.018373f, -0.000000f, 0.220961f, -0.313590f, 0.000000f, 0.000000f, -0.211052f, 0.109801f, 0.119737f, -0.029896f, -0.000479f, -0.000000f, -0.004364f, -0.369620f, 0.036443f, -0.038576f, 0.000000f, 0.000000f, 0.000000f, -0.000000f, 0.000866f, 0.039566f, -0.133651f, -0.000000f, 0.000000f, -0.081828f, -0.183554f, 0.032957f, -0.000000f, 0.000000f, -0.023618f, -0.273649f, -0.107423f, -0.000000f, 0.154830f, -0.000000f, -0.097367f, -0.057054f, 0.100442f, -0.060029f, -0.000000f, -0.000000f, -0.018714f, -0.007589f, -0.066641f, -0.000000f, 0.154048f, 0.000000f, -0.026387f, -0.000000f, 0.000013f, 0.104364f, 0.006990f, 0.105871f, -0.033782f, 0.086430f, 0.053624f, 0.117781f, -0.044513f, 0.000000f, -0.155250f, 0.000000f, -0.184776f, -0.091390f, -0.019621f, -0.000000f, 0.091428f, 0.092592f, -0.000000f, 0.000000f, -0.408527f, 0.203701f, -0.006625f, -0.214733f, -0.000013f, -0.000000f, -0.000788f, -0.013462f, -0.173985f, -0.038576f, -0.000000f, 0.000000f, 0.000000f, -0.000000f, 0.000870f, 0.092055f, 0.104113f, -0.000000f, -0.000000f, -0.127023f, -0.242706f, -0.058682f, -0.000000f, -0.000000f, -0.023618f, -0.121532f, 0.235768f, -0.000000f, 0.051992f, -0.000000f, -0.047189f, 0.049009f, -0.083581f, 0.117573f, 0.000002f, 0.000000f, 0.007257f, -0.007589f, -0.024630f, -0.000000f, -0.089212f, 0.000000f, 0.184892f, -0.000000f, 0.000013f, 0.105504f, -0.020596f, -0.084127f, 0.025244f, 0.096984f, -0.203034f, -0.082855f, 0.009906f, 0.000000f, -0.306827f, 0.000000f, -0.268138f, 0.076683f, -0.121173f, -0.000000f, -0.022273f, -0.182952f, -0.000000f, 0.000000f, -0.102315f, 0.253773f, -0.137981f, -0.140099f, -0.000013f, -0.000000f, -0.000788f, -0.250204f, -0.098977f, -0.037647f, -0.000000f, -0.000000f, -0.000000f, -0.000000f, -0.039493f, 0.283541f, 0.070748f, 0.000000f, 0.000000f, -0.117965f, -0.039038f, 0.112647f, -0.004353f, 0.000000f, -0.028812f, -0.241655f, 0.223988f, -0.000000f, -0.172201f, -0.001855f, -0.160200f, 0.262252f, -0.040711f, 0.184047f, -0.015109f, -0.000000f, -0.188701f, -0.007498f, -0.070495f, -0.000110f, -0.094075f, 0.000000f, 0.062869f, -0.000008f, 0.000839f, 0.040681f, -0.026582f, -0.012453f, 0.062746f, -0.154745f, -0.107171f, 0.143856f, -0.155856f, -0.000000f, -0.034181f, -0.000000f, -0.115959f, -0.106870f, -0.216115f, -0.000000f, 0.184946f, -0.204680f, 0.000000f, -0.000000f, -0.052106f, -0.094691f, -0.089035f, 0.075094f, -0.007570f, -0.001520f, -0.015681f, -0.189891f, -0.050601f, -0.036789f, -0.000000f, -0.000000f, -0.000000f, -0.000000f, 0.076616f, 0.186312f, -0.126142f, -0.000000f, 0.000000f, 0.073366f, -0.163709f, 0.207362f, -0.040680f, 0.000000f, -0.028654f, -0.312525f, -0.159908f, 0.000000f, -0.219983f, -0.025017f, 0.099309f, 0.084856f, 0.182785f, -0.046065f, -0.018789f, -0.000000f, -0.269642f, -0.008767f, -0.352260f, -0.031003f, -0.183644f, -0.000001f, 0.051066f, -0.019174f, 0.006497f, 0.284696f, 0.099319f, 0.024394f, -0.203027f, 0.045967f, -0.311619f, 0.102980f, 0.229583f, -0.007742f, 0.029659f, 0.000000f, 0.127615f, -0.135031f, 0.337328f, -0.000000f, -0.089906f, -0.147478f, -0.000000f, -0.000000f, -0.440448f, 0.307977f, -0.096820f, 0.068059f, -0.018696f, -0.026139f, -0.022767f, -0.342125f, -0.037041f, -0.036951f, -0.000000f, -0.000000f, -0.000000f, 0.000000f, 0.097355f, 0.208136f, 0.190748f, -0.000000f, 0.000000f, 0.084514f, -0.049163f, -0.230456f, -0.043545f, 0.000000f, -0.028627f, -0.428778f, 0.170926f, -0.000000f, -0.196072f, -0.026361f, -0.215756f, 0.288978f, -0.014665f, -0.099273f, 0.148986f, -0.000000f, 0.184029f, -0.007638f, -0.097907f, 0.107684f, 0.013297f, -0.000018f, -0.382692f, -0.023689f, 0.016962f, 0.177463f, 0.030066f, -0.361166f, 0.081596f, 0.099901f, -0.108411f, 0.171079f, 0.115026f, -0.017593f, 0.274664f, 0.000000f, 0.160393f, -0.072635f, 0.139508f, 0.000000f, -0.178875f, 0.363825f, 0.000000f, -0.000000f, 0.023181f, 0.037539f, -0.185812f, 0.283658f, -0.019058f, -0.028575f, -0.021601f, -0.240181f, -0.234346f, -0.037012f, -0.000000f, -0.000000f, -0.000000f, 0.000000f, 0.014316f, -0.045038f, 0.242066f, 0.000000f, -0.000000f, 0.071905f, -0.197768f, 0.391853f, -0.011257f, 0.000000f, -0.028658f, 0.215005f, 0.416097f, -0.000000f, 0.006331f, -0.005060f, 0.245793f, 0.413727f, -0.198865f, -0.242230f, 0.143065f, -0.000000f, 0.356826f, -0.010906f, -0.114141f, -0.000586f, 0.218955f, -0.000000f, 0.300155f, -0.000202f, 0.022506f, 0.278111f, 0.456090f, -0.075527f, -0.607925f, 0.022487f, 0.349328f, -0.285997f, -0.545038f, -0.000000f, 0.105898f, 0.000000f, 0.075105f, 0.076598f, 0.212610f, -0.000000f, 0.143348f, 0.412348f, 0.000000f, 0.000000f, -0.365820f, -0.185170f, -0.145018f, 0.213190f, -0.010246f, -0.005334f, -0.023809f, -0.620363f, 0.323539f, -0.038427f, -0.000000f, 0.000000f, -0.000000f, 0.000000f, -0.000000f, -0.036149f, 0.027547f, -0.000000f, -0.000000f, 0.022153f, -0.005039f, 0.214292f, -0.000001f, 0.000000f, -0.026318f, -0.137611f, 0.046432f, -0.000000f, -0.080411f, -0.000000f, 0.015540f, 0.225468f, -0.109889f, -0.152242f, -0.000000f, -0.000000f, -0.093271f, -0.007298f, 0.019840f, -0.000000f, 0.136563f, 0.000000f, 0.074824f, -0.000000f, -0.000492f, -0.179417f, 0.145485f, -0.016521f, -0.102072f, 0.302530f, -0.240780f, 0.035694f, -0.197392f, 0.000000f, 0.019592f, -0.000000f, -0.071748f, -0.329173f, 0.056405f, -0.000000f, 0.078631f, -0.118816f, -0.000000f, 0.000000f, -0.538899f, 0.319535f, 0.160809f, 0.081865f, -0.000263f, -0.000000f, -0.003290f, -0.410336f, -0.204568f, -0.037820f, -0.000000f, 0.000000f, -0.000000f, 0.000000f, -0.000000f, -0.047161f, 0.288810f, -0.000000f, 0.000000f, -0.110464f, 0.004585f, 0.133708f, -0.000000f, -0.000000f, -0.025067f, -0.283886f, -0.078302f, -0.000000f, -0.163425f, -0.000000f, 0.003145f, 0.446054f, -0.009031f, -0.222701f, 0.000000f, -0.000000f, -0.037477f, -0.006795f, -0.054780f, -0.000000f, -0.156810f, 0.000000f, -0.121791f, -0.000000f, -0.000175f, 0.195565f, 0.075706f, -0.083569f, -0.149465f, 0.098112f, -0.280888f, -0.166691f, -0.188446f, 0.000000f, -0.036074f, 0.000000f, 0.075843f, -0.152899f, 0.022240f, -0.000000f, -0.095046f, -0.089680f, 0.000000f, 0.000000f, -0.623369f, 0.079341f, -0.217825f, -0.093921f, -0.000061f, -0.000000f, -0.001595f, -0.222011f, -0.240595f, -0.038735f, -0.000000f, -0.000000f, -0.000000f, 0.000000f, 0.000000f, 0.163439f, 0.281687f, -0.000000f, 0.000000f, 0.004318f, -0.217613f, 0.031173f, -0.000000f, -0.000000f, -0.021456f, 0.043681f, 0.089331f, -0.000000f, -0.048030f, -0.000000f, 0.000550f, 0.263445f, -0.367031f, -0.169887f, -0.000000f, 0.000000f, -0.035373f, -0.007508f, -0.005756f, -0.000000f, -0.012086f, 0.000000f, -0.058339f, -0.000000f, -0.000009f, 0.090746f, 0.024737f, -0.326807f, -0.108226f, 0.313344f, 0.048367f, -0.004337f, -0.052979f, -0.000000f, -0.341697f, -0.000000f, 0.110341f, -0.011075f, 0.086251f, -0.000000f, -0.115298f, -0.024609f, 0.000000f, 0.000000f, -0.447500f, -0.124930f, -0.021038f, -0.256999f, -0.000001f, -0.000000f, -0.000234f, -0.373100f, 0.030055f, -0.038481f, -0.000000f, -0.000000f, -0.000000f, -0.000000f, 0.000000f, 0.225368f, 0.037224f, -0.000000f, -0.000000f, -0.009032f, 0.053392f, 0.301244f, -0.000000f, 0.000000f, -0.012773f, -0.252688f, -0.015094f, -0.000000f, 0.066937f, -0.000000f, 0.000098f, 0.092312f, -0.278832f, -0.100637f, 0.000000f, -0.000000f, -0.009510f, -0.007426f, -0.003234f, 0.000000f, 0.079049f, -0.000000f, -0.188490f, -0.000000f, -0.000000f, 0.087485f, -0.000305f, -0.239977f, -0.134050f, 0.359586f, -0.068235f, -0.018824f, -0.070303f, -0.000000f, -0.324796f, -0.000000f, 0.160412f, -0.134199f, -0.302102f, -0.000000f, -0.000862f, -0.385829f, -0.000000f, -0.000000f, -0.373777f, 0.094126f, 0.206343f, -0.355741f, -0.000000f, -0.000000f, -0.000000f, -0.186719f, 0.194230f, -0.038576f, -0.000000f, 0.000000f, 0.000000f, -0.000000f, 0.000868f, 0.258742f, -0.070257f, -0.000000f, -0.000000f, -0.021906f, 0.057205f, 0.079934f, -0.000000f, 0.000000f, -0.023618f, -0.326564f, 0.005359f, -0.000000f, 0.248367f, -0.000000f, -0.066938f, 0.177706f, -0.278348f, 0.023047f, -0.000003f, 0.000000f, -0.024155f, -0.007589f, 0.026587f, -0.000000f, 0.058647f, 0.000000f, -0.177482f, -0.000000f, 0.000013f, -0.041464f, 0.009907f, -0.230398f, 0.130293f, 0.229382f, 0.041741f, -0.004301f, 0.049143f, 0.000000f, 0.050580f, -0.000000f, 0.078398f, -0.134761f, 0.190391f, -0.000000f, -0.121122f, -0.121440f, 0.000000f, 0.000000f, -0.108253f, 0.068671f, -0.134814f, -0.214448f, -0.000013f, -0.000000f, -0.000788f, -0.196515f, -0.062610f, -0.036159f, 0.000000f, -0.000000f, -0.000000f, -0.000000f, 0.047773f, 0.145431f, 0.330537f, -0.000000f, 0.000000f, -0.029247f, -0.032462f, 0.273024f, -0.043515f, 0.000000f, -0.028626f, -0.119154f, -0.037958f, -0.000000f, 0.287534f, -0.026380f, -0.072823f, 0.148079f, -0.067673f, -0.213491f, -0.239819f, -0.000000f, -0.194966f, -0.005259f, -0.184873f, -0.207446f, 0.296624f, -0.000015f, 0.298720f, -0.023780f, -0.001487f, -0.173998f, -0.007176f, 0.002645f, 0.117603f, 0.190880f, -0.132130f, 0.064493f, 0.128343f, -0.017966f, -0.062821f, -0.000000f, -0.109985f, -0.230862f, -0.180363f, -0.000000f, -0.003448f, -0.322376f, 0.000000f, -0.000000f, -0.366368f, 0.154857f, 0.246102f, -0.447198f, -0.019145f, -0.028560f, -0.024332f, -0.367167f, 0.006453f, -0.048273f, 0.000000f, 0.000000f, -0.000000f, -0.000000f, -0.000000f, 1.223042f, -2.030059f, 0.000000f, -0.000000f, -0.447244f, 3.840604f, 0.934935f, -0.000000f, 0.000000f, -0.025393f, 2.060003f, 3.005118f, -0.000000f, 0.909607f, -0.000000f, 0.016555f, -0.453736f, -4.339749f, -0.286585f, -0.000000f, 0.000000f, 0.005639f, -0.009633f, 1.381927f, -0.000000f, 3.251126f, 0.000000f, 0.562044f, -0.000000f, -0.000357f, -1.739841f, 0.076012f, 3.575181f, -2.959608f, -2.179715f, 2.182753f, 1.247866f, -3.017224f, 0.000000f, 0.121126f, -0.000000f, -1.640424f, 2.982164f, -0.205244f, -0.000000f, -2.234161f, -0.257488f, -0.000000f, 0.000000f, 2.061746f, -2.816763f, 0.409517f, -2.164045f, -0.000109f, -0.000000f, -0.002372f, 2.285837f, 4.512680f, -0.036243f, -0.000000f, -0.000000f, 0.000000f, 0.000000f, -0.108555f, 0.159013f, 0.205192f, -0.000000f, 0.000000f, -0.092436f, 0.091196f, 0.318776f, -0.042513f, -0.000000f, -0.028636f, -0.179813f, -0.226277f, 0.000000f, 0.157404f, -0.025665f, -0.119140f, 0.254799f, -0.180152f, -0.372873f, -0.112746f, 0.000000f, -0.191107f, -0.005172f, -0.273551f, -0.008670f, 0.049965f, -0.000004f, 0.233537f, -0.021872f, -0.002950f, -0.096779f, 0.409642f, -0.226497f, 0.040854f, 0.107299f, -0.047080f, -0.215558f, 0.066777f, -0.013116f, -0.270850f, 0.000000f, -0.222654f, 0.073352f, -0.324979f, -0.000000f, -0.066746f, -0.335804f, 0.000000f, -0.000000f, -0.145360f, -0.124386f, 0.190216f, -0.471493f, -0.019017f, -0.027701f, -0.024220f, -0.316597f, -0.028231f, 0.006433f, -0.000000f, 0.000000f, 0.000000f, -0.000000f, -0.000000f, 1.324537f, -0.478497f, -0.000000f, 0.000000f, -0.000000f, -1.652894f, 1.198078f, 0.000000f, 0.000000f, 0.000000f, -1.110514f, -0.028710f, -0.000000f, -1.535551f, 0.000000f, -0.000000f, -0.586079f, -1.555929f, -0.034232f, -0.000000f, -0.000000f, -0.000001f, 0.003988f, -0.000000f, -0.000000f, 0.087484f, -0.000000f, -0.901730f, -0.000000f, 0.000000f, 1.660223f, 0.000000f, 1.089118f, 1.373882f, -0.256772f, -1.659296f, -1.197816f, 0.546620f, 0.000000f, 0.415156f, 0.000000f, 0.170144f, 0.095668f, -0.614340f, -0.000000f, -0.560586f, 1.182491f, 0.000000f, -0.000000f, -1.143282f, 0.711774f, 1.812326f, 1.988183f, -0.000000f, -0.000000f, -0.000000f, 0.623667f, -0.676571f, -0.038576f, -0.000000f, 0.000000f, 0.000000f, 0.000000f, 0.000870f, 0.334907f, -0.111271f, -0.000000f, -0.000000f, -0.041043f, -0.115870f, -0.057538f, -0.000000f, 0.000000f, -0.023618f, -0.123933f, 0.161278f, -0.000000f, -0.071863f, -0.000000f, -0.053158f, 0.162289f, -0.144051f, -0.131437f, -0.000012f, 0.000000f, -0.040998f, -0.007589f, 0.022100f, -0.000000f, 0.161176f, 0.000000f, -0.158840f, -0.000000f, 0.000013f, 0.174050f, 0.050660f, -0.014133f, 0.138077f, 0.076030f, -0.170259f, -0.046839f, -0.076707f, 0.000000f, -0.025958f, 0.000000f, -0.197454f, 0.097767f, 0.204619f, -0.000000f, 0.244848f, -0.094802f, 0.000000f, 0.000000f, -0.426307f, 0.017886f, 0.019919f, -0.232001f, -0.000013f, -0.000000f, -0.000788f, -0.172390f, 0.064829f, -0.038538f, -0.000000f, 0.000000f, 0.000000f, 0.000000f, 0.000867f, 0.315532f, -0.177569f, -0.000000f, 0.000000f, -0.014783f, -0.455252f, 0.258746f, -0.000000f, -0.000000f, -0.023618f, -0.532629f, -0.223426f, -0.000000f, 0.060697f, -0.000000f, -0.088905f, 0.247277f, -0.035911f, 0.028455f, -0.000005f, 0.000000f, 0.007281f, -0.007523f, -0.019304f, -0.000000f, -0.188458f, 0.000000f, -0.388197f, -0.000000f, 0.000022f, -0.039002f, 0.044403f, -0.218971f, 0.124366f, -0.139518f, -0.583751f, 0.033660f, -0.286379f, 0.000000f, -0.105728f, 0.000000f, 0.020949f, -0.181031f, 0.027508f, -0.000000f, 0.225829f, -0.169470f, 0.000000f, 0.000000f, -0.019702f, 0.370542f, 0.070541f, 0.229385f, -0.000012f, -0.000000f, -0.000789f, 0.014555f, -0.368753f, -0.038576f, -0.000000f, 0.000000f, 0.000000f, 0.000000f, 0.000871f, 0.242949f, 0.043616f, -0.000000f, -0.000000f, -0.084714f, -0.005587f, 0.228415f, -0.000000f, -0.000000f, -0.023618f, -0.106325f, -0.022376f, -0.000000f, -0.181644f, -0.000000f, -0.015669f, -0.086337f, -0.151483f, 0.053341f, -0.000014f, 0.000000f, -0.039516f, -0.007589f, -0.043925f, -0.000000f, -0.201563f, 0.000000f, 0.173448f, -0.000000f, 0.000013f, 0.079159f, 0.037425f, -0.143315f, -0.170400f, -0.034160f, 0.037377f, 0.120764f, -0.264268f, 0.000000f, 0.101295f, -0.000000f, 0.165453f, 0.080514f, -0.033093f, -0.000000f, 0.109924f, -0.295548f, 0.000000f, 0.000000f, -0.423747f, 0.155817f, -0.040782f, 0.089855f, -0.000013f, -0.000000f, -0.000788f, -0.292782f, 0.038729f };
static const float mlp_modbus_layer_1_biases[64] = { -0.212057f, -0.255941f, -0.071538f, -0.111342f, 0.050387f, -0.036410f, -0.007465f, 0.070077f, -0.107370f, -0.061921f, -0.113346f, 0.197939f, -0.023495f, -0.378887f, 0.027767f, -0.004854f, 0.352100f, -0.163470f, -0.143875f, 0.052902f, -0.020770f, -0.098652f, -0.185996f, -0.096068f, -0.075991f, 0.171598f, -0.167983f, 0.230248f, 0.256602f, -0.113274f, -0.138543f, -0.010808f, 0.275679f, -0.021100f, -0.038995f, -0.041806f, 0.104689f, -0.283791f, 0.156036f, -0.013605f, 0.051336f, -0.007205f, -0.010874f, -0.063421f, -0.053085f, 0.028885f, -0.003973f, -0.120448f, 0.314642f, 0.045538f, -0.099442f, 0.100454f, -0.202353f, -0.016545f, -0.292354f, -0.006841f, 0.102178f, -0.140266f, -0.115180f, 0.319947f, -0.028627f, -0.498010f, -0.011367f, 0.025750f };
static const float mlp_modbus_layer_1_weights[4096] = { -0.000000f, 0.003791f, 0.000844f, -0.000000f, 0.000000f, -0.000000f, 0.000000f, -0.000000f, 0.060546f, 0.014201f, 0.033914f, -0.012804f, -0.000000f, 0.025261f, 0.000000f, -0.000000f, 0.016511f, -0.000000f, -0.007801f, -0.003696f, -0.039954f, -0.000000f, 0.000000f, -0.000000f, 0.000000f, 0.060247f, -0.012807f, 0.038962f, 0.019282f, -0.043107f, -0.054342f, 0.055978f, 0.030824f, 0.000000f, -0.000000f, 0.035069f, -0.025227f, 0.015480f, 0.020704f, 0.022061f, 0.000000f, 0.000000f, 0.000000f, 0.028447f, 0.000000f, -0.011609f, 0.052878f, 0.004003f, 0.027973f, 0.000000f, -0.000000f, -0.026991f, -0.000000f, 0.000000f, 0.006100f, -0.032142f, 0.030998f, -0.000000f, 0.048627f, 0.058138f, -0.000000f, -0.031902f, -0.000000f, 0.036991f, -0.000000f, -0.000000f, 0.000000f, 0.000000f, 0.000000f, 0.000000f, -0.000000f, 0.000000f, 0.000000f, -0.000000f, -0.000000f, 0.000000f, -0.000000f, 0.000000f, 0.000000f, 0.000000f, 0.000000f, -0.000000f, -0.000000f, -0.000000f, -0.000000f, 0.000000f, 0.000000f, 0.000000f, -0.000000f, 0.000000f, -0.000000f, -0.000000f, -0.000000f, 0.000000f, 0.000000f, 0.000000f, -0.000000f, -0.000000f, 0.000000f, 0.000000f, -0.000000f, -0.000000f, 0.000000f, -0.000000f, 0.000000f, -0.000000f, -0.000000f, -0.000000f, -0.000000f, 0.000000f, -0.000000f, -0.000000f, 0.000000f, 0.000000f, -0.000000f, -0.000000f, -0.000000f, 0.000000f, 0.000000f, 0.000000f, 0.000000f, 0.000000f, 0.000000f, 0.000000f, 0.000000f, 0.000000f, -0.000000f, 0.000000f, -0.000000f, -0.000000f, -0.000000f, -0.000000f, 0.000000f, -0.000000f, -0.000000f, 0.000000f, -0.000000f, 0.000000f, 0.000000f, -0.000000f, 0.000000f, -0.000000f, -0.000000f, -0.000000f, -0.000000f, 0.000000f, 0.000000f, 0.000000f, 0.000000f, -0.000000f, 0.000000f, 0.000000f, 0.000000f, -0.000000f, 0.000000f, 0.000000f, -0.000000f, -0.000000f, -0.000000f, -0.000000f, 0.000000f, 0.000000f, -0.000000f, -0.000000f, -0.000000f, -0.000000f, -0.000000f, 0.000000f, 0.000000f, -0.000000f, -0.000000f, -0.000000f, -0.000000f, 0.000000f, -0.000000f, 0.000000f, -0.000000f, 0.000000f, -0.000000f, 0.000000f, 0.000000f, 0.000000f, 0.000000f, -0.000000f, -0.000000f, -0.000000f, -0.000000f, 0.000000f, 0.000000f, -0.000000f, 0.000000f, -0.000000f, -0.000000f, -0.000000f, -0.000000f, -0.000000f, 0.000000f, 0.000000f, 0.000000f, 0.000000f, 0.000000f, 0.000000f, 0.000000f, -0.000000f, -0.000000f, 0.000000f, 0.000000f, -0.000000f, 0.000000f, 0.000000f, -0.000000f, -0.000000f, 0.000000f, 0.000000f, 0.000000f, 0.000000f, -0.000000f, 0.000000f, -0.000000f, 0.000000f, -0.000000f, -0.000000f, -0.000000f, 0.000000f, -0.000000f, -0.000000f, -0.000000f, -0.000000f, 0.000000f, -0.000000f, 0.000000f, 0.000000f, -0.000000f, -0.000000f, -0.000000f, 0.000000f, 0.000000f, 0.000000f, 0.000000f, -0.000000f, 0.000000f, -0.000000f, 0.000000f, 0.000000f, 0.000000f, -0.000000f, -0.000000f, 0.000000f, 0.000000f, -0.000000f, 0.000000f, 0.000000f, -0.000000f, 0.000000f, 0.000000f, -0.000000f, 0.000000f, -0.000000f, -0.000000f, -0.000000f, 0.000000f, 0.000000f, -0.000000f, 0.000000f, 0.000000f, 0.000000f, 0.000000f, 0.000000f, -0.000000f, -0.000000f, -0.000000f, 0.000000f, 0.000000f, 0.000000f, -0.000000f, 0.000000f, -0.000000f, 0.000000f, 0.000000f, -0.000000f, -0.000000f, 0.000000f, -0.000000f, 0.000000f, 0.000000f, 0.000000f, -0.000000f, -0.000000f, 0.000000f, -0.000000f, -0.000000f, -0.000000f, -0.000000f, -0.000000f, -0.000000f, 0.000000f, -0.000000f, -0.000000f, -0.000000f, -0.000000f, 0.000000f, -0.000000f, 0.000000f, -0.000000f, -0.000000f, 0.000000f, -0.000000f, -0.000000f, -0.000000f, 0.000000f, -0.000000f, -0.000000f, 0.000000f, -0.000000f, -0.000000f, 0.000000f, 0.000000f, 0.000000f, -0.000000f, 0.000000f, 0.000000f, -0.000010f, 0.069327f, 0.000000f, -0.000000f, 0.000000f, 0.000000f, 0.000000f, -0.048040f, -0.000445f, 0.000963f, 0.088249f, 0.000000f, 0.015170f, 0.000000f, -0.000000f, 0.017248f, 0.000000f, 0.007729f, -0.000129f, 0.004009f, -0.000000f, -0.000000f, 0.000000f, -0.000000f, 0.103213f, -0.000172f, -0.042173f, 0.059942f, 0.044132f, 0.002153f, 0.205509f, 0.153944f, 0.000000f, -0.000000f, -0.000000f, 0.132956f, -0.004775f, -0.001260f, -0.000099f, 0.000000f, -0.000000f, 0.000000f, 0.000000f, -0.000000f, -0.000056f, 0.111835f, -0.000287f, -0.067342f, 0.000000f, 0.000000f, 0.020370f, -0.034197f, -0.000000f, 0.082912f, -0.000000f, -0.139016f, -0.000000f, -0.109489f, 0.089991f, -0.000000f, 0.110082f, -0.000000f, 0.005173f, 0.000000f, -0.465199f, 0.012763f, 0.000000f, -0.001760f, -0.000000f, -0.000000f, -0.005991f, -0.132203f, -0.607581f, 0.345591f, -0.279271f, 0.015868f, 0.257941f, 0.018984f, 0.000000f, -0.171028f, -0.000000f, -0.151364f, -0.113068f, 0.081106f, -0.000671f, 0.000000f, 0.000000f, -0.000000f, 0.112698f, -0.234705f, -0.171595f, 0.308825f, 0.053125f, 0.015433f, -0.034687f, 0.555728f, -0.000000f, -0.000000f, -0.627265f, 0.445613f, -0.064866f, 0.265977f, 0.144685f, -0.000000f, -0.000000f, -0.012273f, -0.261139f, -0.000000f, 0.033550f, 0.232092f, 0.018188f, -0.017261f, 0.008429f, -0.000000f, 0.052302f, 0.190815f, -0.000000f, 0.239367f, -0.412019f, -0.188842f, -0.000000f, -0.007674f, 0.173200f, -0.057317f, -0.087334f, -0.000000f, -0.240856f, 0.000000f, -0.134652f, 0.006118f, -0.000000f, -0.013558f, 0.000000f, 0.000000f, -0.008066f, -0.124245f, 0.125380f, -0.002005f, 0.058237f, -0.025515f, -0.088062f, -0.004764f, 0.000000f, -0.005897f, -0.000000f, -0.136650f, 0.100906f, 0.077402f, -0.000153f, 0.000000f, 0.000000f, 0.000000f, -0.594865f, -0.033165f, 0.237809f, 0.106368f, 0.075005f, -0.472959f, -0.785826f, -0.003482f, 0.000000f, -0.000000f, -0.093247f, -0.011256f, 0.385420f, 0.383803f, 0.013018f, -0.005230f, 0.000000f, -0.031678f, 0.022018f, -0.000000f, -0.250372f, -0.001747f, -0.229065f, -0.140975f, -0.026706f, -0.000000f, -0.169630f, 0.000000f, -0.000000f, -0.094647f, 0.306720f, -0.013636f, 0.000000f, 0.383510f, 0.137280f, -0.024748f, 0.077620f, 0.000000f, -0.091243f, 0.000000f, -0.000006f, 0.006784f, 0.000000f, 0.000000f, 0.000000f, -0.000000f, -0.000000f, -0.006506f, 0.005795f, -0.000990f, 0.002916f, 0.000000f, -0.000014f, 0.000000f, -0.000000f, 0.002346f, -0.000000f, -0.000032f, 0.000000f, 0.000000f, -0.000000f, 0.000000f, 0.000000f, 0.000000f, -0.000000f, -0.000296f, 0.000146f, 0.002733f, 0.013020f, -0.000000f, 0.000000f, -0.002815f, 0.000000f, 0.000000f, 0.000004f, 0.000000f, -0.008215f, -0.000029f, 0.000000f, -0.000000f, 0.000000f, -0.000000f, 0.000039f, -0.000000f, -0.001000f, 0.000000f, 0.000000f, 0.000000f, 0.000000f, -0.000000f, -0.000496f, -0.000000f, -0.000000f, -0.000000f, -0.000000f, 0.001618f, -0.000000f, -0.000000f, 0.000000f, -0.000000f, -0.010284f, 0.000000f, -0.000000f, 0.000000f, -0.000000f, 0.000000f, -0.000000f, -0.000000f, 0.000000f, 0.000000f, -0.000000f, 0.000000f, -0.000000f, 0.000000f, 0.000000f, 0.000000f, 0.000000f, -0.000000f, -0.000000f, 0.000000f, 0.000000f, 0.000000f, -0.000000f, -0.000000f, -0.000000f, 0.000000f, -0.000000f, 0.000000f, -0.000000f, 0.000000f, 0.000000f, -0.000000f, -0.000000f, 0.000000f, 0.000000f, -0.000000f, -0.000000f, -0.000000f, -0.000000f, 0.000000f, -0.000000f, -0.000000f, 0.000000f, -0.000000f, 0.000000f, -0.000000f, 0.000000f, 0.000000f, 0.000000f, 0.000000f, 0.000000f, 0.000000f, -0.000000f, 0.000000f, 0.000000f, -0.000000f, 0.000000f, 0.000000f, -0.000000f, 0.000000f, -0.000000f, -0.000000f, -0.000000f, -0.000000f, 0.000000f, 0.000000f, -0.000000f, -0.000000f, 0.239690f, 0.019240f, 0.000000f, 0.000000f, -0.000000f, -0.000000f, -0.000000f, -0.076289f, 0.122967f, 0.067513f, 0.160821f, -0.000000f, -0.031355f, -0.000000f, -0.000000f, -0.075020f, 0.000000f, -0.035170f, -0.042552f, -0.023424f, -0.000000f, 0.000000f, -0.000000f, 0.000000f, -0.000000f, 0.038324f, 0.021239f, -0.140394f, -0.000299f, 0.097295f, 0.000000f, -0.021247f, -0.000000f, 0.000000f, -0.030382f, -0.078467f, -0.010772f, 0.093731f, 0.001547f, 0.000000f, 0.000000f, -0.000000f, 0.009238f, 0.000000f, -0.208392f, 0.000000f, -0.143899f, -0.049368f, 0.000000f, 0.000000f, -0.070441f, -0.000000f, 0.000000f, -0.027119f, 0.076840f, 0.180050f, -0.000000f, 0.000555f, 0.028398f, -0.000000f, -0.005301f, -0.000000f, -0.050306f, -0.000000f, 0.032364f, -0.133335f, -0.000000f, -0.004974f, 0.000000f, -0.000000f, -0.000994f, -0.042422f, -0.265859f, 0.153736f, -0.502628f, -0.029441f, 0.267961f, -0.004979f, 0.000000f, -0.265888f, -0.000000f, -0.138892f, 0.268167f, 0.105744f, -0.000317f, -0.000000f, 0.000000f, 0.000000f, -0.196039f, -0.034891f, 0.018047f, 0.041554f, -0.419056f, -0.123605f, -0.559145f, -0.310552f, -0.000000f, 0.000000f, -0.238083f, -0.208472f, -0.050246f, 0.126533f, -0.064646f, -0.000000f, -0.000000f, -0.008248f, -0.347783f, -0.000000f, 0.077490f, -0.151270f, -0.160480f, -0.123582f, -0.009984f, 0.000000f, -0.140927f, -0.067333f, 0.000000f, 0.053433f, -0.515984f, -0.024271f, -0.000000f, 0.150443f, 0.053212f, -0.006137f, -0.179962f, 0.000000f, -0.122179f, -0.000000f, -0.178145f, -0.159930f, -0.000000f, -0.003503f, -0.000000f, -0.000000f, -0.000001f, -0.050747f, 0.233978f, -0.009147f, 0.012996f, 0.002026f, 0.541517f, -0.050350f, -0.000000f, -0.421993f, -0.000000f, -0.487838f, -0.253427f, -1.161763f, -0.003761f, -0.000000f, 0.000000f, 0.000000f, -0.595236f, 0.126209f, -0.493473f, -0.500396f, 0.298422f, -0.217809f, -0.195501f, -0.023234f, -0.000000f, 0.000000f, -1.191220f, 0.017076f, -0.007631f, -0.331054f, 0.343502f, -0.000000f, -0.000000f, 0.029566f, 0.086826f, -0.000000f, -0.133893f, 0.376761f, 0.402185f, -0.547710f, 0.002283f, -0.000000f, -0.159467f, 0.317539f, 0.000000f, -0.003218f, -0.002222f, 0.177133f, 0.000000f, -0.515006f, 0.185159f, -0.046235f, -0.664846f, 0.000000f, -0.180123f, 0.000000f, 0.040490f, -0.013875f, 0.000000f, -0.000000f, -0.000000f, -0.000000f, -0.000000f, -0.009550f, 0.023696f, 0.007780f, 0.046701f, -0.000000f, 0.022575f, -0.000000f, 0.000000f, 0.024107f, 0.000000f, 0.034483f, -0.007090f, -0.001162f, -0.000000f, -0.000000f, -0.000000f, -0.000000f, 0.000000f, -0.028363f, 0.031846f, 0.047407f, -0.025759f, 0.022217f, 0.000000f, 0.010689f, 0.000000f, -0.000000f, 0.039104f, -0.011450f, 0.014371f, 0.036998f, -0.014427f, 0.000000f, -0.000000f, 0.000000f, -0.008930f, 0.000000f, -0.017681f, -0.000000f, 0.027093f, 0.009730f, 0.000000f, 0.000000f, 0.029385f, 0.000000f, -0.000000f, -0.001504f, -0.022022f, -0.001357f, 0.000000f, 0.000002f, 0.052611f, -0.000000f, -0.040681f, -0.000000f, 0.040603f, -0.000000f, -0.000000f, -0.000000f, -0.000000f, -0.000000f, 0.000000f, 0.000000f, 0.000000f, 0.000000f, -0.000000f, -0.000000f, -0.000000f, -0.000000f, 0.000000f, 0.000000f, -0.000000f, 0.000000f, 0.000000f, 0.000000f, 0.000000f, -0.000000f, 0.000000f, 0.000000f, -0.000000f, 0.000000f, -0.000000f, 0.000000f, -0.000000f, 0.000000f, -0.000000f, -0.000000f, -0.000000f, -0.000000f, -0.000000f, -0.000000f, -0.000000f, 0.000000f, -0.000000f, 0.000000f, -0.000000f, 0.000000f, 0.000000f, -0.000000f, 0.000000f, -0.000000f, 0.000000f, 0.000000f, 0.000000f, -0.000000f, -0.000000f, 0.000000f, 0.000000f, 0.000000f, 0.000000f, -0.000000f, 0.000000f, -0.000000f, -0.000000f, 0.000000f, 0.000000f, 0.000000f, 0.000000f, -0.000000f, 0.000000f, 0.000000f, -0.031666f, 0.031435f, -0.000000f, 0.000000f, -0.000000f, -0.000000f, -0.000000f, -0.017232f, -0.039489f, -0.030107f, -0.039808f, 0.000000f, 0.031933f, -0.000000f, 0.000000f, 0.031731f, 0.000000f, -0.028036f, -0.031363f, 0.036234f, -0.000000f, 0.000000f, -0.000000f, 0.000000f, -0.000000f, -0.010823f, 0.029922f, 0.031715f, 0.010132f, 0.029751f, -0.000000f, 0.035284f, -0.000000f, -0.000000f, 0.031613f, 0.028118f, -0.028496f, -0.031331f, 0.030864f, -0.000000f, -0.000000f, 0.000000f, 0.032067f, 0.000000f, -0.010797f, 0.000000f, -0.038563f, -0.029079f, -0.000000f, 0.000000f, -0.030252f, 0.000000f, 0.000000f, 0.022105f, 0.028567f, 0.031728f, 0.000000f, -0.000000f, -0.031494f, -0.000000f, -0.013914f, 0.000000f, -0.030934f, 0.000000f, 0.330658f, -0.201373f, -0.000000f, -0.010083f, 0.000000f, -0.000000f, -0.010463f, 0.052117f, -0.050548f, -0.128056f, 0.031299f, -0.038430f, -0.434439f, -0.006686f, 0.000000f, 0.150835f, 0.000000f, 0.159825f, 0.361221f, 0.266120f, -0.000000f, 0.000000f, 0.000000f, 0.000000f, -0.302699f, 0.136199f, 0.465457f, -0.275246f, -0.205099f, 0.200892f, -0.103729f, -0.009007f, -0.000000f, -0.000000f, 0.335463f, -0.490146f, -0.044421f, -0.248886f, -0.195032f, -0.000000f, 0.000000f, -0.043655f, -0.007864f, -0.000000f, 0.009770f, -1.293877f, -0.053791f, 0.163285f, -0.060058f, 0.000000f, 0.081473f, -0.361899f, -0.000000f, -0.118904f, -0.050380f, -0.029542f, 0.000000f, 0.108115f, 0.074592f, -0.052132f, 0.189571f, -0.000000f, -0.235473f, -0.000000f, -0.350664f, -0.526012f, 0.000000f, -0.000000f, 0.000000f, 0.000000f, -0.000283f, 0.129952f, 0.262943f, 0.771025f, -0.561630f, 0.015507f, 0.662993f, -0.020862f, -0.000000f, -0.478068f, 0.000000f, 0.404265f, -0.682946f, 0.452022f, -0.000000f, 0.000000f, 0.000000f, 0.000000f, 0.260226f, 0.177075f, -0.224886f, 0.168414f, 0.479444f, 0.293769f, -0.122303f, -0.041595f, -0.000000f, -0.000000f, -0.599081f, -1.584306f, 0.590765f, -0.420271f, -0.667500f, -0.000000f, 0.000000f, -0.044522f, -0.604410f, -0.000000f, 0.568694f, 0.101366f, 0.239269f, 0.461706f, -0.032180f, 0.000000f, 0.294051f, -0.000000f, 0.000000f, 0.240806f, 0.542644f, -0.019391f, 0.000000f, -0.282545f, -0.595676f, -0.068862f, 0.658783f, -0.000000f, -0.976652f, 0.000000f, 0.000000f, -0.000000f, -0.000000f, -0.000000f, 0.000000f, 0.000000f, 0.000000f, -0.000000f, -0.000000f, 0.000000f, 0.000000f, -0.000000f, 0.000000f, -0.000000f, -0.000000f, -0.000000f, -0.000000f, 0.000000f, -0.000000f, 0.000000f, 0.000000f, -0.000000f, 0.000000f, -0.000000f, -0.000000f, -0.000000f, 0.000000f, 0.000000f, 0.000000f, 0.000000f, 0.000000f, -0.000000f, 0.000000f, -0.000000f, -0.000000f, -0.000000f, 0.000000f, -0.000000f, -0.000000f, -0.000000f, 0.000000f, -0.000000f, 0.000000f, -0.000000f, 0.000000f, -0.000000f, 0.000000f, 0.000000f, -0.000000f, 0.000000f, 0.000000f, 0.000000f, 0.000000f, -0.000000f, 0.000000f, -0.000000f, -0.000000f, 0.000000f, 0.000000f, -0.000000f, 0.000000f, -0.000000f, -0.000000f, -0.000000f, 0.009665f, -0.209273f, 0.000000f, -0.020329f, 0.000000f, -0.000000f, -0.012575f, 0.046391f, 0.240553f, -0.270792f, -0.100603f, -0.023641f, 0.278029f, -0.015170f, 0.000000f, 0.006166f, -0.000000f, -0.020146f, -0.107222f, 0.274655f, -0.000387f, -0.000000f, -0.000000f, 0.000000f, -0.232465f, 0.221112f, -0.306584f, -0.052192f, 0.057144f, -0.574535f, -0.003117f, 0.332222f, -0.000000f, 0.000000f, 0.048055f, -0.881991f, 0.275352f, -0.224390f, -0.024308f, -0.009585f, 0.000000f, -0.030322f, -0.365515f, 0.000000f, 0.473221f, -0.007334f, 0.607783f, -0.144411f, -0.038161f, 0.000000f, 0.178194f, -0.315052f, -0.000000f, -0.174617f, -0.127890f, -0.160371f, -0.000000f, -0.602109f, -0.010891f, -0.033450f, 0.098913f, -0.000000f, 0.114229f, 0.000000f, 0.005800f, -0.021722f, 0.000000f, -0.000000f, -0.000000f, 0.000000f, 0.000000f, 0.006189f, 0.017376f, 0.044672f, -0.010297f, 0.000000f, -0.047461f, 0.000000f, 0.000000f, -0.013919f, 0.000000f, 0.024999f, 0.010559f, -0.025155f, -0.000000f, -0.000000f, 0.000000f, -0.000000f, 0.000000f, -0.017675f, 0.002945f, -0.004716f, -0.001419f, 0.014388f, -0.000000f, 0.022277f, -0.000000f, -0.000000f, -0.024734f, 0.008617f, 0.017609f, 0.045054f, -0.018850f, -0.000000f, 0.000000f, -0.000000f, 0.020221f, 0.000000f, -0.002600f, 0.000000f, -0.024628f, 0.019781f, -0.000000f, 0.000000f, 0.032447f, 0.000000f, -0.000000f, -0.000000f, -0.046444f, -0.020349f, 0.000000f, 0.000106f, 0.008661f, 0.000000f, -0.001104f, 0.000000f, 0.009125f, 0.000000f, 0.761433f, -0.035094f, 0.000000f, 0.000000f, 0.000000f, 0.000000f, 0.000000f, -0.380062f, -0.000000f, -0.260735f, 0.224906f, -0.000000f, -0.107571f, -0.000000f, 0.000000f, 0.182895f, 0.000000f, 0.027482f, -0.000000f, -0.000000f, 0.000000f, -0.000000f, -0.000000f, 0.000000f, 0.098251f, 0.000043f, -0.003675f, -0.643844f, -0.380614f, -0.000000f, 0.088104f, 0.089009f, 0.000000f, 0.000000f, -0.000000f, -0.694006f, -0.000000f, -0.051674f, 0.050891f, -0.000000f, -0.000000f, 0.000000f, -0.000741f, 0.000000f, -0.329560f, -0.009459f, 0.046744f, -0.534645f, -0.000000f, -0.000000f, -0.079371f, 0.398381f, -0.000000f, -0.065965f, 0.000000f, -0.253639f, 0.000000f, -0.187325f, -0.441571f, 0.000000f, -0.099335f, -0.000000f, 0.346479f, -0.000000f, -0.088705f, 0.004396f, 0.000000f, -0.015806f, 0.000000f, 0.000000f, -0.008270f, -0.241021f, -0.037366f, -0.264119f, -0.055388f, 0.001267f, 0.169944f, -0.036240f, 0.000000f, -0.033795f, -0.000000f, -0.214528f, -0.028201f, -0.013595f, -0.004184f, -0.000000f, 0.000000f, 0.000000f, 0.256131f, -0.169595f, -0.196788f, -0.205244f, 0.109010f, -0.060124f, -0.400934f, 0.070887f, -0.000000f, -0.000000f, -0.228783f, -0.071634f, 0.159428f, 0.427428f, -0.056373f, -0.000025f, 0.000000f, -0.009714f, 0.056952f, -0.000000f, -0.122004f, -0.695420f, -0.077331f, -0.186312f, -0.031310f, -0.000000f, -0.006564f, -0.213067f, 0.000000f, -0.040216f, 0.464841f, 0.028654f, 0.000000f, -0.550060f, -0.018148f, -0.056796f, -0.273174f, -0.000000f, 0.196494f, -0.000000f, -0.023778f, 0.127134f, -0.000000f, -0.005616f, -0.000000f, 0.000000f, -0.000021f, 0.152212f, 0.170059f, -0.883836f, 0.167492f, 0.001054f, 0.136809f, -0.026578f, -0.000000f, 0.039646f, -0.000000f, 0.095948f, 0.023756f, 0.106182f, -0.000000f, 0.000000f, 0.000000f, 0.000000f, -0.253539f, 0.262945f, -0.214497f, -0.311086f, 0.896624f, 0.002729f, 0.094221f, -0.284026f, -0.000000f, 0.000000f, 0.046532f, 0.135057f, -0.133149f, -0.232802f, -0.413640f, -0.000002f, -0.000000f, -0.048061f, 0.196197f, 0.000000f, 0.151793f, 0.026425f, 0.242300f, 0.136189f, -0.016421f, 0.000000f, -0.051689f, -0.000000f, -0.000000f, 0.198926f, 0.245031f, 0.320647f, 0.000000f, -0.061879f, -0.488432f, -0.047367f, 0.531568f, 0.000000f, -0.105775f, -0.000000f, 0.142273f, -0.831897f, 0.000000f, 0.000000f, -0.000000f, 0.000000f, -0.000000f, -1.101972f, -0.000000f, 0.060450f, -0.025002f, -0.000000f, 0.285792f, 0.000000f, 0.000000f, 0.090540f, -0.000000f, 0.227549f, -0.165963f, -0.000000f, 0.000000f, -0.000000f, -0.000000f, 0.000000f, -0.018373f, 0.029869f, 0.266693f, -0.321467f, 0.137887f, -0.000000f, -0.468806f, -0.128258f, 0.000000f, -0.000000f, -0.000000f, 0.075657f, -0.000000f, 0.066535f, -0.024230f, -0.000000f, 0.000000f, -0.036712f, -0.430450f, -0.000000f, -0.203996f, 0.070775f, 0.160383f, -0.181026f, -0.000000f, -0.000000f, 0.209423f, 0.653545f, 0.000000f, -0.069201f, -0.000000f, -0.103092f, -0.000000f, -0.125610f, 0.157016f, -0.000000f, 0.246311f, -0.000000f, -0.528280f, 0.000000f, -0.000000f, -0.031920f, 0.000000f, 0.000000f, -0.000000f, -0.000000f, 0.000000f, 0.104738f, 0.000233f, -0.048009f, 0.153913f, -0.000000f, 0.000000f, -0.000000f, -0.000000f, 0.142050f, -0.000000f, -0.047659f, 0.000000f, 0.000000f, 0.000000f, -0.000000f, -0.000000f, -0.000000f, 0.047964f, -0.000001f, 0.000000f, 0.087406f, 0.152086f, 0.000000f, -0.020564f, 0.183135f, -0.000000f, 0.000000f, -0.000007f, 0.000000f, 0.000000f, 0.120597f, -0.000000f, 0.000000f, -0.000000f, 0.000000f, 0.000000f, -0.000000f, 0.000002f, 0.054478f, -0.000006f, 0.011154f, -0.000000f, 0.000000f, -0.000000f, 0.000000f, 0.000000f, 0.018429f, 0.000000f, 0.154068f, -0.000000f, -0.000000f, 0.000000f, 0.000000f, 0.090225f, -0.000000f, 0.000000f, 0.000000f, -0.000000f, 0.000000f, 0.000000f, -0.000000f, -0.000000f, -0.000000f, -0.000000f, 0.000000f, -0.000000f, 0.000000f, 0.000000f, -0.000000f, -0.000000f, 0.000000f, 0.000000f, -0.000000f, -0.000000f, 0.000000f, -0.000000f, 0.000000f, 0.000000f, 0.000000f, 0.000000f, -0.000000f, -0.000000f, 0.000000f, -0.000000f, -0.000000f, -0.000000f, 0.000000f, -0.000000f, -0.000000f, 0.000000f, 0.000000f, 0.000000f, 0.000000f, 0.000000f, 0.000000f, 0.000000f, -0.000000f, 0.000000f, -0.000000f, 0.000000f, -0.000000f, -0.000000f, -0.000000f, -0.000000f, 0.000000f, -0.000000f, -0.000000f, 0.000000f, -0.000000f, -0.000000f, -0.000000f, -0.000000f, -0.000000f, -0.000000f, -0.000000f, -0.000000f, 0.000000f, 0.000000f, -0.000000f, -0.000000f, -0.000000f, 0.155005f, -0.144364f, 0.000000f, -0.000000f, -0.000000f, 0.000000f, 0.000000f, -0.079834f, -0.051213f, -0.145338f, -0.008639f, -0.000000f, 0.136162f, 0.003448f, 0.000000f, 0.179595f, -0.000000f, 0.076873f, -0.066803f, -0.166810f, 0.000000f, -0.000000f, -0.000000f, -0.000000f, 0.238261f, 0.147033f, -0.105935f, -0.050189f, 0.125025f, 0.211366f, 0.176627f, 0.043781f, 0.000000f, -0.000000f, -0.096710f, -0.184142f, -0.025010f, 0.039684f, -0.008433f, -0.000000f, -0.000000f, -0.024838f, -0.111267f, -0.000000f, 0.064068f, 0.091201f, 0.092669f, -0.268339f, 0.000000f, 0.000000f, 0.063419f, 0.076212f, 0.000000f, -0.067879f, 0.019269f, -0.063834f, 0.000000f, -0.436344f, -0.159270f, -0.000000f, 0.021954f, -0.000000f, 0.044319f, -0.000000f, -0.048060f, 0.033062f, 0.000000f, -0.000000f, -0.000000f, 0.000000f, 0.000000f, 0.000466f, -0.018687f, -0.027200f, -0.008366f, -0.000000f, 0.009265f, 0.000000f, 0.000000f, 0.003275f, 0.000000f, -0.014500f, -0.010781f, -0.051415f, -0.000000f, -0.000000f, -0.000000f, -0.000000f, 0.021164f, -0.010964f, 0.004177f, 0.021636f, 0.027745f, 0.028277f, 0.031507f, 0.008890f, -0.000000f, -0.000000f, -0.000513f, 0.018060f, -0.037447f, -0.053591f, 0.002707f, 0.000000f, 0.000000f, -0.000000f, 0.045450f, -0.000000f, -0.019220f, -0.017019f, -0.018771f, -0.033135f, -0.000000f, -0.000000f, -0.054523f, 0.032568f, 0.000000f, 0.048704f, 0.002125f, -0.032458f, 0.000000f, -0.030735f, 0.046141f, 0.000000f, -0.011966f, -0.000000f, 0.007206f, -0.000000f, 0.061279f, -0.143976f, 0.000000f, 0.000000f, -0.000000f, -0.000000f, -0.000000f, -0.084020f, -0.049876f, -0.029898f, -0.098661f, -0.000000f, 0.157675f, 0.000000f, 0.000000f, -0.040348f, 0.000000f, 0.082804f, 0.047789f, -0.131746f, 0.000000f, 0.000000f, -0.000000f, 0.000000f, -0.047610f, 0.033817f, -0.032299f, 0.024718f, -0.394051f, -0.011981f, -0.227830f, -0.246988f, 0.000000f, 0.000000f, 0.004630f, -0.187898f, -0.186530f, -0.103910f, -0.094039f, -0.000000f, -0.000000f, -0.000000f, -0.035644f, 0.000000f, 0.147477f, 0.046800f, -0.037004f, 0.160540f, -0.000000f, -0.000000f, 0.070371f, -0.102787f, -0.000000f, -0.059039f, -0.000041f, 0.133466f, -0.000000f, 0.024189f, 0.018755f, -0.000000f, -0.039931f, 0.000000f, -0.038245f, 0.000000f, 0.000000f, 0.000000f, -0.000000f, 0.000000f, -0.000000f, -0.000000f, -0.000000f, 0.042064f, 0.000000f, 0.002885f, 0.006060f, -0.000000f, 0.000125f, 0.000000f, -0.000000f, 0.034437f, 0.000000f, 0.004321f, 0.002532f, 0.000062f, -0.000000f, -0.000000f, -0.000000f, 0.000000f, -0.000000f, -0.000006f, 0.024534f, 0.013811f, -0.008727f, -0.000000f, 0.000000f, 0.003682f, -0.000000f, 0.000000f, 0.000000f, -0.000000f, -0.001789f, 0.005335f, 0.000000f, -0.000000f, 0.000000f, -0.000000f, 0.000157f, -0.000000f, 0.008441f, -0.000000f, -0.000000f, -0.000000f, -0.000000f, 0.000000f, -0.000052f, 0.000000f, -0.000000f, 0.000000f, 0.001625f, 0.000000f, 0.000000f, 0.000000f, 0.000531f, -0.000000f, 0.000006f, -0.000000f, 0.000000f, -0.000000f, -0.054206f, -0.207467f, 0.000000f, -0.002518f, -0.000000f, 0.000000f, -0.004836f, -0.108194f, -0.093359f, 0.128938f, -0.147472f, -0.019871f, -0.153691f, 0.034456f, 0.000000f, -0.089749f, -0.000000f, -0.178731f, 0.063111f, 0.223773f, -0.000355f, 0.000000f, -0.000000f, -0.000000f, 0.103419f, 0.016007f, -0.012270f, 0.198839f, -0.323680f, -0.091033f, 0.028121f, 0.222760f, -0.000000f, -0.000000f, -0.352203f, 0.077881f, -0.124784f, -0.012818f, 0.020903f, -0.000037f, 0.000000f, -0.030982f, -0.244875f, 0.000000f, 0.259715f, 0.144684f, 0.213486f, -0.008956f, -0.023124f, 0.000000f, -0.007347f, -0.135081f, 0.000000f, 0.152702f, -0.193127f, -0.061307f, 0.000000f, -0.124758f, 0.132876f, -0.030926f, -0.244602f, 0.000000f, -0.133003f, 0.000000f, -0.000000f, -0.000002f, 0.000000f, 0.000000f, 0.000000f, -0.000000f, -0.000000f, -0.000000f, -0.000000f, 0.000005f, 0.000000f, -0.000000f, 0.000000f, -0.000000f, -0.000000f, -0.000001f, 0.000000f, -0.000000f, -0.000000f, 0.000000f, -0.000000f, -0.000000f, -0.000000f, -0.000000f, -0.000000f, -0.000000f, -0.000000f, -0.000003f, 0.000003f, -0.000000f, 0.000000f, -0.000000f, -0.000000f, 0.000000f, 0.000000f, 0.000002f, 0.000002f, -0.000000f, -0.000000f, -0.000000f, 0.000000f, 0.000000f, 0.000000f, -0.000000f, 0.000000f, -0.000000f, 0.000000f, 0.000000f, 0.000000f, 0.000000f, -0.000001f, 0.000000f, -0.000000f, 0.000000f, -0.000000f, -0.000000f, 0.000000f, 0.000000f, 0.000000f, 0.000000f, -0.000000f, 0.000000f, -0.000000f, -0.000000f, -0.039595f, -0.634446f, -0.000000f, -0.008013f, -0.000000f, -0.000000f, -0.001339f, -0.133910f, 0.146103f, 0.044318f, -0.128742f, -0.002993f, -0.093011f, -0.029026f, -0.000000f, 0.028962f, 0.000000f, -0.092643f, 0.318344f, -0.291890f, -0.002370f, 0.000000f, -0.000000f, 0.000000f, -0.000959f, -0.352718f, -0.075572f, -0.183799f, -0.323594f, -0.806848f, 0.436173f, 0.052229f, -0.000000f, -0.000000f, 0.096905f, -0.029842f, 0.328295f, -0.302025f, -0.305396f, -0.001387f, 0.000000f, -0.017869f, -1.094433f, -0.000000f, 0.082717f, 0.017853f, 0.085345f, -0.181006f, -0.025093f, 0.000000f, -0.032031f, -0.036435f, 0.000000f, 0.356771f, -0.387524f, 0.140495f, -0.000000f, -0.680584f, 0.172252f, -0.014779f, 0.140030f, 0.000000f, -0.196572f, 0.000000f, -0.019299f, 0.018386f, 0.000000f, -0.000000f, -0.000000f, -0.000000f, -0.000000f, -0.020490f, 0.023623f, -0.022771f, 0.009771f, -0.000000f, -0.025614f, 0.000000f, -0.000000f, 0.015196f, -0.000000f, -0.007859f, 0.002722f, -0.001946f, -0.000000f, -0.000000f, -0.000000f, 0.000000f, 0.000000f, -0.014020f, 0.006866f, 0.016964f, -0.002591f, -0.000000f, -0.000001f, -0.035642f, -0.000000f, 0.000000f, -0.003165f, 0.000012f, -0.019861f, 0.011328f, 0.010470f, -0.000000f, -0.000000f, 0.000000f, 0.010627f, -0.000000f, -0.015397f, -0.000000f, -0.013877f, -0.003072f, -0.000000f, -0.000000f, -0.016059f, -0.000000f, 0.000000f, -0.000000f, -0.000000f, 0.025571f, -0.000000f, -0.000545f, 0.004294f, 0.000000f, 0.001975f, -0.000000f, 0.040876f, 0.000000f, 0.020218f, -0.009577f, -0.000000f, -0.000000f, 0.000000f, -0.000000f, -0.000000f, 0.000297f, -0.005886f, 0.008828f, 0.004443f, 0.000000f, 0.005533f, 0.000000f, -0.000000f, -0.008043f, -0.000000f, 0.040081f, -0.023307f, 0.031137f, 0.000000f, 0.000000f, -0.000000f, 0.000000f, 0.001722f, 0.010604f, -0.030580f, -0.005773f, -0.056548f, 0.000000f, 0.036428f, -0.001226f, -0.000000f, -0.000000f, 0.031263f, 0.000000f, 0.025183f, -0.001893f, -0.024865f, 0.000000f, -0.000000f, 0.000000f, 0.009240f, 0.000000f, 0.003181f, 0.023369f, 0.019343f, -0.051558f, 0.000000f, -0.000000f, 0.013383f, 0.000000f, 0.000000f, 0.000060f, 0.000005f, -0.055806f, 0.000000f, -0.000000f, -0.031380f, -0.000000f, -0.037993f, -0.000000f, -0.003350f, 0.000000f, -0.072190f, -0.011569f, 0.000000f, -0.006662f, 0.000000f, -0.000000f, -0.000124f, -0.060283f, -0.030745f, 0.043418f, 0.249289f, 0.005429f, 0.225130f, -0.031860f, -0.000000f, 0.100876f, -0.000000f, -0.050703f, -0.217558f, 0.020296f, -0.010906f, -0.000000f, 0.000000f, -0.000000f, 0.015222f, -0.128128f, -0.648953f, 0.113009f, 0.289257f, -0.435865f, 0.183818f, 0.045280f, -0.000000f, -0.000000f, -0.178151f, 0.156055f, 0.172875f, 0.036000f, 0.063330f, -0.005018f, 0.000000f, 0.016359f, -0.226283f, -0.000000f, -0.115887f, 0.113682f, -0.258471f, -0.127804f, 0.006110f, -0.000000f, 0.036706f, 0.133449f, -0.000000f, 0.098560f, -0.052445f, 0.247102f, -0.000000f, -0.069665f, 0.083491f, -0.002579f, 0.083464f, -0.000000f, 0.220885f, 0.000000f, 0.000001f, 0.143039f, 0.000000f, -0.000000f, -0.000000f, -0.000000f, -0.000000f, -0.035301f, 0.000001f, -0.107797f, 0.532581f, -0.000000f, -0.014304f, 0.000000f, 0.000000f, 0.238921f, 0.000000f, -0.019554f, 0.319791f, -0.021459f, 0.000000f, -0.000000f, 0.000000f, -0.000000f, 0.296784f, -0.077286f, -0.049587f, 0.041182f, -0.035509f, 0.000000f, 0.204379f, 0.064654f, -0.000000f, -0.000000f, 0.000006f, -0.215323f, -0.314525f, 0.220606f, 0.157655f, -0.000000f, -0.000000f, 0.000000f, 0.000013f, -0.000000f, -0.112066f, 0.312194f, -0.209959f, -0.131193f, 0.000000f, -0.000000f, -0.372841f, -0.049005f, 0.000000f, -0.025612f, -0.000000f, -0.056810f, 0.000000f, 0.117069f, -0.104732f, 0.000000f, 0.058353f, 0.000000f, 0.191995f, -0.000000f, -0.094916f, -0.126998f, 0.000000f, -0.008993f, 0.000000f, -0.000000f, -0.007135f, -0.054418f, -0.289694f, 0.042383f, -0.193631f, -0.037932f, 0.073812f, -0.004178f, -0.000000f, -0.105139f, -0.000000f, -0.001369f, 0.265873f, 0.062291f, -0.000856f, -0.000000f, 0.000000f, 0.000000f, 0.025724f, 0.132035f, 0.023566f, 0.056923f, -0.137274f, 0.091170f, -0.031908f, -0.248068f, 0.000000f, -0.000000f, -0.095688f, -0.254590f, -0.028531f, -0.149558f, 0.162214f, -0.000000f, -0.000000f, -0.024387f, 0.048322f, 0.000000f, 0.071318f, -0.603372f, -0.140424f, 0.001893f, -0.013553f, 0.000000f, 0.040755f, -0.019443f, 0.000000f, -0.094135f, -0.227666f, 0.006920f, -0.000000f, 0.052490f, 0.039634f, -0.000924f, -0.106373f, -0.000000f, -0.241590f, -0.000000f, 0.007251f, -0.023321f, 0.000000f, -0.014918f, -0.000000f, 0.000000f, -0.012184f, 0.117556f, 0.067391f, -0.109767f, 0.137271f, -0.018797f, -0.025998f, -0.021390f, 0.000000f, 0.047796f, -0.000000f, 0.016924f, 0.027218f, -0.020463f, -0.012144f, -0.000000f, 0.000000f, -0.000000f, -0.075694f, -0.033046f, -0.063203f, -0.042464f, 0.024095f, -0.157911f, -1.164101f, -0.115673f, -0.000000f, -0.000000f, -0.021786f, -0.343298f, 0.078289f, 0.175413f, 0.150460f, -0.000100f, -0.000000f, -0.043732f, -0.003461f, -0.000000f, -0.145826f, -0.275678f, -0.019338f, -0.022124f, -0.053660f, 0.000000f, 0.092336f, -0.217143f, 0.000000f, -0.221252f, 0.084756f, -0.076240f, 0.000000f, -0.140609f, -0.067226f, -0.036965f, -0.078299f, -0.000000f, 0.019701f, -0.000000f, -0.105099f, 0.137558f, 0.000000f, -0.000000f, 0.000000f, -0.000000f, -0.002155f, 0.157756f, 0.304695f, 0.237908f, -0.011921f, 0.022208f, 0.152375f, -0.013177f, 0.000000f, -0.032198f, -0.000000f, -0.142595f, -0.242507f, 0.211437f, 0.000000f, -0.000000f, -0.000000f, -0.000000f, 0.314289f, -0.157076f, 0.122461f, 0.002011f, 0.257221f, 0.206034f, 0.141554f, 0.043013f, 0.000000f, 0.000000f, -0.213698f, -0.002387f, 0.140246f, 0.124904f, 0.148596f, -0.000000f, 0.000000f, -0.024138f, -0.341189f, 0.000000f, -0.205809f, 0.000897f, -0.053918f, 0.155986f, -0.001477f, 0.000000f, -0.218248f, -0.415667f, -0.000000f, 0.310644f, 0.155888f, -0.243702f, 0.000000f, 0.051117f, 0.015003f, -0.054469f, -0.177919f, 0.000000f, -0.143620f, -0.000000f, -0.125704f, -0.191328f, -0.000000f, -0.000849f, -0.000000f, -0.000000f, -0.002741f, -0.124399f, -0.191026f, -0.063130f, 0.004927f, -0.031434f, -0.266493f, 0.007152f, 0.000000f, -0.144430f, -0.000000f, -0.008743f, 0.351711f, -0.002879f, -0.000000f, -0.000000f, -0.000000f, -0.000000f, -0.000000f, 0.200950f, 0.107245f, -0.126019f, -0.080764f, 0.139597f, -0.054692f, -0.108922f, -0.000000f, 0.000000f, 0.061408f, -0.000003f, 0.090029f, -0.011110f, -0.315192f, -0.000280f, -0.000000f, -0.027986f, -0.313206f, -0.000000f, 0.010559f, 0.000000f, -0.338300f, 0.078852f, -0.000128f, -0.000000f, -0.114789f, -0.000000f, -0.000000f, 0.259007f, 0.045498f, -0.036567f, -0.000000f, -0.341365f, -0.339630f, -0.025831f, 0.386816f, 0.000000f, -0.162750f, -0.000000f, 0.068109f, 0.109503f, -0.000000f, -0.003920f, -0.000000f, -0.000000f, -0.000151f, -0.168219f, 0.324280f, 0.252092f, -0.014090f, -0.029586f, 0.449358f, -0.030728f, -0.000000f, -0.333636f, 0.000000f, 0.363008f, -0.088844f, -0.511249f, -0.011481f, 0.000000f, 0.000000f, 0.000000f, -0.121311f, 0.114450f, -0.443058f, -0.012964f, 0.266146f, -0.046974f, 0.096316f, -0.030971f, 0.000000f, -0.000000f, 0.127428f, 0.323822f, 0.236360f, -0.158035f, 0.022103f, -0.000017f, -0.000000f, 0.018631f, 0.164768f, 0.000000f, 0.123578f, 0.017264f, 0.083092f, 0.121168f, 0.030452f, -0.000000f, 0.131319f, 0.508841f, -0.000000f, 0.020175f, 0.372770f, 0.219859f, -0.000000f, 0.009135f, -0.300387f, -0.035455f, 0.135371f, -0.000000f, 0.289608f, -0.000000f, 0.247538f, 0.243669f, -0.000000f, -0.021881f, -0.000000f, 0.000000f, -0.016235f, -0.014446f, 0.247753f, -0.003365f, 0.209808f, -0.026083f, -0.139669f, -0.011934f, 0.000000f, 0.146602f, 0.000000f, 0.099041f, -0.119087f, 0.016641f, -0.034386f, -0.000000f, -0.000000f, 0.000000f, 0.078941f, -0.146738f, 0.294397f, 0.249318f, -0.189737f, -0.197437f, -0.082787f, 0.142797f, -0.000000f, 0.000000f, 0.177369f, -0.103570f, 0.117455f, 0.256783f, -0.060269f, -0.007233f, 0.000000f, -0.041200f, 0.132053f, -0.000000f, -0.190441f, -0.141764f, 0.175341f, 0.038738f, -0.045256f, -0.000000f, 0.174822f, -0.034944f, 0.000000f, -0.377502f, -0.213798f, -0.197304f, 0.000000f, 0.086898f, 0.084957f, -0.041702f, -0.144281f, -0.000000f, 0.125994f, 0.000000f, 0.010840f, -0.005866f, -0.000000f, -0.000000f, 0.000000f, -0.000000f, 0.000000f, 0.020083f, -0.000359f, -0.005632f, -0.011928f, 0.000000f, -0.014289f, -0.000000f, 0.000000f, 0.002043f, 0.000000f, 0.008989f, -0.010723f, -0.000795f, 0.000000f, -0.000000f, -0.000000f, 0.000000f, 0.000000f, -0.006501f, 0.009172f, -0.006000f, 0.015883f, 0.000175f, 0.000000f, -0.004753f, 0.000000f, 0.000000f, -0.000592f, 0.001348f, 0.031797f, -0.001467f, -0.003155f, 0.000000f, 0.000000f, -0.000000f, 0.000023f, 0.000000f, 0.005994f, -0.000000f, -0.001778f, 0.011111f, 0.000000f, -0.000000f, -0.000284f, -0.000000f, 0.000000f, 0.000000f, 0.000000f, 0.012682f, -0.000000f, 0.000000f, -0.003376f, -0.000000f, 0.001546f, -0.000000f, 0.004076f, 0.000000f, -0.272603f, 0.103163f, 0.000000f, -0.013712f, 0.000000f, -0.000000f, -0.005274f, -0.015742f, -0.210710f, 0.144924f, 0.097935f, -0.006023f, -0.076637f, -0.035086f, 0.000000f, -0.198002f, 0.000000f, -0.315592f, 0.191842f, -0.195777f, -0.008605f, 0.000000f, 0.000000f, -0.000000f, 0.031211f, -0.149425f, -0.442860f, 0.048412f, 0.114594f, -0.320223f, -0.070098f, -0.217917f, -0.000000f, -0.000000f, -0.129486f, -0.287453f, 0.206988f, 0.289759f, 0.117384f, -0.004514f, -0.000000f, -0.014821f, -0.040999f, -0.000000f, -0.150737f, -0.164499f, -0.481114f, -0.080972f, -0.017817f, 0.000000f, -0.149278f, -0.034089f, 0.000000f, 0.236790f, 0.484063f, 0.328941f, 0.000000f, 0.074705f, -0.263677f, -0.016456f, 0.088493f, -0.000000f, 0.010655f, -0.000000f, 0.000000f, -0.000000f, 0.000000f, 0.000000f, 0.000000f, 0.000000f, -0.000000f, -0.000000f, 0.000000f, -0.000000f, 0.000000f, 0.000000f, 0.000000f, 0.000000f, 0.000000f, 0.000000f, 0.000000f, 0.000000f, 0.000000f, 0.000000f, -0.000000f, 0.000000f, 0.000000f, -0.000000f, 0.000000f, -0.000000f, 0.000000f, 0.000000f, -0.000000f, 0.000000f, -0.000000f, -0.000000f, -0.000000f, 0.000000f, 0.000000f, -0.000000f, 0.000000f, -0.000000f, 0.000000f, 0.000000f, -0.000000f, -0.000000f, 0.000000f, 0.000000f, 0.000000f, -0.000000f, -0.000000f, -0.000000f, -0.000000f, 0.000000f, -0.000000f, 0.000000f, -0.000000f, 0.000000f, -0.000000f, 0.000000f, -0.000000f, -0.000000f, 0.000000f, -0.000000f, -0.000000f, 0.000000f, 0.000000f, -0.000000f, -0.067797f, 0.156398f, 0.000000f, -0.020895f, -0.000000f, 0.000000f, -0.012779f, -0.191959f, -0.108149f, 0.216113f, -0.096587f, -0.036176f, -0.397025f, -0.005853f, -0.000000f, 0.144241f, 0.000000f, -0.026384f, -0.194999f, -0.039079f, 0.007636f, -0.000000f, 0.000000f, -0.000000f, -0.251065f, 0.046386f, -0.048120f, 0.190561f, 0.028549f, -0.785425f, -0.172781f, 0.061559f, 0.000000f, 0.000000f, 0.159763f, -0.076705f, -0.054184f, 0.189719f, 0.199937f, -0.008490f, -0.000000f, -0.036132f, 0.282624f, -0.000000f, -0.150628f, -0.026847f, -0.084525f, -0.118176f, -0.043155f, 0.000000f, -0.130969f, -0.375988f, -0.000000f, -0.184118f, -0.320532f, -0.045366f, 0.000000f, -0.115219f, -0.128859f, -0.036772f, -0.013967f, -0.000000f, -0.041167f, -0.000000f, 0.384096f, -0.275721f, 0.000000f, 0.000000f, 0.000000f, -0.000000f, -0.000000f, -0.499961f, 0.281936f, -0.031417f, 0.163496f, 0.023200f, -0.108608f, -0.032827f, -0.000000f, -0.068502f, -0.000000f, -0.219509f, 0.352772f, -0.126779f, 0.000000f, 0.000000f, -0.000000f, -0.000000f, -0.608797f, -0.042143f, -0.207377f, -0.254047f, -0.025035f, 0.513302f, -0.319750f, 0.124422f, -0.000000f, 0.000000f, -0.276206f, -0.592094f, 0.006415f, -0.047798f, -0.360328f, -0.000000f, -0.000000f, -0.000067f, -0.246391f, 0.000000f, -0.198552f, -0.000000f, 0.151909f, -0.284519f, 0.000143f, -0.000000f, -0.263586f, -0.177671f, -0.000000f, 0.150527f, -0.250005f, 0.138725f, 0.000000f, -0.000792f, 0.327579f, -0.044840f, 0.353669f, -0.000000f, 0.008510f, -0.000000f, -0.338214f, 0.252851f, -0.000000f, -0.013943f, 0.000000f, -0.000000f, -0.001792f, -0.235713f, -0.352639f, -0.175382f, -0.195122f, 0.003945f, 0.104564f, -0.045186f, 0.000000f, -0.050857f, 0.000000f, -0.100562f, -0.093126f, -0.490756f, -0.006145f, 0.000000f, -0.000000f, -0.000000f, -0.210110f, -0.244015f, 0.086955f, -0.450953f, 0.438606f, 0.113336f, 0.008440f, 0.031957f, -0.000000f, -0.000000f, -0.241866f, 0.007321f, -0.285590f, 0.081136f, 0.210344f, -0.000001f, 0.000000f, -0.007803f, 0.160374f, -0.000000f, -0.462442f, -0.014635f, -0.386641f, 0.096398f, -0.011924f, 0.000000f, -0.108151f, -0.121359f, 0.000000f, -0.318348f, -0.137771f, 0.594129f, 0.000000f, 0.197773f, 0.102846f, -0.051357f, -0.091328f, -0.000000f, 0.219787f, 0.000000f, -0.000000f, -0.000000f, -0.000000f, -0.000000f, -0.000000f, -0.000000f, -0.000000f, -0.000000f, -0.000000f, 0.000000f, -0.000000f, 0.000000f, 0.000000f, 0.000000f, 0.000000f, -0.000000f, 0.000000f, 0.000000f, 0.000000f, 0.000000f, -0.000000f, -0.000000f, -0.000000f, 0.000000f, 0.000000f, 0.000000f, -0.000000f, -0.000000f, 0.000000f, -0.000000f, 0.000000f, 0.000000f, 0.000000f, -0.000000f, -0.000000f, -0.000000f, 0.000000f, 0.000000f, -0.000000f, -0.000000f, 0.000000f, -0.000000f, -0.000000f, -0.000000f, -0.000000f, 0.000000f, 0.000000f, -0.000000f, 0.000000f, 0.000000f, 0.000000f, 0.000000f, -0.000000f, -0.000000f, 0.000000f, -0.000000f, 0.000000f, 0.000000f, 0.000000f, 0.000000f, 0.000000f, -0.000000f, 0.000000f, -0.000000f, 0.186304f, -0.056177f, -0.000000f, -0.010344f, 0.000000f, 0.000000f, -0.004190f, 0.408104f, -0.201021f, 0.035286f, -0.070667f, 0.009455f, 0.213137f, -0.014366f, -0.000000f, 0.317556f, -0.000000f, 0.091084f, -0.240517f, 0.063785f, -0.004825f, 0.000000f, 0.000000f, -0.000000f, -0.117168f, 0.258639f, 0.021162f, 0.162330f, 0.195991f, -0.242433f, 0.328053f, 0.054973f, -0.000000f, 0.000000f, 0.136852f, 0.192234f, -0.008468f, -0.192985f, -0.190377f, -0.000028f, 0.000000f, 0.012512f, -0.034532f, 0.000000f, 0.226289f, 0.082304f, 0.146918f, -0.199811f, 0.015811f, -0.000000f, -0.072393f, -0.212500f, -0.000000f, 0.278207f, -0.642406f, 0.120570f, -0.000000f, -0.151545f, 0.474113f, -0.019845f, -0.051935f, -0.000000f, 0.233582f, -0.000000f, -0.303314f, 0.121008f, -0.000000f, -0.010451f, 0.000000f, 0.000000f, -0.002840f, 0.278254f, -0.477431f, -0.098408f, 0.293577f, 0.006389f, 0.348791f, -0.034620f, 0.000000f, -0.086039f, 0.000000f, 0.109206f, 0.212299f, -0.410140f, -0.006012f, 0.000000f, -0.000000f, -0.000000f, -0.006235f, 0.046593f, 0.015998f, 0.136960f, 0.007468f, 0.179076f, -0.033875f, -0.197285f, 0.000000f, 0.000000f, -0.086044f, 0.109947f, 0.001518f, 0.221827f, -0.366494f, -0.000030f, -0.000000f, 0.018565f, 0.209526f, 0.000000f, 0.033202f, -0.249808f, -0.520555f, -0.046795f, 0.003665f, -0.000000f, -0.052030f, -0.120394f, -0.000000f, -0.406060f, 0.137538f, 0.380666f, 0.000000f, 0.268659f, 0.032074f, -0.036202f, -0.073387f, 0.000000f, 0.281551f, -0.000000f, 0.000000f, 0.000000f, 0.000000f, -0.000000f, 0.000000f, -0.000000f, 0.000000f, -0.000000f, 0.000000f, -0.000000f, -0.000000f, -0.000000f, -0.000000f, 0.000000f, 0.000000f, 0.000000f, -0.000000f, -0.000000f, -0.000000f, -0.000000f, -0.000000f, -0.000000f, 0.000000f, 0.000000f, 0.000000f, 0.000000f, -0.000000f, 0.000000f, -0.000000f, 0.000000f, 0.000000f, 0.000000f, 0.000000f, -0.000000f, -0.000000f, 0.000000f, -0.000000f, -0.000000f, -0.000000f, 0.000000f, 0.000000f, 0.000000f, 0.000000f, -0.000000f, -0.000000f, -0.000000f, -0.000000f, -0.000000f, 0.000000f, -0.000000f, -0.000000f, -0.000000f, 0.000000f, -0.000000f, 0.000000f, -0.000000f, 0.000000f, 0.000000f, 0.000000f, 0.000000f, -0.000000f, 0.000000f, 0.000000f, -0.000000f, 0.000000f, -0.000000f, -0.000000f, 0.000000f, -0.000000f, 0.000000f, -0.000000f, -0.000000f, -0.000000f, -0.000000f, -0.000000f, 0.000000f, 0.000000f, -0.000000f, -0.000000f, -0.000000f, -0.000000f, 0.000000f, -0.000000f, 0.000000f, -0.000000f, 0.000000f, 0.000000f, 0.000000f, -0.000000f, -0.000000f, -0.000000f, 0.000000f, -0.000000f, -0.000000f, 0.000000f, -0.000000f, 0.000000f, -0.000000f, 0.000000f, -0.000000f, -0.000000f, 0.000000f, -0.000000f, -0.000000f, -0.000000f, -0.000000f, 0.000000f, -0.000000f, 0.000000f, -0.000000f, -0.000000f, 0.000000f, 0.000000f, -0.000000f, 0.000000f, 0.000000f, 0.000000f, 0.000000f, -0.000000f, 0.000000f, -0.000000f, -0.000000f, -0.000000f, -0.000000f, 0.000000f, -0.000000f, 0.000000f, -0.000000f, 0.365879f, -0.082918f, 0.000000f, -0.015397f, 0.000000f, -0.000000f, -0.003156f, 0.254207f, -0.245262f, -0.021329f, 0.189013f, -0.003752f, -0.016120f, -0.030831f, -0.000000f, -0.105632f, 0.000000f, 0.076727f, 0.272176f, -0.103961f, -0.011032f, -0.000000f, -0.000000f, 0.000000f, -0.248767f, 0.322881f, 0.158631f, -0.177916f, -0.347374f, 0.108770f, 0.282382f, -0.239909f, -0.000000f, 0.000000f, 0.028234f, -0.438632f, -0.275363f, -0.048912f, -0.162208f, -0.000041f, -0.000000f, -0.018238f, -0.330479f, 0.000000f, 0.296074f, -0.582981f, 0.058809f, 0.446569f, -0.020930f, 0.000000f, 0.176510f, -0.301259f, 0.000000f, -0.438975f, -0.052916f, 0.215604f, 0.000000f, -0.012513f, -0.292427f, -0.030944f, 0.321222f, 0.000000f, 0.185601f, -0.000000f, 0.190786f, 0.274155f, -0.000000f, -0.010244f, -0.000000f, 0.000000f, -0.007431f, -0.185149f, 0.146735f, -0.034092f, 0.153225f, -0.026735f, -0.391644f, -0.016514f, -0.000000f, 0.317975f, -0.000000f, 0.194686f, -0.276015f, -0.119398f, -0.000000f, 0.000000f, -0.000000f, 0.000000f, 0.037204f, -0.121152f, 0.118748f, -0.066281f, 0.283926f, 0.007392f, 0.104395f, 0.188778f, 0.000000f, -0.000000f, 0.160958f, 0.264803f, 0.001592f, -0.127071f, 0.046229f, -0.000003f, 0.000000f, -0.059925f, 0.190166f, 0.000000f, -0.179119f, -0.147302f, 0.149007f, 0.066094f, -0.021994f, 0.000000f, 0.050429f, -0.224502f, 0.000000f, 0.270417f, 0.149748f, -0.182848f, -0.000000f, -0.595678f, 0.255658f, -0.061319f, -0.227386f, 0.000000f, -0.144833f, -0.000000f, 0.127523f, -0.107093f, 0.000000f, -0.005468f, 0.000000f, -0.000000f, -0.000182f, 0.313495f, 0.294410f, -0.328779f, 0.335910f, 0.025361f, 0.056153f, -0.022446f, 0.000000f, -0.002940f, -0.000000f, -0.446281f, -0.101072f, -0.101008f, -0.000648f, 0.000000f, -0.000000f, -0.000000f, -0.018666f, 0.249651f, 0.130831f, -0.347431f, -0.331497f, 0.147038f, 0.065572f, -0.108082f, -0.000000f, -0.000000f, -1.144867f, 0.054344f, -0.014898f, -0.155859f, 0.515982f, -0.000000f, -0.000000f, 0.002519f, 0.005168f, 0.000000f, 0.173334f, -0.429861f, 0.422117f, -0.094121f, -0.003568f, 0.000000f, -0.127992f, 0.055193f, -0.000000f, -0.057514f, -0.120338f, -0.537846f, -0.000000f, 0.044093f, 0.121928f, -0.044095f, -0.666017f, -0.000000f, -0.255317f, -0.000000f, -0.225800f, 0.316402f, -0.000000f, -0.016237f, 0.000000f, -0.000000f, -0.009803f, 0.503374f, -0.070024f, 0.121359f, -0.119610f, -0.030542f, -0.320604f, 0.003409f, -0.000000f, 0.303093f, 0.000000f, -0.131204f, -0.128868f, -0.154458f, -0.020001f, 0.000000f, -0.000000f, 0.000000f, 0.321256f, 0.203895f, 0.083418f, 0.381900f, 0.046530f, -0.335759f, 0.053085f, 0.020907f, 0.000000f, -0.000000f, -0.050924f, 0.047768f, -0.167008f, -0.026881f, -0.021040f, -0.004576f, -0.000000f, -0.039446f, 0.010298f, 0.000000f, 0.230125f, 0.287363f, -0.316752f, 0.420465f, -0.017213f, -0.000000f, 0.015529f, -0.009238f, -0.000000f, -0.104800f, -0.544710f, 0.242128f, -0.000000f, 0.254491f, -0.118103f, -0.022251f, 0.151125f, 0.000000f, -0.066838f, -0.000000f, -0.023810f, 0.020855f, -0.000000f, -0.000000f, 0.000000f, -0.000000f, -0.000000f, -0.010271f, -0.021717f, 0.024415f, -0.031226f, 0.000000f, 0.022886f, -0.000000f, 0.000000f, 0.028791f, -0.000000f, 0.010044f, -0.011799f, -0.058602f, 0.000000f, -0.000000f, 0.000000f, -0.000000f, -0.000000f, -0.036664f, -0.012376f, -0.043898f, -0.008437f, 0.025475f, 0.000000f, 0.016208f, -0.000000f, -0.000000f, -0.023082f, 0.041066f, 0.001200f, 0.043136f, -0.005566f, 0.000000f, -0.000000f, 0.000000f, 0.052902f, -0.000000f, 0.012967f, 0.017193f, 0.008219f, 0.013962f, -0.000000f, -0.000000f, 0.005698f, -0.000594f, -0.000000f, -0.033550f, -0.043533f, 0.014504f, -0.000000f, -0.000000f, 0.036863f, -0.000000f, 0.009994f, -0.000000f, 0.034386f, 0.000000f, 0.014731f, 0.021175f, 0.000000f, 0.000000f, 0.000000f, 0.000000f, -0.000000f, -0.000000f, 0.026721f, -0.026403f, 0.022342f, -0.000000f, 0.000044f, -0.000000f, 0.000000f, 0.023329f, -0.000000f, 0.006069f, 0.004013f, -0.020016f, 0.000000f, 0.000000f, 0.000000f, 0.000000f, -0.000000f, 0.000000f, 0.023420f, 0.017016f, -0.025499f, -0.000000f, -0.000000f, -0.000000f, -0.000000f, 0.000000f, 0.000000f, -0.024755f, 0.000003f, -0.011346f, -0.000000f, -0.000000f, -0.000000f, -0.000000f, 0.000000f, 0.000000f, -0.026655f, -0.000000f, 0.000000f, 0.000000f, 0.000000f, 0.000000f, 0.010586f, -0.000000f, -0.000000f, -0.000000f, 0.000000f, 0.013456f, 0.000000f, -0.000000f, -0.000000f, 0.000000f, -0.011732f, -0.000000f, 0.021667f, -0.000000f, -0.043689f, 0.023166f, -0.000000f, -0.000000f, -0.000000f, 0.000000f, 0.000000f, 0.000073f, -0.038777f, 0.022851f, -0.053051f, -0.000000f, 0.027465f, 0.000000f, -0.000000f, 0.003399f, -0.000000f, 0.020033f, 0.072458f, -0.017840f, -0.000000f, 0.000000f, 0.000000f, 0.000000f, 0.028444f, -0.014496f, -0.015475f, -0.027721f, 0.055634f, 0.034528f, 0.033754f, 0.038295f, 0.000000f, -0.000000f, -0.022151f, 0.010119f, -0.016916f, -0.027705f, 0.003718f, -0.000000f, -0.000000f, 0.000000f, 0.001493f, -0.000000f, -0.019220f, 0.029509f, 0.013174f, -0.000775f, 0.000000f, 0.000000f, 0.008834f, 0.000000f, -0.000000f, 0.030327f, -0.038810f, 0.022815f, -0.000000f, 0.016616f, 0.056065f, 0.000000f, 0.051531f, -0.000000f, -0.031849f, -0.000000f, 0.302223f, 0.019798f, 0.000000f, -0.018991f, 0.000000f, -0.000000f, -0.011685f, 0.198271f, -0.224873f, 0.009880f, 0.118683f, -0.021431f, -0.329524f, -0.021793f, -0.000000f, -0.114647f, 0.000000f, 0.272963f, 0.148266f, -0.108725f, 0.015131f, 0.000000f, 0.000000f, 0.000000f, -0.593849f, 0.098125f, 0.272167f, -0.082848f, -0.366976f, -0.028140f, -0.121583f, -0.352003f, -0.000000f, 0.000000f, 0.200009f, -0.314964f, -0.284315f, -0.081496f, 0.085968f, -0.000002f, 0.000000f, -0.030914f, 0.085045f, -0.000000f, 0.145994f, 0.075647f, 0.037963f, 0.019492f, -0.027423f, -0.000000f, 0.188380f, -0.055335f, 0.000000f, -0.159284f, -0.321073f, 0.100806f, -0.000000f, -0.018238f, -0.002666f, -0.036623f, 0.032308f, -0.000000f, 0.002514f, -0.000000f, 0.065862f, -0.153079f, 0.000000f, -0.013887f, 0.000000f, 0.000000f, -0.005903f, -0.478339f, -0.499332f, 0.213949f, -0.420971f, -0.018747f, -0.075689f, -0.012738f, -0.000000f, -0.059094f, -0.000000f, 0.307772f, 0.554070f, 0.376132f, -0.009616f, -0.000000f, 0.000000f, -0.000000f, -0.166144f, -0.232561f, -0.110681f, -0.124556f, -0.678372f, -0.093520f, -0.074049f, -0.032254f, -0.000000f, -0.000000f, -0.302624f, -0.017871f, -0.186054f, -0.074817f, -0.054018f, 0.000000f, -0.000000f, -0.015180f, -0.022065f, 0.000000f, 0.003548f, -0.093009f, -0.120645f, -0.437309f, -0.017582f, 0.000000f, 0.131350f, 0.083077f, -0.000000f, -0.300250f, -0.093413f, -0.036593f, -0.000000f, 0.026245f, 0.231794f, -0.035601f, -0.314223f, 0.000000f, -0.201064f };
static const float mlp_modbus_layer_2_biases[64] = { -0.007481f, 0.151267f, -0.037927f, -0.127970f, -0.027582f, -0.195089f, -0.254253f, -0.184588f, -0.072199f, -0.113068f, -0.165240f, -0.026976f, -0.251736f, -0.028544f, 0.057497f, 0.139570f, -0.112822f, -0.137890f, 0.111335f, -0.154907f, -0.002386f, -0.158928f, -0.024736f, 0.039637f, -0.157980f, -0.023980f, -0.023290f, -0.071348f, -0.022949f, -0.016375f, -0.715267f, -0.363683f, -0.018158f, -0.290449f, -0.054568f, -0.084144f, 0.097431f, -0.468706f, -0.077044f, -0.184840f, -0.192669f, -0.194366f, 0.037848f, -0.215821f, -0.122872f, -0.187093f, -0.261924f, -0.017972f, 0.043365f, 0.047447f, -0.003624f, -0.007211f, -0.012077f, 0.118782f, -0.062277f, 0.338499f, -0.015128f, 0.217495f, -0.088504f, -0.359320f, 0.160995f, -0.080655f, -0.025216f, -0.049482f };
