


    // !!! This file is generated using emlearn !!!

    #include <eml_trees.h>
    

static const EmlTreesNode rf_modbus_nodes[4382] = {
  { 24, 1, 1, 17 },
  { 22, 74, -1, 1 },
  { 14, 2, 1, 14 },
  { 7, 306, 1, 11 },
  { 25, 978, 1, 9 },
  { 33, 14, 1, 3 },
  { 41, 185, -2, 1 },
  { 35, 1, -2, -1 },
  { 41, 134, 1, 2 },
  { 30, 8, -2, -1 },
  { 34, 1, 1, -2 },
  { 6, 8, 1, -2 },
  { 15, 834, -2, -1 },
  { 34, 1, -2, -1 },
  { 37, 0, -2, 1 },
  { 14, 2, -2, -1 },
  { 22, 148, -2, -1 },
  { 4, 1, 1, -2 },
  { 15, 1010, 1, 221 },
  { 14, 2, 1, 127 },
  { 34, 1, 1, 39 },
  { 36, 0, 1, 11 },
  { 41, 186, 1, 8 },
  { 7, 292, -2, 1 },
  { 15, 822, 1, 2 },
  { 37, 0, -2, -1 },
  { 37, 0, -1, 1 },
  { 34, 1, 1, -2 },
  { 35, 1, 1, -1 },
  { 40, 0, -1, -2 },
  { 5, 169, 1, -1 },
  { 31, 138, -1, -2 },
  { 33, 16, 1, 25 },
  { 7, 292, -2, 1 },
  { 39, 252, 1, -1 },
  { 14, 0, 1, 10 },
  { 31, 142, 1, 3 },
  { 31, 139, 1, -1 },
  { 19, 1, -1, -2 },
  { 1, 559, 1, 4 },
  { 32, 272, 1, -1 },
  { 25, 780, -1, 1 },
  { 15, 895, -1, -2 },
  { 30, 7, 1, -1 },
  { 24, 1, -1, -2 },
  { 34, 1, 1, 10 },
  { 30, 7, 1, 5 },
  { 19, 1, 1, 3 },
  { 15, 579, -2, 1 },
  { 8, 2, -1, -1 },
  { 35, 1, -2, -1 },
  { 31, 142, 1, 2 },
  { 33, 13, -1, -2 },
  { 14, 2, -1, 1 },
  { 41, 190, -1, -1 },
  { 30, 7, -1, 1 },
  { 6, 8, -2, -1 },
  { 14, 2, 1, -1 },
  { 13, 20, -1, -2 },
  { 13, 20, 1, 75 },
  { 1, 817, 1, 68 },
  { 2, 1, 1, 30 },
  { 19, 1, 1, 22 },
  { 15, 784, 1, 2 },
  { 25, 897, -2, -1 },
  { 1, 800, 1, 9 },
  { 15, 1009, 1, 7 },
  { 7, 333, 1, 4 },
  { 8, 2, 1, 2 },
  { 21, 1, -1, -1 },
  { 32, 250, -1, -1 },
  { 7, 333, -2, 1 },
  { 22, 148, -1, -1 },
  { 13, 2, -2, -1 },
  { 3, 1, 1, 6 },
  { 41, 189, 1, 3 },
  { 40, 1, -1, 1 },
  { 25, 882, -1, -2 },
  { 25, 691, -2, 1 },
  { 23, 151, -1, -1 },
  { 39, 249, -1, 1 },
  { 32, 265, 1, 2 },
  { 33, 11, -1, -1 },
  { 33, 15, -1, -2 },
  { 23, 146, 1, -1 },
  { 30, 7, -1, 1 },
  { 22, 148, -1, 1 },
  { 13, 2, 1, 2 },
  { 25, 896, -2, -1 },
  { 24, 1, -1, 1 },
  { 33, 14, -1, -2 },
  { 9, 1, 1, 26 },
  { 1, 246, 1, 4 },
  { 25, 977, 1, -1 },
  { 39, 249, -2, 1 },
  { 7, 306, -1, -2 },
  { 32, 272, 1, 14 },
  { 24, 1, 1, 8 },
  { 40, 1, 1, 4 },
  { 5, 169, 1, 2 },
  { 31, 138, -1, -2 },
  { 30, 7, -2, -1 },
  { 30, 7, 1, 2 },
  { 24, 1, -1, -2 },
  { 34, 1, -2, -1 },
  { 8, 2, 1, 2 },
  { 33, 135, -1, -2 },
  { 24, 1, 1, 2 },
  { 42, 0, -1, -2 },
  { 30, 7, -1, -1 },
  { 22, 148, 1, -1 },
  { 6, 8, 1, 4 },
  { 40, 1, 1, 2 },
  { 15, 698, -2, -1 },
  { 11, 1, -1, -2 },
  { 13, 10, -1, 1 },
  { 13, 20, -2, -1 },
  { 33, 14, 1, 8 },
  { 30, 7, 1, 2 },
  { 39, 247, -2, -1 },
  { 33, 14, 1, 3 },
  { 7, 300, 1, -1 },
  { 32, 254, -1, -2 },
  { 15, 975, -1, 1 },
  { 13, 20, -2, -1 },
  { 8, 2, -1, 1 },
  { 36, 0, -1, 1 },
  { 14, 1, -1, -2 },
  { 31, 140, -1, 1 },
  { 13, 19, 1, 4 },
  { 39, 249, 1, -2 },
  { 12, 1, -2, 1 },
  { 24, 1, -1, -2 },
  { 2, 1, -1, -2 },
  { 31, 138, 1, 4 },
  { 13, 20, -1, 1 },
  { 7, 304, 1, -2 },
  { 14, 2, -1, -2 },
  { 32, 262, 1, 3 },
  { 14, 2, -1, 1 },
  { 7, 301, -2, -1 },
  { 21, 1, 1, 3 },
  { 18, 0, 1, -2 },
  { 1, 501, -1, -2 },
  { 23, 145, -2, 1 },
  { 7, 316, -1, -2 },
  { 33, 15, 1, 80 },
  { 14, 2, 1, 66 },
  { 40, 1, 1, 41 },
  { 23, 155, 1, 36 },
  { 5, 258, 1, 20 },
  { 15, 912, 1, 4 },
  { 0, 2, -1, 1 },
  { 15, 911, -1, 1 },
  { 40, 1, -1, -2 },
  { 13, 19, 1, 8 },
  { 31, 145, 1, 4 },
  { 41, 190, 1, -2 },
  { 35, 1, 1, -1 },
  { 32, 257, -2, -1 },
  { 14, 2, 1, -1 },
  { 39, 250, 1, -1 },
  { 8, 2, -2, -2 },
  { 15, 941, 1, 5 },
  { 5, 258, 1, 2 },
  { 33, 11, -2, -1 },
  { 6, 8, -2, 1 },
  { 23, 153, -2, -2 },
  { 32, 257, 1, -1 },
  { 31, 146, -1, -2 },
  { 41, 187, -1, 1 },
  { 0, 1, -1, 1 },
  { 13, 19, 1, 6 },
  { 39, 250, 1, 3 },
  { 35, 1, 1, -1 },
  { 14, 2, -1, -2 },
  { 32, 261, -1, 1 },
  { 34, 1, -1, -2 },
  { 36, 0, 1, 4 },
  { 40, 0, 1, 2 },
  { 35, 1, -2, -1 },
  { 5, 261, -1, -2 },
  { 39, 251, 1, 2 },
  { 6, 8, -2, -1 },
  { 15, 945, -1, -1 },
  { 7, 303, -2, 1 },
  { 23, 155, 1, -1 },
  { 6, 8, -1, 1 },
  { 30, 7, -2, -1 },
  { 1, 511, 1, 13 },
  { 0, 2, 1, 2 },
  { 23, 155, -2, -1 },
  { 13, 19, -1, 1 },
  { 32, 263, 1, 5 },
  { 33, 11, -1, 1 },
  { 14, 2, 1, -2 },
  { 32, 262, 1, -1 },
  { 40, 1, -2, -1 },
  { 7, 330, 1, 3 },
  { 15, 948, 1, -1 },
  { 30, 7, -1, -2 },
  { 30, 7, -2, -1 },
  { 6, 8, 1, 3 },
  { 14, 2, 1, -1 },
  { 32, 262, -2, -1 },
  { 15, 818, 1, 3 },
  { 14, 2, 1, -1 },
  { 25, 803, -1, -2 },
  { 13, 32, 1, -2 },
  { 31, 144, -1, 1 },
  { 36, 0, 1, -1 },
  { 1, 586, -1, 1 },
  { 0, 1, -1, -2 },
  { 25, 761, 1, 8 },
  { 33, 12, -1, 1 },
  { 24, 1, 1, 2 },
  { 13, 16, -1, -2 },
  { 6, 8, -1, 1 },
  { 41, 185, -1, 1 },
  { 24, 1, 1, -2 },
  { 41, 186, -2, -1 },
  { 39, 248, 1, -1 },
  { 40, 1, 1, 3 },
  { 24, 1, 1, -1 },
  { 37, 0, -2, -1 },
  { 34, 1, -1, -2 },
  { 1, 608, 1, 7 },
  { 39, 247, -1, 1 },
  { 23, 152, 1, 4 },
  { 37, 0, -1, 1 },
  { 32, 262, -2, 1 },
  { 12, 1, -2, -1 },
  { 7, 333, -2, -1 },
  { 41, 187, 1, 3 },
  { 1, 724, -1, 1 },
  { 24, 1, -2, -1 },
  { 25, 560, -1, 1 },
  { 8, 2, 1, -1 },
  { 5, 169, -1, -2 },
  { 33, 13, 1, 16 },
  { 17, 1, 1, 14 },
  { 22, 148, 1, 5 },
  { 30, 7, 1, -1 },
  { 0, 2, 1, -1 },
  { 0, 2, -1, 1 },
  { 31, 140, -1, -2 },
  { 32, 262, 1, 7 },
  { 16, 1, 1, 4 },
  { 30, 7, -1, 1 },
  { 41, 190, -1, 1 },
  { 25, 941, -1, -2 },
  { 30, 7, 1, -2 },
  { 40, 1, -1, -2 },
  { 37, 0, -2, -1 },
  { 7, 325, -2, -1 },
  { 5, 177, 1, 8 },
  { 2, 1, 1, 5 },
  { 36, 0, 1, 3 },
  { 37, 0, 1, -2 },
  { 15, 1011, -2, -1 },
  { 36, 0, -1, -2 },
  { 1, 651, -1, 1 },
  { 0, 2, -2, -1 },
  { 40, 1, 1, 18 },
  { 0, 2, 1, 7 },
  { 6, 8, -1, 1 },
  { 24, 1, 1, 4 },
  { 36, 0, 1, -2 },
  { 19, 1, 1, -2 },
  { 7, 311, -2, -1 },
  { 33, 15, -2, -1 },
  { 13, 2, 1, 8 },
  { 13, 2, 1, 5 },
  { 25, 928, 1, -1 },
  { 32, 269, 1, -1 },
  { 22, 148, -1, 1 },
  { 30, 7, -2, -1 },
  { 25, 943, -1, 1 },
  { 30, 7, -1, -2 },
  { 5, 220, -2, 1 },
  { 25, 912, -1, -2 },
  { 7, 315, -1, -2 },
  { 24, 1, 1, 13 },
  { 20, 1, 1, -1 },
  { 1, 375, -1, 1 },
  { 32, 271, 1, -1 },
  { 30, 8, 1, -1 },
  { 13, 20, 1, 5 },
  { 25, 980, 1, 3 },
  { 15, 1014, 1, -2 },
  { 14, 2, -2, -1 },
  { 32, 261, -1, -2 },
  { 39, 247, -2, 1 },
  { 33, 14, 1, -2 },
  { 25, 842, -2, -1 },
  { 6, 8, 1, 39 },
  { 40, 1, 1, 15 },
  { 23, 155, 1, -1 },
  { 22, 148, 1, 11 },
  { 8, 2, 1, -2 },
  { 30, 7, 1, 5 },
  { 41, 189, 1, 3 },
  { 5, 251, 1, -1 },
  { 31, 146, -2, -1 },
  { 15, 895, -1, -2 },
  { 40, 1, -1, 1 },
  { 1, 503, 1, 2 },
  { 0, 2, -2, -1 },
  { 30, 7, -2, -1 },
  { 24, 1, 1, -1 },
  { 23, 153, -1, -2 },
  { 15, 822, -1, 1 },
  { 30, 7, -1, 1 },
  { 32, 264, 1, 15 },
  { 12, 1, -1, 1 },
  { 30, 7, 1, 12 },
  { 32, 262, 1, 7 },
  { 13, 19, -1, 1 },
  { 7, 329, 1, 2 },
  { 15, 896, -2, -1 },
  { 15, 858, 1, -2 },
  { 2, 1, -2, 1 },
  { 7, 330, -1, -2 },
  { 24, 1, 1, 3 },
  { 31, 144, -2, 1 },
  { 1, 497, -1, -2 },
  { 13, 32, -1, -2 },
  { 39, 249, -1, -2 },
  { 1, 511, 1, 5 },
  { 21, 1, -2, 1 },
  { 8, 2, 1, 2 },
  { 34, 1, -2, -1 },
  { 39, 246, -1, -2 },
  { 42, 0, -1, -2 },
  { 23, 155, 1, 162 },
  { 25, 702, 1, 19 },
  { 9, 1, 1, -1 },
  { 7, 325, 1, -1 },
  { 13, 2, 1, 3 },
  { 42, 0, -2, 1 },
  { 30, 7, -1, -2 },
  { 40, 0, 1, 2 },
  { 13, 19, -1, -2 },
  { 15, 825, -1, 1 },
  { 31, 144, 1, -1 },
  { 37, 0, 1, 8 },
  { 14, 2, 1, 3 },
  { 37, 0, -2, 1 },
  { 7, 317, -2, -1 },
  { 7, 320, 1, -1 },
  { 15, 923, 1, 2 },
  { 37, 0, -2, -1 },
  { 1, 786, -2, -1 },
  { 15, 1003, -1, -2 },
  { 8, 2, 1, -2 },
  { 31, 143, 1, 89 },
  { 15, 786, 1, 7 },
  { 1, 736, 1, 5 },
  { 41, 186, 1, -2 },
  { 0, 2, 1, 2 },
  { 14, 2, -1, -2 },
  { 30, 7, -1, -2 },
  { 42, 0, -1, -2 },
  { 15, 1009, 1, 49 },
  { 1, 244, 1, 5 },
  { 37, 0, 1, 3 },
  { 36, 0, -2, 1 },
  { 7, 306, -1, -2 },
  { 24, 1, -1, -2 },
  { 7, 322, 1, 27 },
  { 32, 264, 1, 12 },
  { 5, 170, 1, 7 },
  { 7, 303, 1, 4 },
  { 19, 1, 1, 2 },
  { 41, 182, -2, -1 },
  { 41, 187, -1, -2 },
  { 39, 248, 1, -1 },
  { 1, 506, -2, -1 },
  { 1, 817, 1, -2 },
  { 17, 1, 1, 2 },
  { 39, 249, -1, -1 },
  { 37, 0, -1, -1 },
  { 39, 249, 1, 8 },
  { 30, 7, 1, 4 },
  { 1, 800, 1, 2 },
  { 7, 289, -2, -1 },
  { 1, 801, -2, -1 },
  { 7, 319, 1, 2 },
  { 19, 1, -1, -1 },
  { 15, 1007, -1, -2 },
  { 15, 1008, 1, 4 },
  { 6, 8, 1, 2 },
  { 34, 1, -1, -1 },
  { 22, 148, -2, -1 },
  { 2, 1, -1, 1 },
  { 34, 1, -2, -1 },
  { 41, 187, 1, 8 },
  { 40, 1, 1, 6 },
  { 36, 0, 1, 3 },
  { 36, 0, -1, 1 },
  { 39, 248, -1, -1 },
  { 13, 20, -1, 1 },
  { 34, 1, -2, -1 },
  { 13, 32, -1, -2 },
  { 32, 272, 1, 7 },
  { 30, 7, 1, 3 },
  { 7, 324, 1, -1 },
  { 32, 264, -1, -2 },
  { 17, 1, 1, 2 },
  { 33, 12, -2, -2 },
  { 5, 260, -1, -2 },
  { 11, 1, -1, -2 },
  { 30, 7, 1, 18 },
  { 33, 15, 1, 12 },
  { 6, 8, -1, 1 },
  { 6, 8, 1, 5 },
  { 39, 247, -1, 1 },
  { 2, 1, 1, 2 },
  { 23, 149, -2, -1 },
  { 24, 1, -2, -2 },
  { 13, 14, 1, 3 },
  { 5, 171, 1, -1 },
  { 37, 0, -1, -2 },
  { 39, 251, 1, -1 },
  { 7, 293, -2, -2 },
  { 21, 1, 1, 4 },
  { 39, 248, -1, 1 },
  { 6, 8, 1, -1 },
  { 6, 8, -1, -2 },
  { 23, 148, -1, -2 },
  { 22, 148, 1, 9 },
  { 36, 0, 1, 7 },
  { 13, 2, -1, 1 },
  { 35, 1, 1, 3 },
  { 31, 140, 1, -1 },
  { 33, 14, -1, -2 },
  { 25, 903, -1, 1 },
  { 36, 0, -1, -2 },
  { 25, 874, -1, -2 },
  { 5, 260, 1, 4 },
  { 30, 7, -1, 1 },
  { 39, 251, 1, -2 },
  { 30, 7, -1, -2 },
  { 39, 252, -1, -2 },
  { 7, 334, 1, 49 },
  { 23, 154, 1, 28 },
  { 5, 233, -1, 1 },
  { 30, 7, 1, 15 },
  { 13, 20, 1, 13 },
  { 1, 518, 1, 6 },
  { 6, 8, 1, 3 },
  { 34, 1, -1, 1 },
  { 1, 500, -1, -2 },
  { 1, 506, -1, 1 },
  { 31, 143, -2, -1 },
  { 6, 8, 1, 4 },
  { 32, 257, 1, 2 },
  { 33, 12, -1, -2 },
  { 13, 20, -1, -1 },
  { 30, 7, -1, 1 },
  { 35, 1, -2, -1 },
  { 31, 145, -2, -1 },
  { 32, 262, 1, 9 },
  { 24, 1, 1, 5 },
  { 16, 1, 1, 3 },
  { 40, 1, 1, -2 },
  { 33, 11, -1, -2 },
  { 6, 8, -2, -1 },
  { 7, 331, 1, -1 },
  { 34, 1, 1, -2 },
  { 2, 1, -1, -2 },
  { 0, 1, 1, -1 },
  { 25, 859, -1, -2 },
  { 36, 0, 1, 18 },
  { 14, 2, 1, 14 },
  { 36, 0, 1, 4 },
  { 5, 255, 1, -1 },
  { 35, 1, -2, 1 },
  { 33, 12, -1, -2 },
  { 42, 0, 1, 5 },
  { 15, 914, 1, 2 },
  { 40, 1, -1, -2 },
  { 36, 0, -1, 1 },
  { 12, 1, -1, -2 },
  { 39, 250, 1, -1 },
  { 1, 521, 1, 2 },
  { 15, 936, -2, -1 },
  { 8, 2, -2, -2 },
  { 40, 1, 1, 2 },
  { 31, 145, -1, -2 },
  { 24, 1, -1, -2 },
  { 39, 250, 1, -1 },
  { 7, 322, -1, -2 },
  { 7, 334, 1, -1 },
  { 36, 0, -1, 1 },
  { 0, 2, -1, -2 },
  { 5, 170, 1, 6 },
  { 30, 7, 1, -2 },
  { 33, 15, -2, 1 },
  { 24, 1, -1, 1 },
  { 41, 186, 1, -2 },
  { 25, 780, -2, -1 },
  { 8, 2, 1, 4 },
  { 24, 1, 1, 2 },
  { 41, 182, -2, -1 },
  { 42, 0, -1, -2 },
  { 6, 8, 1, -1 },
  { 23, 253, -1, -2 },
  { 35, 1, 1, 5 },
  { 1, 380, -1, 1 },
  { 7, 370, -2, 1 },
  { 23, 324, 1, -2 },
  { 31, 185, -1, -2 },
  { 30, 7, 1, 170 },
  { 7, 334, 1, 159 },
  { 4, 1, 1, -2 },
  { 40, 1, 1, 112 },
  { 39, 252, 1, 99 },
  { 5, 170, 1, 45 },
  { 33, 15, 1, 29 },
  { 5, 169, 1, 5 },
  { 33, 15, -1, 1 },
  { 21, 1, -1, 1 },
  { 37, 0, -1, 1 },
  { 40, 0, -2, -1 },
  { 14, 2, 1, 17 },
  { 41, 186, 1, 8 },
  { 24, 1, 1, 5 },
  { 33, 13, -1, 1 },
  { 34, 1, 1, 2 },
  { 23, 145, -2, -2 },
  { 33, 14, -2, -1 },
  { 33, 14, -1, 1 },
  { 2, 1, -1, -2 },
  { 19, 1, 1, 5 },
  { 23, 144, 1, -1 },
  { 41, 186, 1, 2 },
  { 25, 891, -2, -1 },
  { 6, 8, -2, -1 },
  { 3, 1, 1, -2 },
  { 36, 0, -2, 1 },
  { 1, 703, -1, -2 },
  { 7, 290, -1, 1 },
  { 33, 14, -1, 1 },
  { 40, 0, 1, 2 },
  { 5, 169, -2, -1 },
  { 8, 2, 1, -2 },
  { 19, 1, -2, -2 },
  { 25, 879, 1, 2 },
  { 39, 248, -2, -1 },
  { 37, 0, 1, 3 },
  { 36, 0, 1, -2 },
  { 15, 839, -2, -1 },
  { 8, 2, -1, 1 },
  { 5, 169, 1, 6 },
  { 1, 522, 1, 2 },
  { 6, 8, -1, -2 },
  { 37, 0, 1, 2 },
  { 6, 8, -2, -1 },
  { 35, 1, -2, -1 },
  { 37, 0, -1, 1 },
  { 31, 138, 1, -1 },
  { 6, 8, -2, -1 },
  { 9, 1, 1, 43 },
  { 34, 1, 1, 23 },
  { 30, 7, 1, 10 },
  { 22, 148, 1, 4 },
  { 22, 148, 1, 2 },
  { 2, 1, -2, -1 },
  { 34, 1, -2, -1 },
  { 7, 309, -1, 1 },
  { 23, 149, 1, -1 },
  { 33, 15, 1, 2 },
  { 32, 271, -2, -1 },
  { 41, 187, -2, -1 },
  { 13, 32, 1, -2 },
  { 23, 155, 1, 8 },
  { 6, 8, 1, 4 },
  { 23, 153, 1, 2 },
  { 39, 251, -1, -2 },
  { 6, 8, -1, -2 },
  { 12, 1, 1, 2 },
  { 15, 1010, -1, -2 },
  { 25, 991, -1, -2 },
  { 37, 0, -2, 1 },
  { 23, 155, 1, -1 },
  { 25, 856, -1, -1 },
  { 32, 257, 1, 9 },
  { 30, 7, 1, 6 },
  { 41, 186, -2, 1 },
  { 33, 15, 1, 3 },
  { 22, 148, -1, 1 },
  { 36, 0, -2, -1 },
  { 16, 1, -2, -1 },
  { 5, 251, 1, -1 },
  { 15, 854, -1, -2 },
  { 31, 137, 1, 5 },
  { 8, 1, 1, -1 },
  { 39, 248, 1, -1 },
  { 17, 1, -1, 1 },
  { 22, 148, -1, -2 },
  { 8, 2, 1, -2 },
  { 15, 1014, 1, -2 },
  { 7, 332, 1, 2 },
  { 23, 157, -1, -1 },
  { 36, 0, -1, -1 },
  { 0, 2, -1, 1 },
  { 8, 2, 1, 4 },
  { 37, 0, 1, -1 },
  { 34, 1, 1, -1 },
  { 24, 1, -1, -2 },
  { 14, 2, 1, 3 },
  { 36, 0, -1, 1 },
  { 15, 976, -1, -2 },
  { 25, 946, -1, 1 },
  { 41, 188, -1, -2 },
  { 13, 2, 1, 4 },
  { 13, 1, 1, -2 },
  { 39, 252, 1, -1 },
  { 31, 142, -1, -2 },
  { 24, 1, -1, 1 },
  { 39, 252, 1, -1 },
  { 7, 330, 1, -1 },
  { 32, 262, 1, -1 },
  { 40, 0, -1, 1 },
  { 31, 159, 1, -1 },
  { 6, 8, 1, -2 },
  { 41, 191, -2, -1 },
  { 17, 1, 1, 5 },
  { 41, 187, 1, -1 },
  { 25, 886, 1, -1 },
  { 2, 1, -1, 1 },
  { 13, 27, -1, -2 },
  { 31, 144, 1, 26 },
  { 5, 262, 1, 3 },
  { 33, 11, 1, -1 },
  { 15, 847, -1, -2 },
  { 30, 7, 1, 4 },
  { 15, 923, -1, 1 },
  { 6, 8, -2, 1 },
  { 1, 679, -2, -1 },
  { 25, 808, -1, 1 },
  { 37, 0, 1, 10 },
  { 23, 154, 1, 3 },
  { 35, 1, -2, 1 },
  { 25, 875, -1, -2 },
  { 1, 546, 1, 4 },
  { 37, 0, 1, 2 },
  { 40, 1, -1, -2 },
  { 24, 1, -1, -2 },
  { 25, 910, 1, -1 },
  { 14, 2, -2, -2 },
  { 0, 1, -1, 1 },
  { 41, 187, 1, 3 },
  { 1, 513, 1, -2 },
  { 31, 144, -2, -1 },
  { 33, 12, 1, 2 },
  { 1, 491, -1, -2 },
  { 40, 1, -1, -2 },
  { 1, 507, 1, 4 },
  { 24, 1, -1, 1 },
  { 13, 32, 1, -2 },
  { 34, 1, -2, -1 },
  { 12, 1, 1, 2 },
  { 37, 0, -1, -2 },
  { 30, 7, 1, 2 },
  { 37, 0, -2, -1 },
  { 6, 7, -2, 1 },
  { 25, 886, 1, 4 },
  { 6, 8, -1, 1 },
  { 15, 819, -1, 1 },
  { 36, 0, -2, -2 },
  { 1, 513, -2, -1 },
  { 23, 152, 1, 3 },
  { 30, 7, -1, 1 },
  { 32, 261, -2, -1 },
  { 37, 0, 1, 3 },
  { 39, 252, -1, 1 },
  { 7, 334, -2, -1 },
  { 41, 190, 1, -1 },
  { 14, 2, -1, 1 },
  { 14, 2, 1, -1 },
  { 15, 917, -1, -2 },
  { 32, 263, 1, 17 },
  { 31, 144, 1, 7 },
  { 15, 905, 1, 4 },
  { 15, 852, -1, 1 },
  { 7, 319, -2, 1 },
  { 8, 1, -1, -2 },
  { 12, 1, -1, 1 },
  { 4, 1, -1, -2 },
  { 35, 1, 1, 2 },
  { 1, 554, -1, -2 },
  { 34, 1, -2, 1 },
  { 4, 1, 1, -2 },
  { 40, 0, 1, 2 },
  { 15, 818, -2, -1 },
  { 1, 613, -1, 1 },
  { 33, 12, 1, -1 },
  { 23, 155, -2, -1 },
  { 33, 13, 1, 7 },
  { 4, 1, 1, -2 },
  { 7, 329, 1, -1 },
  { 40, 1, 1, 2 },
  { 1, 489, -2, -1 },
  { 41, 188, -2, 1 },
  { 32, 268, -1, -2 },
  { 16, 0, -2, 1 },
  { 39, 242, -2, -1 },
  { 40, 0, 1, 12 },
  { 7, 375, 1, -1 },
  { 42, 0, 1, 9 },
  { 6, 8, -1, 1 },
  { 35, 1, 1, -1 },
  { 15, 1009, 1, -2 },
  { 30, 7, -1, 1 },
  { 6, 8, -2, 1 },
  { 33, 16, 1, -2 },
  { 25, 883, -2, 1 },
  { 34, 1, -1, -2 },
  { 6, 8, -1, -2 },
  { 23, 155, 1, 230 },
  { 19, 1, 1, 198 },
  { 30, 7, 1, 108 },
  { 5, 170, 1, 20 },
  { 15, 827, 1, 7 },
  { 7, 307, 1, -1 },
  { 0, 0, 1, 2 },
  { 7, 305, -1, -2 },
  { 41, 187, 1, -1 },
  { 25, 971, -2, 1 },
  { 31, 137, -1, -2 },
  { 23, 144, 1, -1 },
  { 31, 138, 1, 3 },
  { 1, 506, 1, -1 },
  { 9, 1, -2, -1 },
  { 32, 272, 1, -1 },
  { 1, 537, 1, -1 },
  { 32, 260, -1, 1 },
  { 8, 2, 1, 3 },
  { 0, 1, 1, -2 },
  { 25, 863, -2, -1 },
  { 30, 7, -1, 1 },
  { 37, 0, -2, -1 },
  { 13, 32, 1, -2 },
  { 0, 0, 1, 23 },
  { 4, 1, 1, -2 },
  { 1, 800, 1, 5 },
  { 8, 2, 1, -2 },
  { 15, 755, 1, 2 },
  { 21, 1, -1, -2 },
  { 1, 342, -2, -1 },
  { 25, 862, 1, 9 },
  { 34, 1, 1, 2 },
  { 14, 1, -2, -1 },
  { 39, 252, 1, 5 },
  { 39, 252, 1, 3 },
  { 41, 190, -1, 1 },
  { 13, 19, -1, -1 },
  { 6, 8, -1, -2 },
  { 31, 141, -2, -1 },
  { 15, 862, -1, 1 },
  { 37, 0, 1, 5 },
  { 13, 2, 1, 2 },
  { 39, 249, -1, -2 },
  { 25, 878, -2, 1 },
  { 8, 2, -1, -2 },
  { 41, 186, -1, -2 },
  { 4, 1, 1, 60 },
  { 6, 8, 1, 28 },
  { 24, 1, 1, 21 },
  { 5, 187, 1, 7 },
  { 1, 209, -2, 1 },
  { 0, 0, 1, 3 },
  { 1, 649, -1, 1 },
  { 36, 0, -2, -1 },
  { 7, 305, 1, -1 },
  { 39, 252, -1, -2 },
  { 30, 7, 1, 6 },
  { 34, 1, 1, 3 },
  { 5, 190, 1, -1 },
  { 40, 0, -2, -1 },
  { 40, 0, 1, -1 },
  { 5, 191, -2, -1 },
  { 14, 2, 1, 4 },
  { 32, 257, 1, 2 },
  { 15, 851, -1, -2 },
  { 15, 989, -1, -1 },
  { 34, 1, 1, 2 },
  { 6, 8, -2, -1 },
  { 1, 699, -1, -2 },
  { 30, 7, 1, -1 },
  { 5, 247, 1, -2 },
  { 6, 8, 1, 2 },
  { 12, 1, -2, -1 },
  { 36, 0, 1, -1 },
  { 25, 879, -1, -1 },
  { 41, 187, 1, 16 },
  { 34, 1, 1, 8 },
  { 25, 858, -1, 1 },
  { 14, 2, 1, 4 },
  { 6, 8, 1, 2 },
  { 6, 8, -1, -2 },
  { 36, 0, -1, -1 },
  { 36, 0, -1, 1 },
  { 40, 0, -1, -2 },
  { 39, 248, 1, 4 },
  { 22, 148, -1, 1 },
  { 17, 1, -1, 1 },
  { 13, 20, -2, -1 },
  { 15, 999, -1, 1 },
  { 7, 301, 1, -2 },
  { 32, 257, -1, -1 },
  { 34, 1, 1, 5 },
  { 25, 688, -2, 1 },
  { 14, 2, -1, 1 },
  { 22, 148, 1, -1 },
  { 13, 20, -2, -1 },
  { 21, 1, 1, 5 },
  { 30, 7, 1, 2 },
  { 39, 252, -1, -2 },
  { 33, 14, -2, 1 },
  { 15, 1008, -1, -2 },
  { 34, 1, 1, 4 },
  { 31, 139, 1, 2 },
  { 41, 189, -2, -1 },
  { 25, 974, -2, -1 },
  { 41, 188, -1, -2 },
  { 24, 1, 1, -2 },
  { 1, 498, -2, 1 },
  { 6, 8, -2, -1 },
  { 24, 1, 1, 77 },
  { 0, 0, 1, 22 },
  { 8, 2, 1, 13 },
  { 22, 148, -1, 1 },
  { 1, 815, 1, 9 },
  { 13, 2, 1, 2 },
  { 31, 143, -1, -2 },
  { 40, 1, 1, -1 },
  { 30, 7, 1, 2 },
  { 37, 0, -1, -2 },
  { 34, 1, 1, -1 },
  { 25, 805, -1, 1 },
  { 30, 7, -2, -1 },
  { 23, 155, 1, -1 },
  { 8, 2, -2, -1 },
  { 40, 1, 1, 2 },
  { 30, 7, -2, -1 },
  { 23, 151, -1, 1 },
  { 33, 12, 1, -1 },
  { 5, 260, -1, 1 },
  { 36, 0, -2, 1 },
  { 23, 155, -2, 1 },
  { 41, 189, -2, -1 },
  { 36, 0, 1, 34 },
  { 40, 1, 1, 7 },
  { 30, 7, 1, 4 },
  { 41, 190, 1, 2 },
  { 21, 1, -2, -1 },
  { 14, 1, -2, -1 },
  { 5, 260, 1, -1 },
  { 35, 1, -1, -2 },
  { 1, 807, 1, -2 },
  { 5, 263, 1, 13 },
  { 2, 1, -1, 1 },
  { 7, 331, 1, 8 },
  { 32, 262, 1, 4 },
  { 17, 1, 1, 2 },
  { 1, 616, -2, -1 },
  { 34, 1, -2, -1 },
  { 41, 188, 1, 2 },
  { 31, 144, -2, -1 },
  { 34, 1, -1, -2 },
  { 35, 1, -2, 1 },
  { 1, 509, -1, 1 },
  { 5, 260, -2, -1 },
  { 32, 267, 1, 11 },
  { 31, 144, 1, 6 },
  { 6, 8, 1, 3 },
  { 13, 19, -1, 1 },
  { 6, 8, -2, -1 },
  { 23, 155, 1, -1 },
  { 8, 2, -2, -1 },
  { 15, 858, 1, 2 },
  { 13, 32, -1, -2 },
  { 8, 2, 1, -1 },
  { 30, 7, -2, -2 },
  { 1, 731, -2, -1 },
  { 24, 1, 1, 5 },
  { 23, 152, 1, -1 },
  { 39, 251, -2, 1 },
  { 5, 260, 1, -1 },
  { 2, 1, -1, -2 },
  { 32, 262, 1, 7 },
  { 7, 331, 1, 5 },
  { 24, 1, 1, 3 },
  { 31, 143, 1, -2 },
  { 39, 251, -2, -1 },
  { 7, 330, -2, -1 },
  { 40, 1, -1, -2 },
  { 33, 11, 1, 3 },
  { 37, 0, -1, 1 },
  { 6, 8, -2, -1 },
  { 8, 2, 1, -2 },
  { 1, 508, 1, -1 },
  { 35, 1, 1, -1 },
  { 35, 1, -2, 1 },
  { 0, 2, -1, -2 },
  { 30, 7, 1, 7 },
  { 5, 263, -1, 1 },
  { 0, 2, -1, 1 },
  { 32, 263, 1, -1 },
  { 13, 32, -1, 1 },
  { 24, 1, 1, -2 },
  { 25, 854, -2, -1 },
  { 34, 1, 1, 3 },
  { 5, 263, -1, 1 },
  { 0, 1, -1, -2 },
  { 39, 249, -1, 1 },
  { 0, 2, -1, -2 },
  { 25, 781, 1, 7 },
  { 8, 2, 1, -1 },
  { 14, 0, -2, 1 },
  { 33, 14, 1, -1 },
  { 13, 4, -1, 1 },
  { 24, 1, 1, -2 },
  { 14, 2, -2, -1 },
  { 34, 1, 1, 5 },
  { 14, 0, 1, 2 },
  { 13, 1, -1, -2 },
  { 13, 11, -1, 1 },
  { 39, 249, -2, -1 },
  { 22, 148, 1, 17 },
  { 4, 1, 1, -2 },
  { 33, 14, 1, 2 },
  { 13, 28, -1, -2 },
  { 40, 0, 1, 7 },
  { 39, 248, 1, -1 },
  { 18, 1, 1, -1 },
  { 34, 1, -2, 1 },
  { 1, 612, 1, -1 },
  { 15, 942, -1, 1 },
  { 25, 873, -1, -2 },
  { 32, 271, 1, -1 },
  { 34, 1, 1, -1 },
  { 15, 987, 1, -1 },
  { 8, 2, 1, -1 },
  { 23, 143, -1, 1 },
  { 5, 169, -1, -2 },
  { 7, 318, -1, 1 },
  { 25, 874, -2, -1 },
  { 25, 780, 1, 11 },
  { 36, 0, 1, 7 },
  { 23, 157, 1, 3 },
  { 15, 961, -1, 1 },
  { 32, 269, -1, -2 },
  { 21, 1, -1, 1 },
  { 24, 1, 1, -1 },
  { 30, 7, -1, -2 },
  { 32, 260, 1, -1 },
  { 22, 148, 1, -1 },
  { 32, 260, -1, -2 },
  { 7, 292, -2, 1 },
  { 36, 0, 1, 2 },
  { 33, 12, -1, -2 },
  { 30, 8, 1, 2 },
  { 13, 32, -1, -2 },
  { 31, 230, -1, 1 },
  { 30, 8, -2, -1 },
  { 36, 0, 1, 10 },
  { 1, 380, -1, 1 },
  { 40, 0, 1, 7 },
  { 25, 904, 1, 5 },
  { 6, 8, 1, -2 },
  { 30, 7, 1, -2 },
  { 25, 247, 1, -2 },
  { 15, 1014, -1, -2 },
  { 39, 170, -1, -2 },
  { 23, 311, -2, -1 },
  { 33, 13, 1, 145 },
  { 1, 817, 1, 139 },
  { 41, 191, 1, 131 },
  { 22, 148, 1, 23 },
  { 15, 914, 1, 5 },
  { 1, 493, 1, 2 },
  { 25, 861, -2, -1 },
  { 31, 239, -1, 1 },
  { 36, 0, -1, -2 },
  { 41, 190, 1, 13 },
  { 30, 7, 1, -1 },
  { 25, 783, 1, 2 },
  { 17, 1, -2, -1 },
  { 13, 32, 1, -2 },
  { 24, 1, 1, 6 },
  { 23, 152, 1, 3 },
  { 15, 1011, -1, 1 },
  { 25, 963, -1, -2 },
  { 6, 8, -2, 1 },
  { 35, 1, -1, -2 },
  { 40, 1, -1, 1 },
  { 34, 1, -2, -1 },
  { 7, 334, -1, 1 },
  { 7, 334, 1, -2 },
  { 15, 950, -2, 1 },
  { 30, 7, -1, -2 },
  { 32, 262, 1, 57 },
  { 1, 713, 1, 46 },
  { 6, 8, 1, 34 },
  { 16, 1, 1, 27 },
  { 22, 148, 1, 19 },
  { 1, 699, 1, 13 },
  { 40, 1, 1, 8 },
  { 23, 153, 1, 4 },
  { 25, 898, 1, 2 },
  { 6, 8, -2, -1 },
  { 1, 498, -1, -2 },
  { 32, 254, 1, 2 },
  { 36, 0, -2, -2 },
  { 39, 250, -1, -1 },
  { 24, 1, 1, -1 },
  { 39, 250, 1, 2 },
  { 30, 7, -1, -2 },
  { 25, 916, -1, -2 },
  { 23, 155, 1, -1 },
  { 8, 2, 1, -1 },
  { 35, 1, 1, 2 },
  { 14, 2, -1, -2 },
  { 1, 700, -2, -2 },
  { 39, 250, 1, 5 },
  { 7, 331, 1, 3 },
  { 14, 2, -2, 1 },
  { 8, 2, -2, -1 },
  { 30, 7, -2, -1 },
  { 5, 258, 1, -1 },
  { 5, 258, -1, -2 },
  { 37, 0, -1, 1 },
  { 13, 0, -1, 1 },
  { 25, 934, 1, -1 },
  { 33, 11, 1, 2 },
  { 42, 0, -2, -1 },
  { 7, 331, -2, -1 },
  { 33, 11, 1, 5 },
  { 1, 607, 1, -1 },
  { 30, 7, -1, 1 },
  { 15, 1001, -1, 1 },
  { 42, 1, -2, -1 },
  { 40, 1, -1, 1 },
  { 44, 1, 1, 4 },
  { 39, 252, 1, -2 },
  { 39, 251, -1, 1 },
  { 16, 1, -1, -2 },
  { 7, 321, -2, -1 },
  { 5, 261, 1, 4 },
  { 1, 725, 1, -1 },
  { 12, 1, -1, 1 },
  { 31, 143, -2, -1 },
  { 3, 1, 1, 3 },
  { 15, 816, 1, -1 },
  { 6, 8, -1, -2 },
  { 6, 8, -1, 1 },
  { 25, 813, 1, -2 },
  { 40, 1, -1, -2 },
  { 40, 1, 1, 25 },
  { 25, 774, 1, 3 },
  { 15, 946, -1, 1 },
  { 23, 150, -1, -2 },
  { 33, 11, 1, 5 },
  { 23, 152, 1, -1 },
  { 32, 263, -1, 1 },
  { 31, 143, 1, -1 },
  { 6, 8, -2, -1 },
  { 4, 1, 1, -2 },
  { 3, 1, 1, 8 },
  { 25, 991, 1, -2 },
  { 37, 0, 1, 4 },
  { 25, 879, 1, 2 },
  { 30, 8, -1, -1 },
  { 25, 898, -2, -1 },
  { 1, 749, 1, -1 },
  { 41, 188, -2, -1 },
  { 8, 2, 1, 3 },
  { 2, 1, -1, 1 },
  { 23, 155, -2, -1 },
  { 14, 0, 1, 2 },
  { 17, 1, -1, -2 },
  { 7, 332, -1, 1 },
  { 5, 260, -1, -1 },
  { 23, 155, 1, 17 },
  { 39, 247, 1, 3 },
  { 32, 278, 1, -1 },
  { 5, 263, -1, -2 },
  { 31, 143, 1, 4 },
  { 21, 1, 1, -1 },
  { 24, 1, 1, -1 },
  { 25, 872, -1, -2 },
  { 6, 8, 1, 3 },
  { 25, 834, 1, -1 },
  { 15, 849, -1, -2 },
  { 31, 144, 1, 3 },
  { 41, 187, -1, 1 },
  { 34, 1, -1, -2 },
  { 6, 8, 1, -1 },
  { 7, 316, -1, 1 },
  { 23, 155, -2, -2 },
  { 15, 960, 1, 7 },
  { 39, 248, -1, 1 },
  { 5, 264, 1, -2 },
  { 7, 322, 1, 2 },
  { 33, 12, -1, -2 },
  { 32, 263, 1, -1 },
  { 15, 839, -1, -2 },
  { 32, 266, -1, -2 },
  { 24, 1, 1, 5 },
  { 41, 191, 1, -1 },
  { 3, 1, -1, 1 },
  { 32, 262, 1, -1 },
  { 15, 978, -1, -2 },
  { 31, 144, 1, -1 },
  { 7, 330, -2, -1 },
  { 13, 19, 1, 4 },
  { 2, 1, 1, -2 },
  { 14, 2, -2, 1 },
  { 36, 0, -2, -1 },
  { 23, 155, -2, -1 },
  { 41, 188, 1, 179 },
  { 7, 304, 1, 76 },
  { 15, 1010, 1, 63 },
  { 1, 273, 1, 3 },
  { 41, 186, -2, 1 },
  { 15, 745, -1, -2 },
  { 34, 1, 1, 10 },
  { 32, 248, 1, 2 },
  { 1, 501, -2, -1 },
  { 1, 524, 1, -1 },
  { 12, 1, 1, -1 },
  { 31, 199, 1, 2 },
  { 13, 11, -2, -1 },
  { 7, 292, -2, 1 },
  { 24, 1, -1, 1 },
  { 33, 15, -2, -1 },
  { 6, 8, 1, 31 },
  { 31, 137, 1, 13 },
  { 6, 8, 1, 5 },
  { 5, 175, -1, 1 },
  { 14, 2, 1, 2 },
  { 25, 905, -2, -1 },
  { 33, 15, -2, -1 },
  { 39, 249, -1, 1 },
  { 42, 0, 1, 5 },
  { 37, 0, 1, 2 },
  { 13, 20, -1, -2 },
  { 25, 890, 1, -1 },
  { 7, 303, -1, -2 },
  { 42, 0, -2, -1 },
  { 30, 7, 1, 3 },
  { 33, 14, 1, -1 },
  { 41, 185, -2, -1 },
  { 23, 146, 1, 8 },
  { 25, 986, 1, 4 },
  { 8, 2, -1, 1 },
  { 7, 303, -1, 1 },
  { 7, 303, -2, -1 },
  { 36, 0, -1, 1 },
  { 23, 144, -2, 1 },
  { 41, 187, -2, -1 },
  { 9, 1, -1, 1 },
  { 1, 518, 1, 3 },
  { 14, 2, -1, 1 },
  { 25, 940, -1, -2 },
  { 35, 1, -2, 1 },
  { 35, 1, -1, -2 },
  { 25, 858, -1, 1 },
  { 33, 15, 1, 14 },
  { 40, 0, 1, 6 },
  { 25, 943, -2, 1 },
  { 19, 0, 1, 2 },
  { 15, 964, -1, -2 },
  { 39, 248, 1, -1 },
  { 40, 0, -2, -1 },
  { 2, 1, -1, 1 },
  { 31, 138, 1, 3 },
  { 33, 14, -1, 1 },
  { 34, 1, -2, -1 },
  { 30, 7, 1, 2 },
  { 1, 704, -1, -2 },
  { 41, 187, -2, -2 },
  { 41, 188, 1, -1 },
  { 25, 922, -2, 1 },
  { 0, 2, -1, -2 },
  { 7, 290, -1, 1 },
  { 30, 7, 1, 10 },
  { 5, 169, -1, 1 },
  { 22, 148, 1, -1 },
  { 6, 8, 1, 5 },
  { 35, 1, 1, -2 },
  { 30, 7, -1, 1 },
  { 31, 138, -1, 1 },
  { 14, 1, -1, -2 },
  { 24, 1, 1, -2 },
  { 23, 201, -1, -2 },
  { 13, 2, -1, -2 },
  { 4, 1, 1, -2 },
  { 34, 1, 1, 62 },
  { 41, 188, 1, 43 },
  { 23, 149, 1, 27 },
  { 8, 2, 1, 23 },
  { 31, 138, 1, 10 },
  { 31, 137, 1, 7 },
  { 39, 249, -1, 1 },
  { 2, 1, 1, 3 },
  { 15, 925, -2, 1 },
  { 33, 15, -2, -1 },
  { 30, 7, -1, 1 },
  { 40, 1, -2, -1 },
  { 41, 186, 1, -1 },
  { 34, 1, -2, -1 },
  { 39, 249, 1, -1 },
  { 34, 1, 1, 4 },
  { 5, 191, 1, -1 },
  { 41, 187, 1, -1 },
  { 13, 0, -1, -2 },
  { 22, 148, 1, 4 },
  { 24, 1, 1, 2 },
  { 5, 170, -2, -1 },
  { 33, 15, -1, -2 },
  { 23, 146, 1, 2 },
  { 1, 746, -1, -2 },
  { 2, 1, -1, -2 },
  { 32, 250, 1, 2 },
  { 22, 148, -1, -2 },
  { 15, 873, -1, -2 },
  { 21, 1, 1, 5 },
  { 17, 1, 1, -2 },
  { 33, 13, 1, -1 },
  { 39, 248, 1, -2 },
  { 34, 1, -1, -2 },
  { 31, 142, 1, 3 },
  { 36, 0, 1, -1 },
  { 25, 710, -2, -1 },
  { 22, 148, -1, 1 },
  { 34, 1, 1, 4 },
  { 32, 262, 1, -1 },
  { 5, 233, 1, -2 },
  { 7, 322, -1, -1 },
  { 1, 510, 1, -1 },
  { 15, 915, -1, -2 },
  { 41, 188, 1, 15 },
  { 40, 0, 1, 7 },
  { 31, 142, 1, 3 },
  { 7, 324, 1, -1 },
  { 14, 1, -1, -2 },
  { 15, 919, 1, 2 },
  { 39, 249, -1, -2 },
  { 14, 1, -2, -1 },
  { 24, 1, 1, -2 },
  { 12, 1, 1, 2 },
  { 31, 139, -2, -1 },
  { 14, 2, 1, -2 },
  { 36, 0, 1, -1 },
  { 41, 188, -1, 1 },
  { 13, 20, -2, -1 },
  { 41, 188, 1, -1 },
  { 25, 956, -1, 1 },
  { 17, 1, -1, -2 },
  { 30, 7, 1, 24 },
  { 39, 249, 1, 5 },
  { 42, 0, 1, -1 },
  { 25, 647, -2, 1 },
  { 41, 184, 1, -1 },
  { 15, 1012, -1, -2 },
  { 23, 144, 1, 10 },
  { 7, 305, 1, 7 },
  { 33, 15, 1, 4 },
  { 8, 2, 1, -1 },
  { 7, 305, -2, 1 },
  { 15, 857, -1, -2 },
  { 34, 1, 1, -1 },
  { 24, 1, -1, -2 },
  { 32, 273, -1, 1 },
  { 0, 1, -2, -1 },
  { 15, 852, 1, 2 },
  { 30, 7, -2, -1 },
  { 22, 148, -1, 1 },
  { 7, 320, -1, 1 },
  { 30, 7, -1, 1 },
  { 41, 188, 1, 2 },
  { 40, 0, -1, -2 },
  { 35, 1, -2, -1 },
  { 41, 187, 1, 6 },
  { 24, 1, 1, 3 },
  { 0, 2, -2, 1 },
  { 36, 0, -2, -1 },
  { 3, 1, 1, -1 },
  { 1, 341, -2, -1 },
  { 14, 2, 1, 7 },
  { 1, 514, 1, -1 },
  { 7, 319, 1, 2 },
  { 1, 200, -2, -1 },
  { 7, 333, 1, -1 },
  { 41, 188, -2, 1 },
  { 36, 0, -1, -2 },
  { 39, 249, 1, -2 },
  { 1, 504, -1, -2 },
  { 40, 1, 1, 21 },
  { 7, 301, 1, 13 },
  { 23, 147, 1, 11 },
  { 7, 293, 1, 4 },
  { 17, 1, -1, 1 },
  { 15, 1094, -1, 1 },
  { 1, 793, -2, -1 },
  { 36, 0, 1, 3 },
  { 14, 2, 1, -2 },
  { 30, 7, -1, -2 },
  { 36, 0, 1, -1 },
  { 36, 0, -1, 1 },
  { 40, 1, -1, -2 },
  { 25, 706, -2, -1 },
  { 11, 1, 1, -2 },
  { 7, 301, 1, 3 },
  { 6, 8, -1, 1 },
  { 31, 139, -1, -2 },
  { 13, 2, 1, -1 },
  { 5, 202, -1, 1 },
  { 6, 8, -1, -2 },
  { 7, 326, 1, 17 },
  { 14, 2, 1, 11 },
  { 16, 0, -1, 1 },
  { 23, 150, 1, -1 },
  { 33, 13, 1, 2 },
  { 31, 140, -2, -1 },
  { 15, 1011, 1, 5 },
  { 41, 190, -2, 1 },
  { 5, 220, -2, 1 },
  { 37, 0, 1, -2 },
  { 25, 911, -1, -2 },
  { 25, 886, -1, -2 },
  { 39, 251, 1, 3 },
  { 35, 1, 1, -1 },
  { 7, 317, -2, -1 },
  { 24, 1, -2, 1 },
  { 24, 1, -1, -2 },
  { 33, 143, -1, -2 },
  { 35, 1, 1, 9 },
  { 6, 8, -1, 1 },
  { 25, 197, -1, 1 },
  { 14, 2, 1, -1 },
  { 9, 1, 1, 4 },
  { 8, 0, 1, -2 },
  { 14, 2, -2, 1 },
  { 33, 15, -2, -1 },
  { 30, 8, -2, -1 },
  { 6, 8, 1, 61 },
  { 24, 1, 1, 3 },
  { 39, 246, 1, -2 },
  { 41, 185, -2, -1 },
  { 40, 1, 1, 24 },
  { 1, 490, 1, 4 },
  { 8, 2, 1, -2 },
  { 5, 262, 1, -1 },
  { 5, 262, -1, -2 },
  { 13, 32, 1, -2 },
  { 5, 251, 1, 2 },
  { 24, 1, -1, -2 },
  { 23, 155, 1, -1 },
  { 41, 187, 1, 3 },
  { 8, 2, 1, -1 },
  { 24, 1, -2, -1 },
  { 30, 7, 1, 5 },
  { 34, 1, 1, -1 },
  { 14, 2, 1, 2 },
  { 24, 1, -1, -2 },
  { 25, 898, -1, -2 },
  { 22, 148, 1, 3 },
  { 25, 891, -1, 1 },
  { 39, 250, -1, -2 },
  { 2, 1, 1, 2 },
  { 36, 0, -2, -1 },
  { 25, 874, -2, 1 },
  { 0, 2, -2, -1 },
  { 31, 145, 1, -1 },
  { 13, 19, 1, 8 },
  { 34, 1, 1, 4 },
  { 39, 248, -1, 1 },
  { 31, 144, 1, -1 },
  { 23, 155, -2, -1 },
  { 35, 1, 1, 2 },
  { 32, 262, -2, -1 },
  { 33, 12, -2, -1 },
  { 30, 7, 1, 18 },
  { 19, 1, 1, -2 },
  { 33, 12, 1, -1 },
  { 6, 8, 1, 5 },
  { 16, 1, 1, -2 },
  { 25, 903, 1, -2 },
  { 7, 330, 1, -2 },
  { 41, 187, -2, -1 },
  { 25, 879, 1, 7 },
  { 32, 262, 1, 2 },
  { 25, 868, -2, -1 },
  { 31, 143, -1, 1 },
  { 30, 7, 1, 2 },
  { 3, 1, -2, -1 },
  { 1, 502, -2, -2 },
  { 15, 857, -1, 1 },
  { 36, 0, 1, -1 },
  { 32, 261, -2, -1 },
  { 1, 492, 1, 5 },
  { 25, 887, 1, -1 },
  { 13, 19, -2, 1 },
  { 32, 268, -1, 1 },
  { 14, 2, -1, -2 },
  { 14, 2, -1, -2 },
  { 8, 2, 1, -2 },
  { 41, 191, 1, 169 },
  { 15, 787, 1, 13 },
  { 24, 1, 1, 4 },
  { 14, 2, 1, 2 },
  { 23, 144, -1, -2 },
  { 31, 143, -2, -1 },
  { 39, 249, 1, 6 },
  { 9, 1, 1, -1 },
  { 5, 176, 1, 2 },
  { 31, 137, -1, -2 },
  { 35, 1, -2, 1 },
  { 5, 183, -2, -1 },
  { 6, 8, -1, 1 },
  { 7, 290, -2, -1 },
  { 14, 0, 1, 62 },
  { 5, 263, 1, -1 },
  { 1, 811, 1, 52 },
  { 15, 1011, 1, 40 },
  { 34, 1, 1, 27 },
  { 34, 1, 1, 13 },
  { 39, 249, 1, 5 },
  { 9, 1, 1, -1 },
  { 40, 0, 1, 2 },
  { 42, 1, -2, -1 },
  { 36, 0, -1, -2 },
  { 41, 189, 1, 4 },
  { 37, 0, 1, 2 },
  { 13, 23, -1, -2 },
  { 39, 249, -1, -1 },
  { 16, 1, 1, 2 },
  { 25, 926, -1, -2 },
  { 13, 0, -1, -2 },
  { 31, 139, 1, 7 },
  { 32, 266, 1, 4 },
  { 23, 146, 1, 2 },
  { 30, 7, -1, -2 },
  { 30, 7, -1, -2 },
  { 41, 187, -1, 1 },
  { 34, 1, -1, -2 },
  { 22, 148, 1, 3 },
  { 12, 1, 1, -1 },
  { 33, 14, -1, -1 },
  { 5, 190, 1, 2 },
  { 33, 14, -1, -2 },
  { 30, 7, -1, -2 },
  { 33, 15, 1, 11 },
  { 39, 249, 1, 3 },
  { 34, 1, 1, -1 },
  { 5, 263, -1, -2 },
  { 7, 303, 1, 4 },
  { 5, 181, 1, 2 },
  { 30, 7, -1, -1 },
  { 31, 138, -2, -1 },
  { 16, 0, 1, 2 },
  { 12, 1, -1, -2 },
  { 13, 2, -1, -1 },
  { 6, 8, -2, -1 },
  { 30, 7, 1, 3 },
  { 6, 8, 1, -1 },
  { 25, 856, -2, -1 },
  { 34, 1, 1, -1 },
  { 36, 0, 1, 4 },
  { 39, 252, 1, -2 },
  { 1, 566, 1, -1 },
  { 36, 0, -1, -1 },
  { 1, 626, 1, 2 },
  { 41, 190, -1, -2 },
  { 15, 1011, -2, -1 },
  { 33, 11, -1, 1 },
  { 13, 1, -1, 1 },
  { 7, 311, -1, 1 },
  { 34, 1, 1, -1 },
  { 23, 154, 1, -1 },
  { 24, 1, 1, 2 },
  { 13, 3, -2, -1 },
  { 32, 265, -2, -1 },
  { 24, 1, 1, 2 },
  { 34, 1, -2, -1 },
  { 30, 7, 1, 53 },
  { 23, 149, 1, 40 },
  { 30, 7, 1, 14 },
  { 1, 518, 1, 10 },
  { 41, 188, 1, 5 },
  { 30, 7, -1, 1 },
  { 39, 249, 1, 2 },
  { 8, 2, -2, -2 },
  { 7, 315, -1, -2 },
  { 35, 1, 1, 3 },
  { 23, 148, -1, 1 },
  { 23, 148, -2, -1 },
  { 30, 7, -1, -2 },
  { 34, 1, -1, 1 },
  { 25, 984, -1, 1 },
  { 36, 0, -1, -2 },
  { 8, 0, 1, 12 },
  { 25, 835, 1, 5 },
  { 7, 299, -1, 1 },
  { 33, 14, 1, 2 },
  { 7, 301, -2, -1 },
  { 13, 20, -1, -1 },
  { 30, 7, 1, 4 },
  { 31, 138, 1, 2 },
  { 33, 14, -2, -2 },
  { 39, 251, -1, -1 },
  { 15, 902, -1, 1 },
  { 40, 0, -2, -1 },
  { 8, 2, 1, 6 },
  { 41, 188, 1, 4 },
  { 31, 137, 1, 2 },
  { 6, 8, -2, -1 },
  { 31, 142, -1, -2 },
  { 3, 1, -2, -1 },
  { 24, 1, 1, 4 },
  { 37, 0, 1, 2 },
  { 39, 249, -1, -1 },
  { 14, 2, -1, -1 },
  { 32, 266, 1, 2 },
  { 33, 14, -2, -1 },
  { 5, 177, -1, -2 },
  { 33, 230, 1, 11 },
  { 7, 292, 1, 3 },
  { 7, 292, -2, 1 },
  { 25, 780, -2, -1 },
  { 3, 1, 1, 4 },
  { 37, 0, 1, -1 },
  { 41, 184, 1, -1 },
  { 7, 319, -1, -2 },
  { 23, 149, 1, -1 },
  { 32, 261, 1, -1 },
  { 8, 2, -2, -1 },
  { 24, 1, -1, -2 },
  { 23, 155, 1, 35 },
  { 41, 187, 1, 13 },
  { 5, 263, 1, 6 },
  { 5, 181, 1, 3 },
  { 40, 0, -2, 1 },
  { 39, 248, -1, -2 },
  { 34, 1, 1, -1 },
  { 1, 204, -2, -1 },
  { 0, 2, -1, 1 },
  { 13, 19, 1, 3 },
  { 7, 318, -1, 1 },
  { 25, 576, -2, -1 },
  { 37, 0, -1, 1 },
  { 5, 263, -2, -2 },
  { 2, 1, 1, 8 },
  { 23, 147, -2, 1 },
  { 41, 189, 1, 3 },
  { 17, 1, -1, 1 },
  { 25, 879, -1, -1 },
  { 13, 19, 1, 2 },
  { 37, 0, -1, -1 },
  { 6, 8, -1, -1 },
  { 24, 1, 1, 7 },
  { 40, 0, 1, 3 },
  { 32, 261, -1, 1 },
  { 31, 143, -1, -2 },
  { 40, 1, 1, 2 },
  { 30, 7, -1, -2 },
  { 13, 19, -2, -1 },
  { 30, 7, 1, 4 },
  { 8, 2, 1, 2 },
  { 39, 251, -1, -2 },
  { 30, 7, -2, -1 },
  { 31, 144, 1, -1 },
  { 0, 2, -1, -2 },
  { 7, 334, 1, 2 },
  { 1, 843, -1, -2 },
  { 31, 239, -1, -2 },
  { 35, 1, 1, 5 },
  { 37, 0, 1, -1 },
  { 5, 261, 1, -1 },
  { 30, 7, -1, 1 },
  { 15, 978, -1, -2 },
  { 0, 2, 1, 3 },
  { 36, 0, 1, -1 },
  { 6, 8, -2, -1 },
  { 21, 1, -1, 1 },
  { 30, 7, -2, -1 },
  { 23, 213, 1, 230 },
  { 30, 7, 1, 53 },
  { 6, 8, -1, 1 },
  { 15, 1010, 1, 47 },
  { 41, 188, 1, 43 },
  { 1, 523, 1, 31 },
  { 31, 142, 1, 23 },
  { 13, 3, 1, 5 },
  { 41, 186, 1, -1 },
  { 34, 1, 1, -1 },
  { 30, 7, 1, -2 },
  { 8, 1, -2, -1 },
  { 31, 137, 1, 3 },
  { 9, 1, 1, -1 },
  { 5, 169, -1, -2 },
  { 0, 0, 1, 4 },
  { 24, 1, -2, 1 },
  { 37, 0, 1, -2 },
  { 36, 0, -1, -2 },
  { 1, 499, 1, 6 },
  { 30, 7, -1, 1 },
  { 24, 1, -2, 1 },
  { 9, 1, 1, 2 },
  { 5, 180, -1, -2 },
  { 5, 170, -1, -1 },
  { 15, 916, 1, -1 },
  { 1, 502, 1, -2 },
  { 8, 2, 1, -1 },
  { 13, 20, -2, -1 },
  { 14, 2, 1, 3 },
  { 23, 154, 1, -1 },
  { 1, 501, -2, -1 },
  { 0, 2, -1, 1 },
  { 0, 2, -2, 1 },
  { 31, 143, 1, -1 },
  { 30, 7, -1, -2 },
  { 41, 162, 1, 3 },
  { 36, 0, 1, -2 },
  { 39, 171, -1, -2 },
  { 41, 186, 1, 4 },
  { 19, 1, 1, 2 },
  { 7, 292, -2, -1 },
  { 39, 247, -1, -2 },
  { 32, 262, -1, 1 },
  { 40, 0, 1, 2 },
  { 15, 1002, -1, -2 },
  { 15, 579, -2, -1 },
  { 5, 182, -1, 1 },
  { 25, 931, -1, 1 },
  { 37, 0, -1, -2 },
  { 0, 1, 1, -1 },
  { 34, 1, 1, 2 },
  { 25, 860, -2, -1 },
  { 13, 1, -2, -1 },
  { 23, 155, 1, 159 },
  { 13, 20, 1, 155 },
  { 4, 1, 1, 152 },
  { 5, 262, 1, 110 },
  { 34, 1, 1, 95 },
  { 6, 8, 1, 33 },
  { 13, 1, 1, 10 },
  { 7, 331, 1, 7 },
  { 5, 259, -1, 1 },
  { 31, 144, 1, -1 },
  { 8, 2, 1, -2 },
  { 37, 0, 1, 2 },
  { 22, 148, -2, -1 },
  { 25, 941, -2, -1 },
  { 34, 1, -1, 1 },
  { 31, 145, -1, -2 },
  { 32, 257, 1, 11 },
  { 23, 153, -1, 1 },
  { 1, 500, 1, 4 },
  { 0, 2, 1, 2 },
  { 14, 1, -2, -1 },
  { 30, 7, -1, -2 },
  { 36, 0, 1, 3 },
  { 15, 853, -1, 1 },
  { 1, 615, -2, -2 },
  { 1, 632, 1, -2 },
  { 32, 255, -2, -1 },
  { 5, 250, -1, 1 },
  { 40, 0, 1, 4 },
  { 32, 261, -1, 1 },
  { 24, 1, 1, -1 },
  { 31, 144, -1, -2 },
  { 23, 152, 1, 3 },
  { 6, 8, -1, 1 },
  { 41, 189, -1, -2 },
  { 31, 145, 1, 2 },
  { 5, 261, -1, -2 },
  { 41, 187, -1, -2 },
  { 12, 1, 1, 31 },
  { 5, 222, 1, 19 },
  { 36, 0, 1, 14 },
  { 13, 2, 1, 7 },
  { 5, 187, 1, 4 },
  { 0, 2, 1, 2 },
  { 7, 299, -1, -1 },
  { 21, 1, -1, -1 },
  { 40, 0, 1, -1 },
  { 13, 1, -2, -1 },
  { 15, 1007, 1, 4 },
  { 0, 0, 1, 2 },
  { 33, 14, -1, -1 },
  { 32, 277, -2, -2 },
  { 22, 148, -1, 1 },
  { 15, 1107, -2, -2 },
  { 14, 2, 1, -1 },
  { 31, 139, -1, 1 },
  { 32, 267, -1, 1 },
  { 1, 787, -2, -2 },
  { 1, 605, 1, 7 },
  { 33, 12, 1, -1 },
  { 23, 153, 1, 3 },
  { 32, 262, 1, -1 },
  { 18, 1, -2, -2 },
  { 25, 980, -1, 1 },
  { 32, 262, -1, -1 },
  { 44, 1, 1, -2 },
  { 34, 1, 1, -1 },
  { 18, 0, -2, 1 },
  { 8, 0, -1, -2 },
  { 31, 137, 1, 8 },
  { 15, 844, -1, 1 },
  { 1, 782, 1, 4 },
  { 7, 303, -1, 1 },
  { 18, 1, 1, -2 },
  { 1, 501, -2, -1 },
  { 6, 8, 1, -2 },
  { 13, 20, -2, -1 },
  { 23, 148, 1, 11 },
  { 33, 14, 1, 4 },
  { 15, 976, -1, 1 },
  { 30, 7, -1, 1 },
  { 24, 1, -1, -2 },
  { 40, 1, 1, 4 },
  { 5, 169, 1, 2 },
  { 15, 681, -2, -1 },
  { 31, 137, -1, -1 },
  { 1, 794, 1, -2 },
  { 23, 143, -2, -1 },
  { 40, 0, 1, 6 },
  { 33, 14, 1, 3 },
  { 0, 0, 1, -1 },
  { 40, 0, -2, -1 },
  { 41, 189, 1, -1 },
  { 37, 0, -2, -1 },
  { 7, 330, 1, 3 },
  { 17, 1, 1, -1 },
  { 32, 264, -1, -1 },
  { 5, 256, -1, 1 },
  { 40, 1, -1, -2 },
  { 33, 12, 1, 3 },
  { 5, 254, 1, -1 },
  { 7, 333, -2, -1 },
  { 42, 1, 1, 10 },
  { 1, 444, 1, 2 },
  { 22, 148, -1, -2 },
  { 31, 146, 1, 3 },
  { 23, 154, -1, 1 },
  { 30, 7, -2, -1 },
  { 34, 1, 1, 2 },
  { 40, 1, -1, -2 },
  { 39, 250, -1, 1 },
  { 6, 8, -2, -1 },
  { 5, 254, -2, -1 },
  { 32, 262, 1, 16 },
  { 40, 1, -1, 1 },
  { 15, 840, 1, 10 },
  { 1, 491, -1, 1 },
  { 36, 0, 1, 6 },
  { 14, 2, 1, -2 },
  { 1, 493, 1, 2 },
  { 32, 262, -2, -1 },
  { 0, 0, 1, -2 },
  { 13, 19, -1, -2 },
  { 30, 7, -2, 1 },
  { 14, 2, -2, -1 },
  { 25, 903, 1, 3 },
  { 7, 325, 1, -1 },
  { 35, 1, -1, -2 },
  { 2, 1, -1, -2 },
  { 5, 263, 1, 10 },
  { 5, 262, 1, 3 },
  { 5, 262, -1, 1 },
  { 37, 0, -1, -2 },
  { 23, 154, 1, -1 },
  { 5, 262, -2, 1 },
  { 30, 7, 1, -1 },
  { 42, 0, 1, -1 },
  { 36, 0, -1, 1 },
  { 14, 2, -2, -1 },
  { 30, 7, 1, 9 },
  { 0, 2, -1, 1 },
  { 14, 2, 1, 3 },
  { 7, 317, 1, -1 },
  { 36, 0, -1, -2 },
  { 7, 320, 1, -1 },
  { 40, 1, -1, 1 },
  { 39, 247, 1, -2 },
  { 34, 1, -2, -1 },
  { 36, 0, 1, 2 },
  { 1, 573, -2, -1 },
  { 31, 143, -1, 1 },
  { 32, 263, -2, 1 },
  { 6, 8, -1, 1 },
  { 30, 7, -2, -1 },
  { 7, 303, 1, -2 },
  { 0, 2, -2, -1 },
  { 31, 145, -2, 1 },
  { 24, 1, 1, -2 },
  { 39, 248, -1, -2 },
  { 37, 0, -2, 1 },
  { 35, 1, 1, 8 },
  { 40, 1, 1, 3 },
  { 33, 13, -1, 1 },
  { 24, 1, -2, -1 },
  { 25, 744, -1, 1 },
  { 32, 268, 1, -2 },
  { 35, 1, -1, 1 },
  { 7, 329, -1, -2 },
  { 22, 148, -1, 1 },
  { 23, 157, 1, -1 },
  { 31, 146, 1, 3 },
  { 32, 262, 1, -1 },
  { 14, 0, -2, -1 },
  { 6, 8, -1, 1 },
  { 34, 1, 1, -2 },
  { 34, 1, -2, -1 },
  { 36, 0, 1, -1 },
  { 40, 1, 1, 7 },
  { 30, 8, 1, -1 },
  { 33, 12, -1, 1 },
  { 36, 0, 1, 3 },
  { 32, 269, -2, 1 },
  { 14, 1, -2, -1 },
  { 15, 983, -1, -2 },
  { 35, 1, -2, -1 },
  { 33, 14, 1, 211 },
  { 23, 155, 1, 193 },
  { 1, 817, 1, 189 },
  { 5, 262, 1, 146 },
  { 6, 8, 1, 9 },
  { 24, 1, 1, 4 },
  { 5, 258, -2, 1 },
  { 41, 189, 1, -1 },
  { 8, 2, -2, -1 },
  { 8, 2, 1, -2 },
  { 37, 0, -1, 1 },
  { 1, 489, 1, -1 },
  { 6, 8, -2, -1 },
  { 15, 1007, 1, 83 },
  { 6, 8, 1, 42 },
  { 30, 7, -1, 1 },
  { 1, 698, 1, 34 },
  { 1, 516, 1, 14 },
  { 15, 846, 1, 3 },
  { 15, 845, -1, 1 },
  { 23, 153, -2, -1 },
  { 33, 11, 1, 5 },
  { 18, 1, 1, -1 },
  { 33, 11, 1, 2 },
  { 40, 0, -2, -1 },
  { 19, 1, -2, -1 },
  { 24, 1, 1, 4 },
  { 23, 152, 1, 2 },
  { 8, 2, -1, -2 },
  { 24, 1, -1, -1 },
  { 14, 2, -1, -2 },
  { 37, 0, 1, 11 },
  { 30, 7, 1, 6 },
  { 7, 334, 1, 3 },
  { 31, 145, -1, 1 },
  { 34, 1, -2, -1 },
  { 0, 1, -1, 1 },
  { 8, 2, -1, -2 },
  { 5, 261, 1, 3 },
  { 40, 1, -1, 1 },
  { 31, 144, -2, -1 },
  { 5, 261, -1, -2 },
  { 5, 261, 1, 5 },
  { 14, 2, 1, 2 },
  { 42, 0, -1, -2 },
  { 5, 258, 1, -1 },
  { 40, 0, -1, -2 },
  { 7, 330, -2, 1 },
  { 25, 831, 1, -1 },
  { 41, 190, -2, -1 },
  { 8, 2, 1, 3 },
  { 30, 7, 1, -1 },
  { 0, 1, -1, -2 },
  { 6, 8, -1, 1 },
  { 32, 261, 1, -1 },
  { 30, 7, -1, -2 },
  { 6, 8, 1, 13 },
  { 13, 32, 1, -2 },
  { 25, 600, 1, 2 },
  { 33, 14, -1, -2 },
  { 35, 1, -2, 1 },
  { 15, 989, 1, 5 },
  { 4, 1, 1, -2 },
  { 37, 0, 1, 2 },
  { 24, 1, -2, -1 },
  { 15, 788, -2, -1 },
  { 36, 0, -1, 1 },
  { 1, 533, 1, -1 },
  { 6, 8, -2, -2 },
  { 32, 246, 1, 9 },
  { 23, 145, 1, 7 },
  { 35, 1, 1, 5 },
  { 37, 0, 1, -2 },
  { 37, 0, -2, 1 },
  { 41, 185, -2, 1 },
  { 14, 2, -2, -1 },
  { 32, 245, -1, -2 },
  { 25, 845, -2, -1 },
  { 39, 252, 1, 15 },
  { 9, 1, 1, 9 },
  { 24, 1, 1, 4 },
  { 15, 979, -1, 1 },
  { 0, 2, -1, 1 },
  { 30, 7, -2, -1 },
  { 13, 20, -1, 1 },
  { 34, 1, 1, 2 },
  { 33, 14, -1, -2 },
  { 34, 1, -1, -1 },
  { 25, 947, 1, 3 },
  { 15, 800, 1, -1 },
  { 2, 1, -1, -2 },
  { 7, 300, 1, -1 },
  { 7, 299, -1, -2 },
  { 23, 147, -1, 1 },
  { 19, 1, 1, -2 },
  { 25, 695, -2, -1 },
  { 13, 2, 1, 37 },
  { 40, 1, 1, 28 },
  { 2, 1, 1, 8 },
  { 13, 1, 1, 5 },
  { 32, 259, -1, 1 },
  { 25, 860, 1, -1 },
  { 13, 1, -1, 1 },
  { 5, 222, -2, -1 },
  { 7, 315, -1, 1 },
  { 36, 0, -1, -2 },
  { 40, 0, 1, 10 },
  { 42, 0, 1, 8 },
  { 17, 0, -2, 1 },
  { 33, 14, 1, 4 },
  { 19, 0, 1, 2 },
  { 23, 149, -2, -1 },
  { 15, 1008, -2, -1 },
  { 41, 187, -2, 1 },
  { 36, 0, -2, -1 },
  { 30, 7, -1, -2 },
  { 23, 146, 1, 8 },
  { 30, 7, 1, 4 },
  { 0, 2, 1, -2 },
  { 32, 257, 1, -1 },
  { 15, 1009, -2, -1 },
  { 31, 138, -1, 1 },
  { 7, 301, 1, -2 },
  { 33, 14, -2, -1 },
  { 39, 252, -1, -2 },
  { 23, 153, 1, 7 },
  { 1, 608, 1, 5 },
  { 42, 1, 1, -1 },
  { 32, 260, -1, 1 },
  { 13, 1, 1, -2 },
  { 7, 318, -2, -1 },
  { 6, 8, -1, -2 },
  { 37, 0, -1, -2 },
  { 18, 1, 1, -1 },
  { 6, 8, 1, 3 },
  { 31, 143, 1, -1 },
  { 25, 781, -2, -1 },
  { 19, 1, 1, 9 },
  { 41, 190, 1, 5 },
  { 33, 13, -1, 1 },
  { 35, 1, -2, 1 },
  { 35, 1, 1, -2 },
  { 33, 14, -2, -1 },
  { 33, 14, 1, -2 },
  { 31, 142, 1, -2 },
  { 25, 950, -1, -2 },
  { 6, 8, 1, -2 },
  { 36, 0, -1, 1 },
  { 36, 0, -2, -1 },
  { 34, 1, 1, 37 },
  { 40, 1, 1, 3 },
  { 40, 1, -1, 1 },
  { 32, 267, -2, -1 },
  { 7, 331, 1, 30 },
  { 41, 188, 1, 27 },
  { 15, 821, 1, 5 },
  { 7, 319, 1, 2 },
  { 40, 1, -1, -2 },
  { 6, 8, -1, 1 },
  { 32, 265, -1, -2 },
  { 1, 749, 1, 17 },
  { 23, 155, 1, 9 },
  { 31, 145, 1, -1 },
  { 32, 262, 1, 4 },
  { 39, 249, 1, 2 },
  { 25, 869, -2, -1 },
  { 24, 1, -2, -1 },
  { 15, 825, 1, 2 },
  { 14, 2, -2, -1 },
  { 39, 246, -1, -2 },
  { 22, 148, 1, 6 },
  { 2, 1, 1, 3 },
  { 32, 261, 1, -1 },
  { 7, 328, -1, -2 },
  { 33, 12, 1, -2 },
  { 8, 2, -1, -2 },
  { 25, 885, -2, -1 },
  { 31, 143, 1, 3 },
  { 31, 143, -1, 1 },
  { 0, 1, -2, -1 },
  { 3, 1, -2, -1 },
  { 15, 910, -2, 1 },
  { 32, 268, -1, -2 },
  { 5, 262, -2, 1 },
  { 32, 262, 1, -1 },
  { 39, 249, -1, -2 },
  { 25, 875, 1, 3 },
  { 17, 1, -2, 1 },
  { 14, 2, -1, -2 },
  { 39, 247, -1, 1 },
  { 0, 2, -1, -2 },
  { 37, 0, 1, -2 },
  { 14, 2, 1, -2 },
  { 23, 155, -2, -1 },
  { 23, 244, 1, 14 },
  { 25, 258, -2, 1 },
  { 24, 1, 1, 3 },
  { 0, 2, -2, 1 },
  { 13, 19, -2, -1 },
  { 14, 0, 1, -1 },
  { 31, 145, 1, -1 },
  { 0, 2, 1, 4 },
  { 19, 1, 1, 2 },
  { 23, 155, -2, -1 },
  { 15, 940, -2, -1 },
  { 24, 1, 1, -1 },
  { 7, 330, -1, 1 },
  { 41, 188, -2, -1 },
  { 5, 263, 1, -1 },
  { 35, 1, -2, 1 },
  { 32, 264, -1, -2 },
  { 37, 0, 1, 10 },
  { 22, 74, -1, 1 },
  { 5, 198, 1, 3 },
  { 5, 170, 1, -2 },
  { 30, 8, -2, -1 },
  { 6, 8, 1, 3 },
  { 5, 198, 1, -2 },
  { 13, 5, -2, -1 },
  { 31, 185, -1, 1 },
  { 13, 6, -2, -1 },
  { 41, 188, 1, 116 },
  { 4, 1, 1, 112 },
  { 36, 0, 1, 38 },
  { 1, 253, 1, 3 },
  { 7, 291, -2, 1 },
  { 35, 1, -1, -2 },
  { 15, 1010, 1, 30 },
  { 23, 153, 1, 28 },
  { 6, 8, -1, 1 },
  { 30, 7, 1, 6 },
  { 3, 1, -1, 1 },
  { 7, 303, -1, 1 },
  { 2, 1, -1, 1 },
  { 41, 188, 1, -1 },
  { 30, 7, -1, -2 },
  { 39, 249, 1, 12 },
  { 6, 8, 1, 6 },
  { 41, 187, 1, 3 },
  { 32, 263, -1, 1 },
  { 32, 264, -1, -1 },
  { 30, 7, 1, -1 },
  { 7, 304, -1, -2 },
  { 15, 958, 1, 2 },
  { 5, 170, -2, -1 },
  { 14, 2, 1, 2 },
  { 6, 8, -1, -1 },
  { 23, 143, -1, -2 },
  { 25, 911, 1, 5 },
  { 32, 266, -1, 1 },
  { 24, 1, 1, 2 },
  { 1, 503, -1, -2 },
  { 31, 137, -2, -2 },
  { 5, 185, 1, -2 },
  { 7, 291, 1, -1 },
  { 14, 2, -1, -2 },
  { 33, 15, -1, -2 },
  { 6, 8, 1, -1 },
  { 5, 208, 1, -1 },
  { 30, 7, -2, 1 },
  { 39, 245, -2, -1 },
  { 41, 186, 1, 16 },
  { 31, 138, 1, 5 },
  { 7, 306, 1, 3 },
  { 25, 912, -1, 1 },
  { 0, 2, -2, -1 },
  { 35, 1, -2, -1 },
  { 34, 1, 1, -1 },
  { 32, 258, 1, 3 },
  { 7, 303, -1, 1 },
  { 32, 250, -2, -1 },
  { 5, 190, 1, -1 },
  { 31, 200, -2, 1 },
  { 13, 20, -2, 1 },
  { 1, 522, -1, 1 },
  { 30, 7, 1, -2 },
  { 15, 971, -1, -2 },
  { 25, 863, 1, 19 },
  { 30, 7, 1, 14 },
  { 17, 1, 1, 9 },
  { 33, 15, 1, 5 },
  { 17, 0, -1, 1 },
  { 39, 249, 1, -1 },
  { 7, 311, -2, 1 },
  { 24, 1, -2, -1 },
  { 15, 1010, -1, 1 },
  { 6, 8, -1, 1 },
  { 1, 647, -1, -2 },
  { 23, 148, -1, 1 },
  { 1, 507, 1, -1 },
  { 30, 7, -1, 1 },
  { 5, 195, -2, -1 },
  { 31, 137, 1, -1 },
  { 25, 855, -1, 1 },
  { 8, 2, 1, -1 },
  { 22, 148, -2, -1 },
  { 34, 1, 1, 15 },
  { 41, 188, 1, 9 },
  { 6, 8, 1, 7 },
  { 6, 8, -1, 1 },
  { 13, 1, -1, 1 },
  { 0, 1, -1, 1 },
  { 40, 0, 1, 2 },
  { 25, 898, -1, -2 },
  { 32, 272, -2, -1 },
  { 0, 2, -1, -2 },
  { 39, 249, 1, 2 },
  { 13, 19, -1, -2 },
  { 37, 0, 1, -1 },
  { 34, 1, -1, 1 },
  { 1, 585, -1, -2 },
  { 5, 176, 1, 3 },
  { 5, 169, 1, -1 },
  { 32, 259, -2, -1 },
  { 23, 152, 1, 15 },
  { 5, 190, 1, -1 },
  { 40, 0, 1, 6 },
  { 2, 1, 1, 2 },
  { 14, 1, -2, -1 },
  { 34, 1, 1, 2 },
  { 1, 688, -2, -1 },
  { 30, 7, -1, -2 },
  { 25, 904, 1, 4 },
  { 7, 305, 1, 2 },
  { 7, 290, -2, -2 },
  { 3, 1, -2, -1 },
  { 22, 148, 1, 2 },
  { 30, 7, -1, -2 },
  { 33, 15, -1, -2 },
  { 7, 333, 1, -1 },
  { 5, 251, 1, -2 },
  { 37, 0, 1, -2 },
  { 30, 7, 1, -2 },
  { 15, 915, -1, -2 },
  { 6, 8, -2, 1 },
  { 37, 0, 1, -2 },
  { 33, 15, -2, -1 },
  { 34, 1, -1, -2 },
  { 41, 184, 1, 28 },
  { 35, 1, 1, 16 },
  { 1, 352, -1, 1 },
  { 36, 0, 1, 11 },
  { 35, 1, 1, 9 },
  { 0, 2, 1, 6 },
  { 36, 0, -2, 1 },
  { 5, 198, -2, 1 },
  { 15, 1005, -2, 1 },
  { 25, 247, -1, 1 },
  { 13, 5, -2, -1 },
  { 25, 902, -2, 1 },
  { 15, 837, -1, -2 },
  { 30, 7, -1, -2 },
  { 1, 492, -2, 1 },
  { 7, 329, 1, -2 },
  { 40, 0, -2, -1 },
  { 7, 329, 1, 9 },
  { 14, 2, 1, 3 },
  { 6, 8, 1, -1 },
  { 15, 1009, -1, -2 },
  { 36, 0, -1, 1 },
  { 36, 0, 1, 2 },
  { 8, 0, -1, -2 },
  { 6, 8, 1, -1 },
  { 7, 326, -2, -1 },
  { 8, 2, 1, -2 },
  { 6, 8, -2, -1 },
  { 40, 1, 1, 298 },
  { 40, 0, 1, 127 },
  { 30, 7, 1, 36 },
  { 17, 1, 1, 8 },
  { 41, 187, 1, -1 },
  { 5, 190, 1, -1 },
  { 25, 886, 1, -1 },
  { 7, 303, 1, 3 },
  { 6, 8, -1, 1 },
  { 39, 248, -2, -1 },
  { 6, 8, -2, -1 },
  { 5, 190, 1, -1 },
  { 0, 2, 1, 11 },
  { 6, 8, 1, 9 },
  { 39, 247, 1, 4 },
  { 41, 185, -2, 1 },
  { 36, 0, -1, 1 },
  { 1, 509, -2, -1 },
  { 32, 250, 1, 2 },
  { 33, 14, -1, -2 },
  { 30, 7, 1, -1 },
  { 7, 292, -2, -1 },
  { 25, 783, -2, -1 },
  { 41, 188, 1, 12 },
  { 12, 1, -1, 1 },
  { 24, 1, 1, 4 },
  { 32, 244, 1, -2 },
  { 6, 8, -2, 1 },
  { 35, 1, -1, -2 },
  { 32, 272, 1, -1 },
  { 30, 7, -1, 1 },
  { 9, 1, 1, 3 },
  { 6, 8, -2, 1 },
  { 8, 2, -1, -2 },
  { 32, 250, -2, -1 },
  { 5, 188, -1, 1 },
  { 22, 148, 1, -1 },
  { 40, 0, -2, -1 },
  { 25, 718, 1, 9 },
  { 31, 144, 1, -1 },
  { 32, 270, 1, -1 },
  { 5, 234, 1, -1 },
  { 12, 1, 1, -1 },
  { 44, 1, 1, -2 },
  { 24, 1, 1, 2 },
  { 13, 29, -1, -2 },
  { 7, 322, -2, -1 },
  { 4, 1, 1, -2 },
  { 8, 2, 1, 39 },
  { 5, 177, 1, 15 },
  { 9, 1, 1, -1 },
  { 1, 274, -2, 1 },
  { 19, 1, 1, 6 },
  { 17, 1, -1, 1 },
  { 15, 775, -2, 1 },
  { 24, 1, 1, 2 },
  { 15, 1100, -1, -2 },
  { 7, 288, -1, -1 },
  { 23, 145, 1, -1 },
  { 21, 1, 1, 2 },
  { 6, 8, -2, -1 },
  { 39, 248, 1, 2 },
  { 23, 144, -1, -2 },
  { 22, 148, -2, -2 },
  { 15, 1006, 1, 17 },
  { 0, 2, -1, 1 },
  { 32, 270, 1, -1 },
  { 25, 894, 1, 7 },
  { 1, 507, 1, 3 },
  { 41, 190, -1, 1 },
  { 39, 252, -2, -1 },
  { 36, 0, 1, 2 },
  { 37, 0, -1, -1 },
  { 17, 1, -1, -2 },
  { 40, 0, 1, 4 },
  { 13, 2, 1, 2 },
  { 32, 265, -1, -1 },
  { 31, 145, -2, -1 },
  { 23, 146, 1, 2 },
  { 7, 289, -1, -2 },
  { 24, 1, -1, -1 },
  { 33, 13, -1, 1 },
  { 41, 189, 1, -1 },
  { 30, 7, -1, 1 },
  { 1, 792, 1, -1 },
  { 23, 153, 1, -1 },
  { 40, 0, -2, -2 },
  { 22, 148, 1, 27 },
  { 8, 2, 1, 11 },
  { 5, 258, 1, 3 },
  { 2, 1, 1, -1 },
  { 7, 309, -2, -1 },
  { 40, 0, 1, 5 },
  { 31, 144, 1, -1 },
  { 37, 0, 1, 2 },
  { 0, 1, -1, -2 },
  { 32, 263, -1, -2 },
  { 24, 1, -1, 1 },
  { 35, 1, -2, -1 },
  { 16, 1, 1, 14 },
  { 18, 1, 1, 11 },
  { 13, 20, 1, 7 },
  { 6, 8, 1, 4 },
  { 30, 7, 1, 2 },
  { 36, 0, -1, -1 },
  { 32, 264, -2, -1 },
  { 13, 20, -1, 1 },
  { 41, 187, -1, -2 },
  { 31, 138, 1, -1 },
  { 7, 300, 1, -1 },
  { 33, 14, -2, -1 },
  { 25, 898, 1, -1 },
  { 40, 0, -1, -2 },
  { 0, 1, -2, -1 },
  { 13, 32, 1, -2 },
  { 21, 1, 1, 4 },
  { 30, 7, 1, 2 },
  { 14, 0, -2, -1 },
  { 1, 775, -1, -2 },
  { 8, 2, 1, 2 },
  { 25, 986, -1, -2 },
  { 24, 1, 1, 4 },
  { 40, 0, -1, 1 },
  { 34, 1, -1, 1 },
  { 34, 1, -2, -1 },
  { 41, 187, -1, 1 },
  { 5, 174, -1, 1 },
  { 23, 150, -2, -1 },
  { 36, 0, 1, 158 },
  { 14, 2, 1, 99 },
  { 36, 0, 1, 46 },
  { 5, 181, 1, 37 },
  { 32, 263, 1, 17 },
  { 23, 145, 1, 8 },
  { 32, 247, -2, 1 },
  { 39, 248, 1, 3 },
  { 5, 175, 1, -1 },
  { 37, 0, -2, -1 },
  { 5, 169, 1, -1 },
  { 41, 186, 1, -1 },
  { 32, 259, -1, -2 },
  { 30, 7, 1, 7 },
  { 5, 170, 1, 2 },
  { 15, 828, -2, -1 },
  { 33, 14, 1, 2 },
  { 3, 1, -2, -1 },
  { 32, 262, -1, 1 },
  { 39, 249, -2, -1 },
  { 32, 257, -1, -2 },
  { 30, 7, 1, 17 },
  { 6, 8, 1, 11 },
  { 37, 0, 1, 6 },
  { 31, 137, 1, -1 },
  { 39, 249, -2, 1 },
  { 6, 8, 1, 2 },
  { 40, 1, -2, -1 },
  { 14, 2, -2, -1 },
  { 8, 2, 1, 2 },
  { 15, 935, -2, -1 },
  { 37, 0, -1, 1 },
  { 32, 265, -1, -2 },
  { 32, 270, 1, 3 },
  { 35, 1, -1, 1 },
  { 0, 2, -1, -2 },
  { 15, 912, 1, -1 },
  { 33, 16, -2, -1 },
  { 34, 1, -2, 1 },
  { 8, 2, -1, -2 },
  { 1, 484, 1, 2 },
  { 7, 322, -1, -2 },
  { 7, 332, -1, 1 },
  { 25, 915, 1, 4 },
  { 37, 0, -2, 1 },
  { 41, 188, -1, 1 },
  { 41, 188, -2, -1 },
  { 25, 979, -2, -1 },
  { 15, 787, 1, 6 },
  { 24, 1, 1, 2 },
  { 31, 143, -2, -1 },
  { 33, 16, 1, 2 },
  { 3, 1, -2, -1 },
  { 7, 290, -2, -1 },
  { 25, 999, 1, 44 },
  { 23, 155, 1, 39 },
  { 32, 257, 1, 20 },
  { 23, 154, 1, 10 },
  { 31, 140, 1, 7 },
  { 17, 1, 1, 4 },
  { 15, 1008, 1, 2 },
  { 41, 187, -1, -1 },
  { 5, 181, -1, -2 },
  { 32, 247, -2, 1 },
  { 41, 188, -1, -2 },
  { 7, 333, -1, 1 },
  { 32, 255, -2, -1 },
  { 31, 145, 1, 6 },
  { 34, 1, 1, 3 },
  { 1, 501, -1, 1 },
  { 8, 1, -1, -2 },
  { 19, 1, 1, -2 },
  { 33, 12, -1, -2 },
  { 25, 874, -1, 1 },
  { 33, 11, -1, 1 },
  { 7, 327, -1, -2 },
  { 13, 2, 1, 10 },
  { 5, 259, 1, 5 },
  { 31, 142, 1, -1 },
  { 31, 142, 1, 2 },
  { 1, 800, -1, -2 },
  { 32, 262, -1, -2 },
  { 42, 0, -1, 1 },
  { 1, 609, 1, 2 },
  { 23, 153, -2, -1 },
  { 5, 262, -1, -2 },
  { 8, 2, 1, -2 },
  { 30, 7, 1, 4 },
  { 6, 8, 1, 2 },
  { 11, 1, -1, -2 },
  { 41, 187, -1, -2 },
  { 5, 261, 1, 2 },
  { 24, 1, -1, -2 },
  { 5, 262, -1, -2 },
  { 0, 0, 1, -1 },
  { 41, 186, -2, 1 },
  { 32, 260, 1, -1 },
  { 19, 1, -1, -2 },
  { 24, 1, 1, -1 },
  { 30, 7, -2, -1 },
  { 23, 155, 1, 48 },
  { 8, 2, 1, 21 },
  { 33, 15, 1, 19 },
  { 15, 766, -2, 1 },
  { 39, 252, 1, 13 },
  { 22, 148, 1, 11 },
  { 40, 1, 1, 6 },
  { 1, 489, 1, 2 },
  { 31, 141, -1, -2 },
  { 37, 0, 1, 2 },
  { 14, 2, -1, -1 },
  { 12, 1, -1, -1 },
  { 6, 8, 1, 3 },
  { 37, 0, -1, 1 },
  { 23, 154, -1, -2 },
  { 7, 317, -2, -1 },
  { 5, 262, -1, -2 },
  { 22, 148, 1, 2 },
  { 6, 8, -2, -1 },
  { 14, 2, 1, -1 },
  { 14, 2, -1, -2 },
  { 41, 186, -1, -2 },
  { 25, 863, 1, 6 },
  { 35, 1, 1, 3 },
  { 40, 1, -1, 1 },
  { 31, 144, -2, -1 },
  { 5, 194, 1, -1 },
  { 7, 304, -1, -2 },
  { 41, 188, 1, 11 },
  { 42, 0, 1, 4 },
  { 23, 144, 1, -1 },
  { 37, 0, 1, -1 },
  { 30, 7, -2, -1 },
  { 6, 8, -1, 1 },
  { 25, 953, 1, 4 },
  { 6, 8, 1, -1 },
  { 31, 146, 1, -1 },
  { 1, 513, -2, -2 },
  { 13, 19, -1, -2 },
  { 34, 1, 1, 7 },
  { 40, 1, -2, 1 },
  { 41, 190, 1, 3 },
  { 0, 2, -2, 1 },
  { 15, 936, -2, -1 },
  { 30, 7, -1, 1 },
  { 6, 8, -1, -2 },
  { 14, 2, 1, -1 },
  { 35, 1, -1, -2 },
  { 13, 19, 1, 4 },
  { 36, 0, 1, -1 },
  { 37, 0, -1, 1 },
  { 33, 13, -1, -2 },
  { 32, 261, 1, 3 },
  { 32, 261, -1, 1 },
  { 30, 7, -1, -2 },
  { 23, 155, 1, -1 },
  { 31, 145, 1, -1 },
  { 33, 12, -1, -2 },
  { 33, 13, 1, 9 },
  { 36, 0, 1, 2 },
  { 31, 143, -2, -1 },
  { 15, 1011, 1, 4 },
  { 23, 152, 1, -1 },
  { 32, 260, 1, -1 },
  { 12, 1, -1, -2 },
  { 24, 1, -1, 1 },
  { 13, 2, -2, -1 },
  { 23, 150, 1, -1 },
  { 31, 139, 1, -2 },
  { 24, 1, -1, -2 },
  { 34, 1, 1, 12 },
  { 41, 188, 1, 5 },
  { 6, 8, 1, -1 },
  { 15, 835, -2, 1 },
  { 15, 900, -1, 1 },
  { 31, 144, -2, -1 },
  { 7, 332, 1, 3 },
  { 23, 153, 1, -1 },
  { 39, 252, -1, -2 },
  { 34, 1, -1, 1 },
  { 30, 7, 1, -1 },
  { 24, 1, -2, -1 },
  { 33, 13, 1, 83 },
  { 5, 262, 1, 14 },
  { 1, 838, 1, -2 },
  { 35, 1, 1, 4 },
  { 40, 1, 1, -1 },
  { 25, 914, 1, -2 },
  { 5, 261, -1, -2 },
  { 25, 973, 1, 6 },
  { 5, 251, 1, 2 },
  { 30, 7, -2, -1 },
  { 41, 188, 1, -1 },
  { 34, 1, 1, -1 },
  { 1, 488, -1, -2 },
  { 32, 262, 1, -1 },
  { 24, 1, -2, -1 },
  { 33, 12, 1, 32 },
  { 34, 1, 1, -1 },
  { 23, 154, -1, 1 },
  { 1, 530, 1, 17 },
  { 24, 1, 1, -1 },
  { 37, 0, 1, 7 },
  { 7, 328, 1, 3 },
  { 37, 0, -2, 1 },
  { 13, 19, -2, -1 },
  { 6, 7, -2, 1 },
  { 30, 7, 1, -2 },
  { 39, 249, -1, -2 },
  { 12, 1, 1, 2 },
  { 25, 874, -1, -2 },
  { 23, 155, 1, 4 },
  { 37, 0, 1, 2 },
  { 39, 248, -2, -2 },
  { 13, 19, -2, -1 },
  { 37, 0, -2, 1 },
  { 33, 12, -2, -1 },
  { 2, 1, 1, 7 },
  { 24, 1, -1, 1 },
  { 31, 143, -1, 1 },
  { 41, 188, -2, 1 },
  { 24, 1, 1, 2 },
  { 8, 2, -1, -2 },
  { 23, 155, -2, -1 },
  { 31, 144, 1, 4 },
  { 42, 0, 1, -1 },
  { 6, 8, -2, 1 },
  { 13, 10, -1, -2 },
  { 7, 315, -1, -2 },
  { 17, 1, 1, 13 },
  { 41, 187, 1, 7 },
  { 30, 7, -1, 1 },
  { 13, 27, -1, 1 },
  { 7, 330, 1, 3 },
  { 5, 263, 1, -2 },
  { 25, 884, -2, -1 },
  { 25, 886, -2, -1 },
  { 8, 0, 1, -1 },
  { 33, 12, -1, 1 },
  { 30, 7, -1, 1 },
  { 15, 870, -2, 1 },
  { 25, 885, -1, -2 },
  { 1, 730, 1, 18 },
  { 23, 155, 1, 10 },
  { 8, 2, 1, 7 },
  { 5, 263, -1, 1 },
  { 7, 316, -1, 1 },
  { 35, 1, 1, 3 },
  { 13, 19, -2, 1 },
  { 23, 154, -2, -2 },
  { 34, 1, -2, -1 },
  { 15, 833, -1, 1 },
  { 5, 263, -2, -1 },
  { 7, 328, 1, 4 },
  { 31, 145, 1, 2 },
  { 7, 324, -2, -1 },
  { 15, 959, -1, -2 },
  { 19, 0, -2, 1 },
  { 25, 791, -1, 1 },
  { 32, 262, -2, -1 },
  { 37, 0, 1, 3 },
  { 24, 1, 1, -1 },
  { 5, 262, -2, -1 },
  { 3, 1, -1, 1 },
  { 41, 188, -1, -2 },
  { 13, 19, 1, 3 },
  { 25, 751, -1, 1 },
  { 31, 143, -1, -2 },
  { 5, 233, -1, -2 },
  { 13, 2, 1, 114 },
  { 25, 795, 1, 12 },
  { 39, 252, 1, -1 },
  { 8, 1, 1, -1 },
  { 1, 556, 1, 2 },
  { 36, 0, -1, -2 },
  { 30, 7, 1, 2 },
  { 1, 609, -1, -2 },
  { 39, 251, 1, -1 },
  { 7, 322, 1, -1 },
  { 42, 1, 1, -1 },
  { 42, 1, -2, 1 },
  { 30, 7, -2, -1 },
  { 37, 0, 1, 55 },
  { 40, 1, 1, 30 },
  { 30, 7, 1, 6 },
  { 5, 190, 1, -1 },
  { 5, 185, 1, -2 },
  { 23, 141, -2, 1 },
  { 24, 1, -2, 1 },
  { 23, 204, -1, -2 },
  { 37, 0, -2, 1 },
  { 33, 14, 1, 7 },
  { 23, 152, 1, -1 },
  { 40, 1, 1, 4 },
  { 33, 14, -1, 1 },
  { 30, 7, -1, 1 },
  { 13, 2, -2, -1 },
  { 35, 1, -2, -1 },
  { 5, 181, 1, 10 },
  { 15, 887, 1, -1 },
  { 14, 0, 1, 5 },
  { 35, 1, 1, 2 },
  { 42, 1, -1, -2 },
  { 24, 1, 1, -1 },
  { 42, 0, -1, -2 },
  { 5, 176, -1, 1 },
  { 23, 144, 1, -1 },
  { 6, 8, -2, -1 },
  { 42, 0, 1, -1 },
  { 31, 138, -1, 1 },
  { 34, 1, -1, 1 },
  { 1, 613, 1, -2 },
  { 24, 1, -2, -1 },
  { 36, 0, 1, 8 },
  { 7, 330, 1, 5 },
  { 41, 182, -2, 1 },
  { 30, 7, 1, -2 },
  { 7, 329, -1, 1 },
  { 33, 14, -1, -2 },
  { 1, 505, 1, -1 },
  { 8, 2, -1, -2 },
  { 30, 7, 1, 4 },
  { 32, 266, 1, 2 },
  { 24, 1, -1, -2 },
  { 22, 148, -2, -1 },
  { 39, 249, -1, 1 },
  { 7, 316, -1, 1 },
  { 34, 1, 1, 2 },
  { 33, 11, -1, -2 },
  { 6, 8, -1, 1 },
  { 15, 857, -1, 1 },
  { 23, 155, 1, -1 },
  { 40, 1, 1, 3 },
  { 0, 2, 1, -2 },
  { 5, 261, -2, -1 },
  { 23, 154, 1, -2 },
  { 1, 604, -2, -1 },
  { 40, 1, 1, 16 },
  { 7, 310, 1, 11 },
  { 32, 265, 1, -1 },
  { 36, 0, 1, 5 },
  { 31, 138, -1, 1 },
  { 25, 920, 1, 2 },
  { 41, 188, -2, -1 },
  { 37, 0, -2, -1 },
  { 31, 140, 1, 2 },
  { 7, 291, -2, -1 },
  { 22, 148, 1, -2 },
  { 1, 540, -2, -1 },
  { 23, 149, 1, 2 },
  { 25, 987, -1, -2 },
  { 5, 222, 1, -1 },
  { 23, 150, -1, -2 },
  { 31, 144, 1, 28 },
  { 33, 14, 1, -1 },
  { 32, 259, -1, 1 },
  { 34, 1, 1, 3 },
  { 18, 1, 1, -1 },
  { 19, 1, -2, -1 },
  { 6, 8, 1, 8 },
  { 5, 260, 1, 2 },
  { 25, 958, -2, -1 },
  { 40, 1, 1, 2 },
  { 36, 0, -2, -1 },
  { 24, 1, 1, -1 },
  { 1, 749, -2, 1 },
  { 25, 875, -1, -2 },
  { 6, 8, 1, 6 },
  { 5, 260, 1, 3 },
  { 23, 151, -1, 1 },
  { 25, 878, -2, -1 },
  { 15, 1010, -1, 1 },
  { 31, 143, -1, -2 },
  { 15, 997, 1, 3 },
  { 0, 2, -1, 1 },
  { 30, 7, -2, -1 },
  { 39, 252, 1, 4 },
  { 13, 2, 1, 2 },
  { 13, 2, -1, -2 },
  { 7, 312, -2, -1 },
  { 23, 149, -1, -2 },
  { 0, 0, 1, -1 },
  { 7, 330, -2, -1 },
  { 41, 188, 1, 185 },
  { 22, 148, 1, 87 },
  { 14, 2, 1, 65 },
  { 31, 140, 1, 48 },
  { 15, 786, 1, 3 },
  { 31, 137, 1, -2 },
  { 6, 8, -1, -2 },
  { 39, 247, 1, 5 },
  { 13, 20, 1, 3 },
  { 7, 307, -2, 1 },
  { 25, 897, -1, -2 },
  { 32, 248, -2, -1 },
  { 7, 318, 1, 35 },
  { 30, 7, 1, 28 },
  { 7, 292, 1, 10 },
  { 41, 187, 1, 5 },
  { 37, 0, -1, 1 },
  { 5, 176, -1, 1 },
  { 33, 15, 1, -2 },
  { 1, 628, -1, -1 },
  { 6, 8, 1, -1 },
  { 2, 1, -1, 1 },
  { 15, 1094, 1, -2 },
  { 33, 15, -1, -2 },
  { 23, 143, 1, 6 },
  { 23, 143, -1, 1 },
  { 7, 303, 1, 2 },
  { 32, 270, -1, -2 },
  { 34, 1, -1, 1 },
  { 8, 2, -2, -1 },
  { 23, 144, 1, 7 },
  { 5, 169, 1, 4 },
  { 31, 138, 1, 2 },
  { 0, 1, -1, -1 },
  { 41, 187, -2, -1 },
  { 6, 8, 1, -1 },
  { 7, 305, -2, -1 },
  { 15, 1105, 1, -2 },
  { 39, 248, 1, 2 },
  { 12, 1, -1, -2 },
  { 18, 0, -2, -1 },
  { 7, 293, 1, 3 },
  { 41, 188, 1, -2 },
  { 1, 521, -2, -1 },
  { 23, 145, -1, 1 },
  { 15, 799, 1, -1 },
  { 33, 14, -1, -2 },
  { 13, 20, 1, -1 },
  { 1, 637, -1, 1 },
  { 31, 139, 1, -1 },
  { 41, 187, -1, -2 },
  { 24, 1, 1, 10 },
  { 33, 71, 1, -1 },
  { 39, 249, 1, -1 },
  { 34, 1, 1, 6 },
  { 30, 8, 1, -1 },
  { 35, 1, -2, 1 },
  { 33, 15, 1, -2 },
  { 24, 1, 1, -2 },
  { 7, 313, -1, -2 },
  { 34, 1, -1, -2 },
  { 13, 32, 1, -2 },
  { 31, 239, 1, 4 },
  { 1, 699, -1, 1 },
  { 6, 8, 1, -1 },
  { 30, 7, -2, -1 },
  { 25, 895, -2, -1 },
  { 6, 8, 1, 8 },
  { 39, 174, 1, 2 },
  { 15, 624, -1, -2 },
  { 42, 0, -1, 1 },
  { 14, 2, 1, 3 },
  { 5, 253, 1, -1 },
  { 33, 12, -2, -1 },
  { 13, 31, -1, -2 },
  { 5, 177, 1, -1 },
  { 41, 186, 1, 3 },
  { 32, 257, -1, 1 },
  { 32, 264, -2, -1 },
  { 41, 187, 1, 2 },
  { 31, 138, -1, -2 },
  { 1, 514, -1, 1 },
  { 25, 825, -1, 1 },
  { 5, 169, -1, 1 },
  { 25, 896, -2, 1 },
  { 7, 300, 1, -1 },
  { 7, 290, -1, 1 },
  { 31, 138, -2, -1 },
  { 23, 148, 1, 31 },
  { 30, 7, 1, 6 },
  { 30, 7, 1, 3 },
  { 32, 261, -1, 1 },
  { 6, 8, -1, -2 },
  { 32, 270, -1, 1 },
  { 23, 148, -1, -2 },
  { 6, 8, 1, 14 },
  { 5, 181, 1, 10 },
  { 8, 2, 1, -2 },
  { 7, 304, -1, 1 },
  { 5, 181, 1, 6 },
  { 25, 899, -1, 1 },
  { 33, 15, 1, 2 },
  { 30, 7, -1, -2 },
  { 32, 266, 1, -2 },
  { 31, 137, -1, -2 },
  { 6, 8, -2, -1 },
  { 34, 1, 1, -1 },
  { 1, 755, 1, -1 },
  { 31, 138, -2, -1 },
  { 25, 873, -1, 1 },
  { 41, 187, 1, -1 },
  { 6, 8, 1, -1 },
  { 15, 746, -1, 1 },
  { 7, 288, 1, 2 },
  { 40, 0, -2, -1 },
  { 40, 0, 1, -2 },
  { 34, 1, 1, -2 },
  { 25, 960, -2, 1 },
  { 14, 2, -1, -2 },
  { 9, 1, 1, -1 },
  { 32, 271, 1, 50 },
  { 0, 1, 1, 5 },
  { 23, 149, 1, 2 },
  { 8, 2, -1, -2 },
  { 39, 249, -1, 1 },
  { 8, 2, -1, -2 },
  { 5, 188, -1, 1 },
  { 8, 2, 1, 33 },
  { 35, 1, 1, 22 },
  { 31, 144, 1, 13 },
  { 24, 1, 1, 8 },
  { 41, 188, 1, 4 },
  { 8, 2, 1, 2 },
  { 6, 8, -2, -1 },
  { 25, 721, -2, -1 },
  { 40, 1, 1, 2 },
  { 6, 8, -1, -1 },
  { 37, 0, -2, -1 },
  { 6, 8, 1, 2 },
  { 40, 1, -1, -2 },
  { 6, 8, 1, -1 },
  { 41, 184, -2, -1 },
  { 41, 183, -2, 1 },
  { 39, 248, 1, 4 },
  { 5, 263, 1, 2 },
  { 1, 512, -1, -1 },
  { 6, 8, -1, -2 },
  { 33, 15, 1, 2 },
  { 40, 1, -1, -2 },
  { 1, 502, -1, -2 },
  { 5, 191, -2, 1 },
  { 40, 1, 1, 5 },
  { 19, 1, 1, -1 },
  { 30, 7, 1, 2 },
  { 7, 329, -1, -2 },
  { 34, 1, -2, -1 },
  { 15, 822, 1, 2 },
  { 40, 1, -1, -2 },
  { 36, 0, -1, 1 },
  { 22, 148, -2, -2 },
  { 39, 245, 1, 2 },
  { 8, 2, -1, -2 },
  { 32, 262, 1, 5 },
  { 1, 499, -1, 1 },
  { 7, 333, 1, -1 },
  { 41, 186, -1, 1 },
  { 7, 332, -2, -2 },
  { 4, 1, 1, -2 },
  { 15, 913, -1, 1 },
  { 30, 7, -1, -2 },
  { 3, 1, 1, 11 },
  { 19, 1, 1, 7 },
  { 23, 153, 1, 4 },
  { 31, 142, 1, -1 },
  { 30, 7, -1, 1 },
  { 1, 731, -2, -1 },
  { 31, 144, 1, -1 },
  { 25, 852, -1, -2 },
  { 23, 157, 1, -1 },
  { 1, 765, 1, -1 },
  { 7, 315, -1, -2 },
  { 1, 465, -2, 1 },
  { 5, 189, 1, -1 },
  { 34, 1, -1, 1 },
  { 0, 2, -2, -1 },
  { 1, 818, 1, 94 },
  { 23, 155, 1, -1 },
  { 31, 143, 1, 26 },
  { 25, 613, 1, 5 },
  { 7, 317, 1, -1 },
  { 37, 0, -2, 1 },
  { 13, 9, -2, 1 },
  { 36, 0, -2, -1 },
  { 7, 322, 1, 6 },
  { 34, 1, 1, 2 },
  { 15, 1011, -1, -2 },
  { 32, 260, 1, -1 },
  { 32, 256, 1, -2 },
  { 37, 0, -2, -1 },
  { 7, 326, 1, 10 },
  { 33, 11, 1, 4 },
  { 5, 260, -1, 1 },
  { 25, 798, -1, 1 },
  { 13, 19, -1, -2 },
  { 42, 0, -1, 1 },
  { 5, 218, -1, 1 },
  { 32, 261, -1, 1 },
  { 41, 189, -1, 1 },
  { 12, 1, -2, -1 },
  { 8, 2, 1, 2 },
  { 15, 784, -2, -1 },
  { 8, 2, 1, -1 },
  { 5, 260, -1, -2 },
  { 1, 516, 1, 40 },
  { 15, 846, 1, 4 },
  { 13, 19, 1, -1 },
  { 1, 498, -1, 1 },
  { 0, 2, -2, -1 },
  { 33, 11, 1, 28 },
  { 40, 1, 1, 6 },
  { 6, 8, 1, -1 },
  { 15, 914, -1, 1 },
  { 23, 154, 1, 2 },
  { 15, 952, -2, -1 },
  { 6, 8, -1, -2 },
  { 33, 11, 1, 8 },
  { 0, 2, -1, 1 },
  { 13, 19, 1, -1 },
  { 41, 190, 1, 3 },
  { 1, 505, 1, -2 },
  { 33, 11, -1, -2 },
  { 0, 2, 1, -1 },
  { 1, 508, -1, -2 },
  { 14, 2, 1, 10 },
  { 32, 260, 1, 4 },
  { 1, 505, -1, 1 },
  { 24, 1, -1, 1 },
  { 35, 1, -2, -2 },
  { 24, 1, 1, 2 },
  { 36, 0, -2, -1 },
  { 34, 1, 1, 2 },
  { 41, 190, -2, -1 },
  { 41, 190, -2, -1 },
  { 25, 880, 1, -1 },
  { 13, 19, -1, 1 },
  { 23, 152, -2, -1 },
  { 23, 154, 1, 5 },
  { 30, 7, 1, 3 },
  { 39, 252, -1, 1 },
  { 25, 892, -2, -1 },
  { 32, 262, -2, -1 },
  { 32, 268, 1, -2 },
  { 33, 12, -2, -1 },
  { 5, 261, 1, 14 },
  { 23, 153, 1, 3 },
  { 7, 333, -1, 1 },
  { 5, 260, -1, -2 },
  { 31, 144, 1, 5 },
  { 33, 11, -1, 1 },
  { 33, 11, 1, -1 },
  { 39, 252, 1, -1 },
  { 37, 0, -1, -2 },
  { 24, 1, 1, 4 },
  { 36, 0, -1, 1 },
  { 5, 258, 1, -1 },
  { 34, 1, -1, -2 },
  { 42, 0, -1, -2 },
  { 8, 2, 1, 7 },
  { 33, 12, 1, 5 },
  { 1, 536, 1, 3 },
  { 30, 7, 1, -1 },
  { 41, 191, -2, -1 },
  { 25, 999, -1, -2 },
  { 23, 155, -2, -1 },
  { 6, 8, 1, 2 },
  { 8, 2, -1, -2 },
  { 15, 980, 1, 2 },
  { 25, 831, -2, -1 },
  { 1, 522, -1, -2 },
  { 39, 250, 1, -2 },
  { 5, 263, 1, -2 },
  { 15, 834, -2, -1 },
  { 24, 1, 1, 16 },
  { 6, 8, -1, 1 },
  { 6, 8, 1, -1 },
  { 32, 245, 1, 6 },
  { 39, 247, 1, 3 },
  { 8, 2, -2, 1 },
  { 25, 845, -2, -1 },
  { 13, 20, -2, 1 },
  { 34, 1, -2, -1 },
  { 13, 20, 1, 6 },
  { 30, 8, 1, -1 },
  { 23, 324, 1, -2 },
  { 8, 0, 1, -2 },
  { 23, 324, -2, 1 },
  { 15, 1014, -1, -2 },
  { 30, 8, -2, -1 },
  { 31, 144, 1, 227 },
  { 15, 1007, 1, 164 },
  { 4, 1, 1, -2 },
  { 5, 262, 1, 130 },
  { 24, 1, 1, 91 },
  { 30, 7, 1, 19 },
  { 2, 1, 1, 6 },
  { 24, 1, 1, 2 },
  { 15, 805, -2, -1 },
  { 41, 185, 1, -1 },
  { 8, 2, -1, 1 },
  { 39, 247, -1, -2 },
  { 5, 190, 1, -1 },
  { 7, 303, -1, 1 },
  { 41, 188, 1, 7 },
  { 33, 16, 1, 5 },
  { 31, 137, 1, 2 },
  { 30, 7, -1, -2 },
  { 12, 1, -1, 1 },
  { 39, 249, -2, -2 },
  { 39, 249, -2, -1 },
  { 40, 0, 1, 2 },
  { 41, 188, -2, -1 },
  { 39, 249, -2, -1 },
  { 31, 141, 1, 36 },
  { 1, 248, 1, 3 },
  { 14, 2, 1, -2 },
  { 1, 243, -1, -2 },
  { 12, 1, 1, 18 },
  { 40, 0, 1, 6 },
  { 14, 2, 1, 2 },
  { 25, 687, -2, -1 },
  { 31, 139, 1, 2 },
  { 15, 918, -2, -1 },
  { 40, 0, -1, -2 },
  { 25, 600, 1, 4 },
  { 35, 1, -1, 1 },
  { 2, 1, 1, -2 },
  { 41, 189, -1, -2 },
  { 23, 143, 1, 4 },
  { 31, 136, 1, 2 },
  { 7, 289, -1, -1 },
  { 25, 834, -1, -2 },
  { 19, 1, 1, 2 },
  { 13, 2, -1, -1 },
  { 31, 139, -2, -1 },
  { 1, 800, 1, 9 },
  { 13, 20, 1, -2 },
  { 31, 137, 1, 4 },
  { 19, 1, 1, 2 },
  { 39, 248, -1, -1 },
  { 39, 249, -1, -2 },
  { 14, 2, 1, 2 },
  { 5, 169, -2, -1 },
  { 25, 947, -1, -2 },
  { 7, 305, 1, -1 },
  { 22, 148, 1, 3 },
  { 32, 264, -1, 1 },
  { 15, 831, -1, -2 },
  { 1, 805, -2, -1 },
  { 30, 7, 1, 5 },
  { 31, 142, 1, -1 },
  { 7, 321, -1, 1 },
  { 3, 1, -1, 1 },
  { 6, 8, -1, -2 },
  { 6, 8, 1, 21 },
  { 33, 11, 1, 11 },
  { 15, 845, 1, 4 },
  { 15, 778, -2, 1 },
  { 15, 819, 1, -1 },
  { 8, 2, -1, -1 },
  { 39, 252, 1, 4 },
  { 5, 261, 1, 2 },
  { 34, 1, -1, -2 },
  { 35, 1, -1, -1 },
  { 24, 1, -1, 1 },
  { 33, 11, -1, -2 },
  { 32, 261, 1, 4 },
  { 14, 2, 1, -1 },
  { 41, 189, -1, 1 },
  { 6, 8, -1, -2 },
  { 1, 489, 1, 2 },
  { 32, 268, -1, -2 },
  { 31, 143, 1, 2 },
  { 41, 190, -1, -2 },
  { 23, 153, -1, -1 },
  { 13, 32, 1, -2 },
  { 25, 995, 1, 5 },
  { 15, 787, -2, 1 },
  { 15, 813, 1, 2 },
  { 5, 260, -1, -2 },
  { 11, 1, -1, -2 },
  { 39, 251, -1, 1 },
  { 37, 0, 1, -2 },
  { 22, 148, -2, -1 },
  { 23, 144, 1, 25 },
  { 1, 272, 1, 6 },
  { 0, 2, 1, 4 },
  { 0, 2, 1, -2 },
  { 7, 291, -2, 1 },
  { 23, 144, -1, -2 },
  { 37, 0, -2, -1 },
  { 1, 800, 1, 16 },
  { 18, 1, 1, 13 },
  { 12, 1, 1, 6 },
  { 5, 176, 1, -1 },
  { 22, 148, 1, 2 },
  { 39, 249, -1, -2 },
  { 6, 8, 1, -1 },
  { 31, 137, -2, -1 },
  { 40, 1, 1, 4 },
  { 7, 303, -1, 1 },
  { 30, 7, -1, 1 },
  { 8, 2, -2, -1 },
  { 1, 500, 1, -1 },
  { 30, 7, -1, -2 },
  { 25, 900, 1, -1 },
  { 5, 174, -1, -2 },
  { 6, 8, 1, -1 },
  { 33, 15, -2, -1 },
  { 39, 249, 1, 5 },
  { 15, 769, -2, 1 },
  { 30, 7, 1, -1 },
  { 35, 1, 1, -1 },
  { 0, 2, -1, -2 },
  { 1, 523, 1, -1 },
  { 8, 2, 1, 2 },
  { 40, 0, -2, -1 },
  { 32, 254, 1, 2 },
  { 1, 519, -2, -1 },
  { 37, 0, -1, 1 },
  { 30, 7, 1, -1 },
  { 8, 2, -2, -1 },
  { 23, 155, 1, -1 },
  { 32, 263, 1, 18 },
  { 6, 8, 1, 14 },
  { 23, 154, 1, 2 },
  { 1, 833, -1, -2 },
  { 39, 248, 1, 3 },
  { 15, 826, -1, 1 },
  { 13, 19, -1, -2 },
  { 19, 1, 1, -1 },
  { 0, 0, 1, 3 },
  { 31, 144, 1, -1 },
  { 12, 1, -2, -1 },
  { 19, 0, -1, 1 },
  { 1, 507, 1, 2 },
  { 23, 155, -2, -1 },
  { 16, 1, -2, -1 },
  { 14, 2, 1, -1 },
  { 14, 2, -2, 1 },
  { 25, 809, -1, -2 },
  { 22, 148, 1, 12 },
  { 31, 142, 1, 6 },
  { 5, 263, -2, 1 },
  { 39, 247, 1, 3 },
  { 42, 0, -1, 1 },
  { 24, 1, -1, -2 },
  { 40, 1, -1, -2 },
  { 33, 12, 1, 2 },
  { 7, 328, -1, -2 },
  { 41, 187, -1, 1 },
  { 41, 188, 1, -1 },
  { 1, 728, -2, -1 },
  { 5, 263, -1, -2 },
  { 23, 155, 1, -1 },
  { 30, 7, 1, 14 },
  { 33, 15, 1, -1 },
  { 40, 0, 1, 5 },
  { 5, 190, 1, -1 },
  { 7, 304, 1, -2 },
  { 35, 1, -1, 1 },
  { 41, 187, -2, -1 },
  { 13, 2, 1, -1 },
  { 22, 148, -1, 1 },
  { 23, 148, 1, -1 },
  { 39, 249, 1, -1 },
  { 6, 8, 1, -1 },
  { 24, 1, 1, -2 },
  { 1, 521, -1, -2 },
  { 31, 137, -1, 1 },
  { 32, 266, 1, 34 },
  { 14, 0, 1, 23 },
  { 30, 7, 1, 14 },
  { 13, 2, 1, 7 },
  { 19, 0, 1, 2 },
  { 39, 252, -1, -2 },
  { 18, 1, 1, -1 },
  { 31, 139, 1, -1 },
  { 31, 139, -1, 1 },
  { 13, 1, -2, -1 },
  { 6, 8, -1, 1 },
  { 33, 14, 1, 2 },
  { 25, 905, -1, -2 },
  { 34, 1, 1, 2 },
  { 0, 2, -2, -1 },
  { 25, 948, -2, -1 },
  { 41, 189, 1, 2 },
  { 31, 143, -2, -1 },
  { 32, 262, 1, -1 },
  { 41, 190, -2, 1 },
  { 24, 1, 1, 2 },
  { 31, 143, -1, -2 },
  { 31, 143, 1, -2 },
  { 34, 1, -1, -2 },
  { 23, 146, 1, 3 },
  { 32, 260, 1, -1 },
  { 22, 148, -2, -1 },
  { 42, 0, 1, -2 },
  { 2, 1, -1, 1 },
  { 33, 14, 1, -1 },
  { 15, 1008, 1, 2 },
  { 7, 300, -2, -1 },
  { 8, 0, 1, -1 },
  { 31, 143, -2, -2 },
  { 41, 186, 1, 4 },
  { 21, 1, 1, 2 },
  { 22, 148, -1, -2 },
  { 31, 142, -1, -2 },
  { 5, 217, -1, 1 },
  { 40, 0, 1, 2 },
  { 23, 150, -1, -2 },
  { 39, 246, -1, 1 },
  { 36, 0, -1, 1 },
  { 17, 1, 1, -2 },
  { 32, 272, 1, -1 },
  { 1, 517, -1, -2 },
  { 41, 188, 1, 45 },
  { 15, 854, 1, 3 },
  { 23, 277, 1, -2 },
  { 18, 1, -1, -2 },
  { 40, 1, 1, 12 },
  { 5, 177, 1, 5 },
  { 24, 1, 1, 2 },
  { 15, 977, -1, -2 },
  { 25, 782, 1, -2 },
  { 15, 967, -1, -2 },
  { 30, 7, 1, 5 },
  { 7, 332, 1, -1 },
  { 23, 152, 1, -1 },
  { 23, 152, -1, 1 },
  { 32, 270, -2, -1 },
  { 39, 233, -2, -1 },
  { 5, 251, 1, 21 },
  { 8, 1, -1, 1 },
  { 6, 8, 1, 17 },
  { 0, 2, 1, 14 },
  { 35, 1, -1, 1 },
  { 36, 0, 1, 10 },
  { 37, 0, 1, 4 },
  { 7, 333, 1, -1 },
  { 15, 952, 1, -2 },
  { 24, 1, -2, -2 },
  { 36, 0, 1, 3 },
  { 8, 2, -2, 1 },
  { 8, 2, -2, -2 },
  { 33, 12, 1, -2 },
  { 7, 333, -2, -1 },
  { 14, 2, 1, -2 },
  { 7, 332, -2, -1 },
  { 32, 257, -2, 1 },
  { 32, 259, -1, -2 },
  { 7, 332, 1, -1 },
  { 15, 993, -2, -1 },
  { 17, 1, 1, 5 },
  { 8, 2, 1, 2 },
  { 24, 1, -2, -1 },
  { 40, 1, -1, 1 },
  { 1, 505, -2, -1 },
  { 13, 32, 1, -2 },
  { 5, 263, -1, 1 },
  { 41, 187, -1, -2 },
  { 41, 190, 1, -1 },
  { 24, 1, 1, 4 },
  { 31, 145, 1, -1 },
  { 13, 19, -1, 1 },
  { 33, 11, -2, -1 },
  { 30, 7, 1, -1 },
  { 14, 2, 1, 3 },
  { 34, 1, -1, 1 },
  { 25, 963, -2, -1 },
  { 32, 259, 1, 2 },
  { 23, 154, -1, -2 },
  { 39, 251, -1, -2 },
  { 34, 1, 1, 8 },
  { 14, 2, 1, 6 },
  { 15, 520, -1, 1 },
  { 7, 303, 1, 2 },
  { 24, 1, -1, -2 },
  { 31, 132, 1, -2 },
  { 39, 172, -1, -2 },
  { 33, 15, -2, -1 },
  { 23, 155, 1, 221 },
  { 30, 7, 1, 130 },
  { 25, 704, 1, 20 },
  { 5, 205, 1, 9 },
  { 9, 1, 1, -1 },
  { 32, 257, -1, 1 },
  { 32, 262, 1, 2 },
  { 31, 143, -2, -1 },
  { 25, 701, 1, 3 },
  { 0, 2, -2, 1 },
  { 3, 1, -1, -2 },
  { 17, 1, -2, -1 },
  { 32, 269, 1, 2 },
  { 21, 1, -2, -1 },
  { 17, 1, 1, 5 },
  { 30, 7, -1, 1 },
  { 1, 813, 1, 2 },
  { 34, 1, -1, -2 },
  { 25, 609, -1, -2 },
  { 25, 673, 1, 2 },
  { 13, 32, -1, -2 },
  { 8, 1, -2, -1 },
  { 24, 1, 1, 7 },
  { 39, 251, 1, -1 },
  { 23, 148, 1, -1 },
  { 39, 251, 1, 3 },
  { 34, 1, -2, 1 },
  { 1, 499, -2, -1 },
  { 33, 14, -2, -1 },
  { 13, 20, 1, 95 },
  { 5, 258, 1, 73 },
  { 25, 833, 1, 16 },
  { 24, 1, 1, 13 },
  { 33, 14, 1, 3 },
  { 31, 137, 1, -1 },
  { 6, 8, -2, -1 },
  { 5, 181, 1, 5 },
  { 37, 0, -1, 1 },
  { 2, 0, -2, 1 },
  { 12, 1, -1, 1 },
  { 6, 8, -1, -2 },
  { 23, 147, 1, -1 },
  { 7, 307, -1, 1 },
  { 40, 1, 1, -1 },
  { 33, 15, -2, -2 },
  { 41, 187, -1, 1 },
  { 4, 1, -1, -2 },
  { 5, 178, 1, 29 },
  { 40, 0, 1, 14 },
  { 23, 144, 1, 9 },
  { 15, 777, 1, 2 },
  { 9, 1, -2, -1 },
  { 40, 0, 1, 3 },
  { 1, 366, -2, 1 },
  { 30, 7, -1, -2 },
  { 34, 1, 1, 2 },
  { 21, 1, -1, -2 },
  { 39, 248, -1, -1 },
  { 15, 683, -2, 1 },
  { 39, 247, -2, 1 },
  { 7, 295, 1, -1 },
  { 36, 0, -1, -1 },
  { 1, 800, 1, 11 },
  { 2, 1, 1, 3 },
  { 8, 1, 1, -1 },
  { 33, 14, -1, -2 },
  { 5, 169, 1, 4 },
  { 30, 7, 1, 2 },
  { 0, 2, -1, -2 },
  { 25, 986, -2, -1 },
  { 13, 20, 1, 2 },
  { 24, 1, -1, -1 },
  { 33, 14, -1, -1 },
  { 32, 265, -1, 1 },
  { 6, 8, 1, -2 },
  { 33, 15, -2, -1 },
  { 32, 271, 1, 17 },
  { 8, 2, 1, -2 },
  { 33, 13, 1, 8 },
  { 33, 12, 1, 4 },
  { 23, 153, 1, 2 },
  { 34, 1, -2, -1 },
  { 31, 146, -2, -2 },
  { 7, 315, 1, 2 },
  { 1, 782, -1, -2 },
  { 40, 1, -1, -1 },
  { 31, 142, 1, 4 },
  { 14, 2, 1, 2 },
  { 39, 248, -1, -2 },
  { 23, 146, -1, -1 },
  { 33, 15, 1, 2 },
  { 5, 189, -2, -1 },
  { 25, 919, -2, -1 },
  { 36, 0, 1, 3 },
  { 25, 879, 1, -1 },
  { 32, 275, -2, -1 },
  { 37, 0, 1, 6 },
  { 41, 190, 1, 3 },
  { 39, 244, 1, -1 },
  { 42, 0, -2, -1 },
  { 1, 525, -1, 1 },
  { 11, 1, -2, -2 },
  { 32, 272, -2, -1 },
  { 31, 143, 1, 12 },
  { 12, 1, 1, 3 },
  { 6, 8, -1, 1 },
  { 34, 1, -2, -1 },
  { 0, 1, 1, 3 },
  { 6, 8, -1, 1 },
  { 7, 333, -1, -2 },
  { 13, 19, -1, 1 },
  { 1, 505, -1, 1 },
  { 42, 0, -1, 1 },
  { 6, 8, 1, -1 },
  { 6, 8, -2, -2 },
  { 31, 143, 1, 5 },
  { 32, 259, 1, -1 },
  { 6, 8, 1, -2 },
  { 36, 0, -1, 1 },
  { 17, 1, -1, -2 },
  { 40, 0, 1, -1 },
  { 23, 153, -1, 1 },
  { 8, 2, -1, 1 },
  { 25, 955, -2, -1 },
  { 30, 7, 1, -2 },
  { 23, 145, 1, -1 },
  { 33, 15, 1, 4 },
  { 13, 20, 1, -2 },
  { 41, 186, 1, -1 },
  { 0, 2, -2, -1 },
  { 15, 857, -2, -1 },
  { 42, 0, 1, 5 },
  { 18, 1, 1, 2 },
  { 6, 8, -2, -1 },
  { 0, 2, -2, 1 },
  { 33, 12, -1, -2 },
  { 5, 262, 1, 36 },
  { 5, 261, 1, 24 },
  { 39, 251, -1, 1 },
  { 24, 1, 1, 5 },
  { 32, 260, 1, -1 },
  { 23, 152, 1, -1 },
  { 31, 143, -2, 1 },
  { 7, 331, -2, -1 },
  { 32, 262, 1, 16 },
  { 8, 2, 1, 8 },
  { 7, 331, 1, -1 },
  { 5, 261, 1, 4 },
  { 34, 1, -1, 1 },
  { 30, 7, -1, 1 },
  { 0, 2, -2, -2 },
  { 23, 151, -1, 1 },
  { 14, 1, -1, -2 },
  { 32, 260, -1, 1 },
  { 13, 19, 1, -2 },
  { 39, 251, 1, 3 },
  { 25, 831, 1, -1 },
  { 1, 768, -2, -1 },
  { 1, 628, 1, -2 },
  { 24, 1, -1, -2 },
  { 1, 514, -2, -1 },
  { 7, 333, 1, 8 },
  { 34, 1, 1, -1 },
  { 5, 261, 1, 2 },
  { 6, 8, -1, -2 },
  { 23, 155, 1, -1 },
  { 34, 1, -1, 1 },
  { 32, 265, -2, 1 },
  { 40, 1, -2, -1 },
  { 31, 143, -1, 1 },
  { 31, 143, 1, -1 },
  { 6, 8, -1, -2 },
  { 33, 13, 1, -1 },
  { 30, 7, 1, 15 },
  { 37, 0, 1, 8 },
  { 13, 19, 1, 5 },
  { 41, 187, -1, 1 },
  { 3, 1, 1, -1 },
  { 36, 0, 1, -2 },
  { 0, 2, -2, -1 },
  { 6, 8, -2, 1 },
  { 7, 324, -2, -1 },
  { 1, 730, 1, 5 },
  { 41, 186, -2, 1 },
  { 13, 19, 1, -1 },
  { 14, 2, -1, 1 },
  { 8, 1, -2, -1 },
  { 15, 787, -2, -1 },
  { 6, 8, 1, 29 },
  { 6, 8, 1, 16 },
  { 32, 262, 1, 10 },
  { 18, 1, 1, -1 },
  { 22, 148, 1, 5 },
  { 7, 329, -2, 1 },
  { 23, 155, 1, 2 },
  { 36, 0, -2, -2 },
  { 0, 2, -2, -1 },
  { 31, 143, 1, -2 },
  { 1, 493, 1, -2 },
  { 23, 154, -1, -2 },
  { 23, 155, 1, -1 },
  { 5, 262, 1, 2 },
  { 32, 267, -1, -2 },
  { 22, 148, -1, 1 },
  { 24, 1, -2, -1 },
  { 2, 1, 1, 6 },
  { 25, 839, -1, 1 },
  { 6, 8, -2, 1 },
  { 5, 262, -1, 1 },
  { 13, 19, 1, -1 },
  { 31, 143, -1, -2 },
  { 35, 1, 1, 2 },
  { 36, 0, -1, -2 },
  { 31, 144, 1, -1 },
  { 40, 1, -2, 1 },
  { 8, 2, 1, -2 },
  { 24, 1, -1, -2 },
  { 25, 808, -1, 1 },
  { 7, 317, 1, 2 },
  { 39, 249, -2, -1 },
  { 23, 153, -1, -2 },
  { 5, 170, 1, 2 },
  { 15, 965, -1, -2 },
  { 24, 1, 1, 3 },
  { 23, 157, 1, -2 },
  { 15, 961, -1, -2 },
  { 19, 0, 1, 4 },
  { 35, 1, 1, -2 },
  { 22, 148, -1, 1 },
  { 37, 0, -2, -1 },
  { 17, 1, 1, 4 },
  { 31, 244, 1, -2 },
  { 23, 155, 1, -1 },
  { 6, 8, -2, -1 },
  { 36, 0, 1, -1 },
  { 31, 234, -1, -2 },
  { 37, 0, 1, 11 },
  { 39, 9, -1, 1 },
  { 25, 241, -1, 1 },
  { 41, 180, 1, 7 },
  { 5, 263, 1, -1 },
  { 15, 988, 1, -2 },
  { 28, 1, 1, -1 },
  { 14, 2, 1, -2 },
  { 14, 2, -2, 1 },
  { 36, 0, -1, -2 },
  { 31, 216, -1, -2 },
  { 36, 0, 1, 175 },
  { 23, 155, 1, 158 },
  { 9, 1, 1, 135 },
  { 15, 1010, 1, 100 },
  { 8, 2, 1, -2 },
  { 5, 262, 1, 68 },
  { 0, 2, 1, 27 },
  { 13, 1, 1, 8 },
  { 25, 911, 1, -1 },
  { 23, 146, 1, -1 },
  { 36, 0, 1, 2 },
  { 33, 15, -1, -2 },
  { 39, 247, -1, 1 },
  { 30, 7, -1, 1 },
  { 37, 0, -2, -2 },
  { 31, 137, 1, 9 },
  { 6, 8, 1, 4 },
  { 36, 0, -2, 1 },
  { 32, 274, 1, -2 },
  { 42, 0, -1, -2 },
  { 5, 177, -1, 1 },
  { 3, 1, -1, 1 },
  { 25, 863, -1, 1 },
  { 41, 187, -1, -2 },
  { 15, 787, 1, 2 },
  { 24, 1, -2, -1 },
  { 1, 273, -2, 1 },
  { 5, 261, 1, 4 },
  { 39, 252, 1, 2 },
  { 15, 1010, -1, -1 },
  { 41, 190, -2, -1 },
  { 31, 143, 1, -1 },
  { 30, 7, -2, -1 },
  { 39, 247, 1, 6 },
  { 34, 1, -2, 1 },
  { 34, 1, 1, 2 },
  { 30, 7, -2, -1 },
  { 13, 20, -1, 1 },
  { 25, 879, -1, -2 },
  { 5, 169, 1, 9 },
  { 34, 1, -1, 1 },
  { 41, 187, 1, 4 },
  { 15, 913, 1, -1 },
  { 33, 15, -1, 1 },
  { 7, 303, -1, -2 },
  { 31, 138, -1, 1 },
  { 0, 2, -1, 1 },
  { 0, 2, -2, -1 },
  { 7, 319, 1, 12 },
  { 25, 774, 1, 4 },
  { 16, 1, 1, -1 },
  { 40, 0, 1, -1 },
  { 41, 186, -2, -2 },
  { 30, 7, 1, 4 },
  { 12, 1, 1, 2 },
  { 5, 186, -1, -2 },
  { 40, 0, -1, -1 },
  { 6, 8, 1, 2 },
  { 25, 912, -1, -1 },
  { 1, 712, -2, -1 },
  { 33, 14, 1, 8 },
  { 40, 1, 1, 4 },
  { 24, 1, 1, 2 },
  { 39, 249, -2, -1 },
  { 5, 191, -2, -1 },
  { 39, 252, 1, 2 },
  { 33, 12, -2, -1 },
  { 34, 1, -1, -2 },
  { 1, 523, 1, 4 },
  { 40, 0, 1, 2 },
  { 5, 191, -2, -1 },
  { 15, 933, -2, -1 },
  { 15, 1003, -1, -2 },
  { 39, 246, 1, 2 },
  { 13, 32, -1, -2 },
  { 30, 7, 1, -1 },
  { 0, 2, 1, 9 },
  { 33, 12, 1, 6 },
  { 32, 263, 1, 3 },
  { 0, 0, 1, -2 },
  { 40, 1, -2, -1 },
  { 14, 1, 1, -1 },
  { 25, 875, -1, -2 },
  { 36, 0, 1, -2 },
  { 39, 249, -1, -2 },
  { 25, 878, 1, 10 },
  { 3, 1, 1, 4 },
  { 23, 152, -1, 1 },
  { 37, 0, 1, -1 },
  { 13, 19, -2, -2 },
  { 25, 866, 1, 3 },
  { 1, 491, -1, 1 },
  { 25, 864, -2, -2 },
  { 1, 498, -1, 1 },
  { 15, 893, -2, -1 },
  { 6, 8, 1, 5 },
  { 1, 512, 1, -1 },
  { 5, 263, 1, 2 },
  { 16, 1, -1, -2 },
  { 15, 858, -1, -2 },
  { 7, 316, -1, 1 },
  { 31, 144, -2, 1 },
  { 32, 264, -2, -1 },
  { 25, 793, 1, 3 },
  { 1, 623, 1, -2 },
  { 42, 1, -2, -1 },
  { 17, 1, 1, 28 },
  { 34, 1, 1, 24 },
  { 25, 951, 1, 19 },
  { 1, 632, 1, 13 },
  { 39, 248, 1, 6 },
  { 13, 1, -1, 1 },
  { 40, 1, 1, -1 },
  { 15, 1011, 1, 2 },
  { 6, 8, -1, -2 },
  { 34, 1, -2, -1 },
  { 7, 305, -1, 1 },
  { 40, 1, 1, 3 },
  { 25, 926, -2, 1 },
  { 13, 2, -1, -2 },
  { 23, 153, 1, -1 },
  { 0, 2, -2, -2 },
  { 36, 0, 1, 2 },
  { 6, 8, -1, -2 },
  { 30, 7, 1, -1 },
  { 1, 726, 1, -1 },
  { 1, 667, -1, -2 },
  { 5, 218, -1, 1 },
  { 6, 8, -1, 1 },
  { 40, 1, -1, 1 },
  { 32, 260, -1, -2 },
  { 6, 8, -1, 1 },
  { 15, 1011, 1, -1 },
  { 5, 184, -1, -2 },
  { 39, 251, 1, -1 },
  { 6, 8, -1, 1 },
  { 1, 793, -2, -1 },
  { 30, 7, 1, 8 },
  { 15, 825, 1, -1 },
  { 1, 501, 1, 4 },
  { 25, 849, -2, 1 },
  { 23, 145, -2, 1 },
  { 23, 145, -1, -2 },
  { 13, 20, -1, 1 },
  { 35, 1, -2, -1 },
  { 24, 1, -2, 1 },
  { 14, 2, 1, 6 },
  { 15, 976, -1, 1 },
  { 1, 522, 1, -1 },
  { 41, 188, -1, 1 },
  { 23, 147, 1, -1 },
  { 25, 913, -1, -2 },
  { 7, 300, 1, -1 },
  { 8, 2, -1, 1 },
  { 34, 1, -2, 1 },
  { 13, 20, 1, -1 },
  { 34, 1, 1, -2 },
  { 0, 2, 1, -2 },
  { 6, 8, -2, -1 },
  { 30, 7, 1, 10 },
  { 39, 248, 1, -1 },
  { 5, 263, 1, 7 },
  { 6, 8, -1, 1 },
  { 13, 20, -2, 1 },
  { 14, 2, 1, 2 },
  { 41, 185, -2, -1 },
  { 36, 0, 1, -2 },
  { 14, 2, -1, -2 },
  { 39, 247, -1, -2 },
  { 34, 1, 1, 4 },
  { 8, 2, -1, 1 },
  { 30, 8, -1, 1 },
  { 25, 900, -2, -1 },
  { 32, 267, 1, -1 },
  { 37, 0, -2, -1 },
  { 31, 143, 1, 13 },
  { 40, 1, 1, 3 },
  { 5, 220, 1, -1 },
  { 13, 11, -2, -1 },
  { 11, 1, 1, -2 },
  { 15, 1009, 1, -2 },
  { 35, 1, 1, -2 },
  { 6, 8, -2, 1 },
  { 15, 819, 1, 2 },
  { 40, 1, -1, -2 },
  { 0, 2, 1, -2 },
  { 23, 150, 1, -1 },
  { 30, 7, -1, -2 },
  { 22, 148, -1, 1 },
  { 33, 11, -1, 1 },
  { 23, 152, 1, 2 },
  { 39, 251, -1, -2 },
  { 40, 1, -1, -2 },
  { 24, 1, 1, 18 },
  { 42, 0, 1, 15 },
  { 15, 538, -1, 1 },
  { 39, 246, 1, 8 },
  { 32, 260, 1, 4 },
  { 33, 16, 1, -2 },
  { 23, 187, 1, -1 },
  { 13, 7, -1, -2 },
  { 32, 269, -2, 1 },
  { 15, 1010, 1, -2 },
  { 23, 265, -2, -1 },
  { 32, 271, 1, -1 },
  { 1, 498, -2, 1 },
  { 13, 20, 1, -1 },
  { 25, 846, -2, 1 },
  { 25, 846, -1, -2 },
  { 13, 2, -2, 1 },
  { 14, 0, -1, -2 },
  { 31, 144, 1, 266 },
  { 40, 1, 1, 222 },
  { 17, 1, 1, 99 },
  { 30, 7, 1, 31 },
  { 15, 1009, 1, 13 },
  { 5, 190, 1, -1 },
  { 7, 307, 1, 7 },
  { 13, 2, 1, 3 },
  { 14, 0, -1, 1 },
  { 34, 1, -1, -2 },
  { 31, 138, -1, 1 },
  { 33, 15, -1, 1 },
  { 6, 8, -1, -2 },
  { 15, 904, -1, 1 },
  { 36, 0, 1, 2 },
  { 41, 189, -2, -1 },
  { 1, 513, -1, -2 },
  { 40, 0, 1, 8 },
  { 31, 142, 1, -1 },
  { 15, 1013, 1, 5 },
  { 31, 137, -1, 1 },
  { 5, 190, 1, -1 },
  { 7, 304, 1, -2 },
  { 32, 261, -2, -1 },
  { 41, 179, -2, -1 },
  { 39, 248, 1, 5 },
  { 6, 8, 1, 2 },
  { 31, 139, -2, -1 },
  { 23, 143, 1, -2 },
  { 40, 0, -2, -1 },
  { 7, 311, 1, -2 },
  { 33, 14, 1, -1 },
  { 5, 182, -1, 1 },
  { 24, 1, -2, -1 },
  { 24, 1, 1, 28 },
  { 5, 219, 1, 3 },
  { 23, 147, -1, 1 },
  { 25, 697, -2, -1 },
  { 19, 1, 1, 18 },
  { 42, 0, 1, 3 },
  { 30, 7, 1, -1 },
  { 39, 248, -2, -1 },
  { 13, 2, 1, 11 },
  { 34, 1, 1, 3 },
  { 22, 148, -1, 1 },
  { 32, 270, -1, -2 },
  { 18, 1, 1, 5 },
  { 39, 252, 1, -1 },
  { 1, 636, 1, 2 },
  { 16, 1, -2, -2 },
  { 25, 979, -1, -2 },
  { 15, 947, -1, 1 },
  { 36, 0, -2, -1 },
  { 33, 11, -1, 1 },
  { 41, 189, 1, -2 },
  { 36, 0, -2, -1 },
  { 35, 1, 1, 4 },
  { 1, 812, -1, 1 },
  { 25, 609, -1, 1 },
  { 6, 8, -1, -2 },
  { 35, 1, 1, -1 },
  { 14, 0, -2, -1 },
  { 1, 461, 1, 4 },
  { 35, 1, 1, 2 },
  { 7, 322, -1, -2 },
  { 23, 148, -1, -2 },
  { 39, 252, 1, 30 },
  { 5, 181, 1, 15 },
  { 1, 800, 1, 11 },
  { 19, 1, 1, 5 },
  { 25, 943, 1, -1 },
  { 5, 181, 1, -2 },
  { 18, 1, -1, 1 },
  { 39, 249, -1, -1 },
  { 5, 174, -1, 1 },
  { 5, 176, 1, -1 },
  { 25, 868, 1, 2 },
  { 1, 643, -1, -2 },
  { 1, 625, -2, -1 },
  { 14, 0, 1, -2 },
  { 8, 1, -1, 1 },
  { 31, 137, -2, -1 },
  { 41, 189, 1, 8 },
  { 4, 1, 1, -2 },
  { 13, 31, 1, -2 },
  { 35, 1, 1, 2 },
  { 40, 0, -2, -1 },
  { 37, 0, 1, 2 },
  { 23, 149, -1, -1 },
  { 31, 143, -1, -1 },
  { 36, 0, 1, 3 },
  { 15, 987, 1, -1 },
  { 31, 144, -2, -1 },
  { 41, 190, 1, 2 },
  { 31, 143, -1, -2 },
  { 7, 317, -2, -1 },
  { 33, 11, 1, 3 },
  { 37, 0, -1, 1 },
  { 39, 252, -2, -1 },
  { 40, 0, 1, -2 },
  { 1, 655, -1, -2 },
  { 32, 260, 1, 44 },
  { 3, 1, 1, 15 },
  { 1, 783, 1, -1 },
  { 8, 2, 1, 12 },
  { 15, 1101, 1, -2 },
  { 30, 7, 1, 5 },
  { 14, 2, 1, 3 },
  { 13, 20, -1, 1 },
  { 35, 1, -1, -2 },
  { 13, 13, -2, -1 },
  { 25, 660, -2, 1 },
  { 25, 925, -1, 1 },
  { 39, 248, 1, -1 },
  { 15, 973, 1, -1 },
  { 1, 635, -2, -1 },
  { 39, 249, -1, -2 },
  { 0, 0, 1, 6 },
  { 2, 0, 1, 2 },
  { 7, 307, -2, -1 },
  { 6, 8, -1, 1 },
  { 30, 7, 1, -1 },
  { 32, 250, -2, -1 },
  { 41, 186, 1, 4 },
  { 32, 253, 1, -1 },
  { 23, 145, -2, 1 },
  { 13, 20, -1, -2 },
  { 25, 872, 1, 12 },
  { 23, 152, 1, 4 },
  { 0, 2, 1, -1 },
  { 9, 1, -2, 1 },
  { 41, 186, -2, -1 },
  { 31, 143, 1, 4 },
  { 13, 19, 1, -2 },
  { 37, 0, 1, -1 },
  { 22, 148, -1, -2 },
  { 30, 7, -1, 1 },
  { 41, 190, 1, -1 },
  { 22, 148, -1, -2 },
  { 6, 8, -1, 1 },
  { 39, 250, -1, 1 },
  { 14, 2, -1, 1 },
  { 5, 177, -1, 1 },
  { 32, 254, -1, 1 },
  { 24, 1, -1, -2 },
  { 8, 2, 1, -2 },
  { 15, 786, 1, 9 },
  { 24, 1, 1, 3 },
  { 1, 741, -2, 1 },
  { 24, 1, -2, -1 },
  { 12, 1, 1, 4 },
  { 2, 1, -1, 1 },
  { 1, 712, -2, 1 },
  { 5, 220, -1, -2 },
  { 30, 7, -2, -1 },
  { 21, 1, 1, 5 },
  { 32, 269, 1, 3 },
  { 35, 1, -2, 1 },
  { 5, 260, -1, -2 },
  { 33, 15, -2, -1 },
  { 24, 1, 1, 45 },
  { 33, 11, 1, 17 },
  { 5, 258, 1, 6 },
  { 39, 252, 1, 4 },
  { 34, 1, 1, -1 },
  { 6, 8, 1, -1 },
  { 8, 2, -2, -2 },
  { 7, 334, -1, -2 },
  { 23, 153, 1, 7 },
  { 1, 532, 1, 3 },
  { 15, 845, -1, 1 },
  { 41, 190, -2, -2 },
  { 7, 333, 1, 2 },
  { 41, 190, -1, -1 },
  { 7, 333, -2, -1 },
  { 8, 2, -1, 1 },
  { 41, 191, 1, -1 },
  { 0, 1, -1, -2 },
  { 36, 0, 1, 15 },
  { 14, 2, 1, 8 },
  { 23, 148, 1, 4 },
  { 23, 144, 1, 2 },
  { 14, 2, -1, -2 },
  { 15, 1101, -1, -2 },
  { 13, 19, 1, 2 },
  { 6, 8, -1, -1 },
  { 5, 191, -2, -1 },
  { 6, 8, 1, 3 },
  { 40, 1, -1, 1 },
  { 31, 143, -1, -2 },
  { 7, 323, 1, 2 },
  { 31, 137, -1, -1 },
  { 30, 7, -1, -2 },
  { 23, 147, 1, 6 },
  { 41, 186, 1, 2 },
  { 1, 612, -2, -1 },
  { 6, 8, 1, 2 },
  { 8, 0, -1, -1 },
  { 34, 1, -1, -2 },
  { 39, 249, 1, 4 },
  { 6, 8, 1, 2 },
  { 30, 7, -1, -1 },
  { 23, 149, -2, -1 },
  { 1, 834, 1, -2 },
  { 34, 1, -1, -1 },
  { 15, 1012, 1, -2 },
  { 6, 8, 1, 12 },
  { 39, 248, 1, 4 },
  { 31, 137, 1, -1 },
  { 31, 137, 1, -2 },
  { 23, 143, -1, -1 },
  { 31, 137, 1, 4 },
  { 14, 2, 1, 2 },
  { 1, 505, -2, -1 },
  { 25, 928, -2, -1 },
  { 13, 19, 1, 2 },
  { 36, 0, -1, -2 },
  { 24, 1, -1, -1 },
  { 6, 8, 1, -1 },
  { 41, 186, 1, 2 },
  { 30, 7, -1, -2 },
  { 7, 289, 1, -1 },
  { 39, 248, -1, -2 },
  { 33, 13, 1, 41 },
  { 22, 148, 1, 35 },
  { 39, 250, 1, 31 },
  { 34, 1, 1, 26 },
  { 39, 249, 1, 12 },
  { 30, 7, 1, 9 },
  { 25, 920, 1, -1 },
  { 15, 825, 1, 3 },
  { 30, 7, -1, 1 },
  { 8, 1, -2, -1 },
  { 23, 152, -1, 1 },
  { 32, 264, 1, -2 },
  { 6, 8, 1, -1 },
  { 7, 329, -2, -2 },
  { 33, 12, 1, -2 },
  { 25, 851, -1, -2 },
  { 25, 807, -1, 1 },
  { 23, 154, -1, 1 },
  { 8, 2, 1, 9 },
  { 23, 155, 1, 5 },
  { 7, 316, -1, 1 },
  { 8, 1, 1, 2 },
  { 1, 539, -1, -2 },
  { 25, 932, -2, -1 },
  { 31, 144, -2, 1 },
  { 15, 836, 1, -1 },
  { 39, 249, -1, -2 },
  { 33, 12, 1, -1 },
  { 7, 333, -2, -1 },
  { 6, 8, 1, 2 },
  { 15, 859, -1, -2 },
  { 24, 1, -2, 1 },
  { 15, 1104, -1, -2 },
  { 39, 251, 1, -2 },
  { 23, 154, 1, -1 },
  { 12, 1, -1, -2 },
  { 23, 155, 1, -1 },
  { 8, 2, -2, 1 },
  { 39, 249, 1, 2 },
  { 15, 822, -1, -2 },
  { 1, 491, -1, -2 },
  { 30, 7, 1, -1 },
  { 8, 2, -1, -2 },
  { 7, 297, -2, 1 },
  { 24, 1, 1, 35 },
  { 36, 0, 1, 14 },
  { 14, 0, 1, 3 },
  { 22, 148, -1, 1 },
  { 17, 1, -1, -2 },
  { 33, 15, 1, -2 },
  { 40, 1, 1, 5 },
  { 24, 1, -2, 1 },
  { 0, 2, -1, 1 },
  { 39, 251, -1, 1 },
  { 15, 948, -2, -1 },
  { 6, 8, 1, 2 },
  { 32, 254, -2, -1 },
  { 7, 332, 1, -2 },
  { 37, 0, -2, -1 },
  { 36, 0, 1, 14 },
  { 23, 154, 1, -1 },
  { 25, 871, 1, 3 },
  { 31, 144, 1, -1 },
  { 7, 322, -2, -1 },
  { 13, 32, 1, -2 },
  { 31, 144, 1, 2 },
  { 23, 153, -1, -2 },
  { 32, 263, 1, -1 },
  { 23, 154, 1, 4 },
  { 33, 134, 1, -2 },
  { 34, 1, 1, -1 },
  { 31, 145, -2, -1 },
  { 33, 11, -1, -2 },
  { 41, 190, 1, -1 },
  { 39, 252, 1, 4 },
  { 24, 1, 1, -1 },
  { 35, 1, 1, -1 },
  { 35, 1, -1, -2 },
  { 7, 334, -1, -2 },
  { 33, 15, 1, 34 },
  { 6, 8, 1, 8 },
  { 25, 883, 1, 3 },
  { 13, 32, 1, -2 },
  { 32, 256, -2, -1 },
  { 37, 0, 1, 3 },
  { 44, 1, -1, 1 },
  { 40, 1, -1, -2 },
  { 34, 1, -2, -1 },
  { 12, 1, 1, 3 },
  { 42, 0, -1, 1 },
  { 30, 8, -1, -2 },
  { 13, 19, 1, 16 },
  { 15, 957, 1, 11 },
  { 34, 1, 1, 5 },
  { 15, 901, -1, 1 },
  { 15, 915, -2, 1 },
  { 1, 514, 1, -1 },
  { 1, 513, -1, -2 },
  { 7, 333, -1, 1 },
  { 25, 903, 1, -1 },
  { 15, 877, 1, -2 },
  { 35, 1, -2, 1 },
  { 33, 12, -1, -2 },
  { 25, 990, 1, 2 },
  { 32, 258, -2, -1 },
  { 1, 530, 1, -1 },
  { 1, 528, -1, -2 },
  { 14, 2, 1, 2 },
  { 40, 1, -1, -2 },
  { 41, 188, 1, 2 },
  { 6, 8, -2, -1 },
  { 0, 2, 1, -1 },
  { 42, 0, -1, -2 },
  { 15, 856, 1, 2 },
  { 7, 333, -1, -2 },
  { 0, 2, -2, 1 },
  { 30, 7, 1, -2 },
  { 37, 0, -1, -2 },
  { 40, 0, 1, 11 },
  { 13, 20, 1, -1 },
  { 39, 9, -1, 1 },
  { 22, 74, -1, 1 },
  { 39, 249, 1, -1 },
  { 14, 2, 1, -1 },
  { 1, 502, 1, 2 },
  { 1, 502, -2, -1 },
  { 35, 0, -2, 1 },
  { 6, 8, 1, -2 },
  { 14, 2, -2, -1 },
  { 36, 0, 1, 257 },
  { 30, 7, 1, 234 },
  { 30, 7, 1, 25 },
  { 5, 190, 1, -1 },
  { 30, 7, -1, 1 },
  { 5, 188, 1, 19 },
  { 41, 187, 1, 17 },
  { 23, 143, 1, 4 },
  { 41, 186, 1, -1 },
  { 40, 0, 1, -1 },
  { 9, 1, -2, -1 },
  { 33, 15, 1, 6 },
  { 7, 307, 1, -1 },
  { 39, 248, 1, -1 },
  { 25, 887, 1, -1 },
  { 1, 524, 1, -1 },
  { 6, 8, -2, -2 },
  { 31, 138, -1, 1 },
  { 25, 857, -1, 1 },
  { 41, 187, 1, 3 },
  { 17, 1, -1, 1 },
  { 5, 170, -2, -1 },
  { 6, 8, -1, -2 },
  { 15, 583, -2, -1 },
  { 7, 326, 1, -1 },
  { 13, 10, -2, 1 },
  { 12, 1, -1, -2 },
  { 6, 8, 1, 102 },
  { 1, 490, 1, 2 },
  { 8, 2, -1, -2 },
  { 31, 144, 1, 56 },
  { 40, 1, 1, 21 },
  { 39, 251, -1, 1 },
  { 2, 1, 1, 4 },
  { 6, 8, -1, 1 },
  { 7, 333, -1, 1 },
  { 31, 143, -1, -2 },
  { 23, 152, 1, 5 },
  { 1, 498, -1, 1 },
  { 19, 1, 1, -1 },
  { 5, 260, 1, -1 },
  { 1, 499, -2, -2 },
  { 40, 0, 1, 4 },
  { 5, 258, -1, 1 },
  { 37, 0, -2, 1 },
  { 14, 2, -1, -2 },
  { 42, 0, 1, 3 },
  { 5, 258, -1, 1 },
  { 39, 252, -1, -2 },
  { 31, 143, 1, 2 },
  { 24, 1, -1, -2 },
  { 23, 152, -1, -1 },
  { 30, 7, 1, 16 },
  { 31, 144, 1, 14 },
  { 5, 262, 1, 10 },
  { 7, 332, 1, 7 },
  { 24, 1, 1, 4 },
  { 23, 152, 1, 2 },
  { 6, 8, -2, -1 },
  { 36, 0, -1, -1 },
  { 31, 143, 1, -1 },
  { 8, 1, -1, -2 },
  { 14, 2, 1, -1 },
  { 5, 260, -1, -2 },
  { 6, 8, 1, 2 },
  { 33, 13, -2, -1 },
  { 0, 2, -1, -2 },
  { 13, 32, -1, -2 },
  { 0, 2, 1, 10 },
  { 25, 867, 1, 6 },
  { 7, 333, 1, 4 },
  { 15, 781, -2, 1 },
  { 39, 251, -1, 1 },
  { 7, 333, -1, -1 },
  { 30, 7, -2, -1 },
  { 30, 7, -1, 1 },
  { 23, 155, 1, -1 },
  { 15, 846, -1, -2 },
  { 37, 0, 1, 3 },
  { 35, 1, -1, 1 },
  { 8, 2, -2, -1 },
  { 32, 260, -1, 1 },
  { 24, 1, 1, -1 },
  { 5, 262, 1, 2 },
  { 39, 251, -1, -2 },
  { 8, 0, -2, -2 },
  { 5, 251, 1, 14 },
  { 42, 0, 1, 7 },
  { 7, 332, 1, 3 },
  { 21, 1, 1, -1 },
  { 15, 1002, -2, -1 },
  { 30, 7, 1, 2 },
  { 13, 32, -1, -2 },
  { 32, 259, -2, -1 },
  { 7, 333, 1, -1 },
  { 31, 145, -1, 1 },
  { 3, 1, -1, 1 },
  { 39, 249, -1, 1 },
  { 15, 992, 1, -1 },
  { 1, 500, -1, -2 },
  { 5, 262, 1, 16 },
  { 41, 190, 1, 5 },
  { 24, 1, -2, 1 },
  { 1, 699, -1, 1 },
  { 33, 12, 1, -1 },
  { 23, 154, -1, -2 },
  { 41, 190, 1, 5 },
  { 25, 937, 1, -1 },
  { 6, 8, 1, -1 },
  { 24, 1, 1, -1 },
  { 15, 883, -1, -2 },
  { 36, 0, 1, 2 },
  { 8, 2, -1, -2 },
  { 36, 0, 1, -1 },
  { 31, 144, 1, -1 },
  { 7, 334, -1, -2 },
  { 23, 157, 1, -1 },
  { 15, 859, 1, 7 },
  { 14, 2, 1, 3 },
  { 33, 12, -1, 1 },
  { 25, 886, -2, -1 },
  { 23, 155, 1, -1 },
  { 32, 261, 1, -1 },
  { 36, 0, -1, -2 },
  { 40, 1, 1, 2 },
  { 24, 1, -2, -1 },
  { 23, 156, 1, 2 },
  { 1, 711, -2, -1 },
  { 25, 749, -1, -2 },
  { 3, 1, 1, 53 },
  { 6, 8, 1, 24 },
  { 5, 259, 1, 9 },
  { 13, 32, 1, -2 },
  { 34, 1, 1, 5 },
  { 36, 0, 1, 3 },
  { 24, 1, 1, -1 },
  { 13, 1, -2, -1 },
  { 1, 542, -2, -1 },
  { 23, 149, 1, -1 },
  { 14, 1, -1, -2 },
  { 14, 2, 1, 13 },
  { 2, 1, 1, 3 },
  { 15, 813, 1, -1 },
  { 39, 251, -1, -2 },
  { 1, 608, 1, 7 },
  { 15, 1009, 1, 2 },
  { 32, 260, -2, -1 },
  { 6, 8, 1, 2 },
  { 5, 260, -2, -1 },
  { 31, 142, -1, 1 },
  { 30, 7, -1, -2 },
  { 13, 11, -1, 1 },
  { 1, 804, -1, -2 },
  { 1, 817, -1, -2 },
  { 34, 1, 1, 27 },
  { 13, 32, 1, -2 },
  { 23, 148, 1, 15 },
  { 22, 148, 1, 2 },
  { 40, 1, -1, -2 },
  { 7, 306, 1, 8 },
  { 2, 1, 1, 4 },
  { 23, 147, 1, 2 },
  { 25, 688, -2, -1 },
  { 6, 8, -1, -2 },
  { 13, 2, 1, 2 },
  { 23, 147, -1, -1 },
  { 25, 858, -1, -2 },
  { 32, 271, 1, -1 },
  { 40, 1, 1, 2 },
  { 33, 15, -2, -2 },
  { 5, 218, -1, -2 },
  { 40, 1, 1, 7 },
  { 44, 1, 1, 5 },
  { 1, 770, -1, 1 },
  { 16, 0, 1, 2 },
  { 18, 1, -2, -1 },
  { 39, 248, -1, -1 },
  { 7, 319, -1, -2 },
  { 25, 924, -1, 1 },
  { 24, 1, 1, -1 },
  { 32, 265, -1, -2 },
  { 1, 284, -2, -1 },
  { 8, 2, 1, -2 },
  { 25, 948, 1, 30 },
  { 31, 137, 1, 13 },
  { 5, 177, 1, 6 },
  { 25, 887, -1, 1 },
  { 5, 176, -1, 1 },
  { 6, 8, 1, -1 },
  { 1, 622, 1, -1 },
  { 33, 15, -2, -2 },
  { 15, 925, 1, 3 },
  { 23, 144, 1, -1 },
  { 15, 858, -1, -2 },
  { 24, 1, 1, -2 },
  { 24, 1, -1, 1 },
  { 39, 249, -2, -1 },
  { 40, 1, 1, 14 },
  { 15, 993, 1, 10 },
  { 1, 800, 1, 5 },
  { 0, 2, -1, 1 },
  { 6, 8, 1, 2 },
  { 21, 1, -2, -1 },
  { 23, 144, -1, -1 },
  { 42, 0, 1, 2 },
  { 25, 867, -1, -2 },
  { 32, 262, 1, -1 },
  { 37, 0, -1, -2 },
  { 14, 0, 1, -1 },
  { 25, 913, 1, -2 },
  { 32, 266, -1, -2 },
  { 32, 260, -1, 1 },
  { 31, 142, -1, -2 },
  { 1, 521, 1, 5 },
  { 7, 318, 1, 3 },
  { 8, 2, -1, 1 },
  { 6, 8, -1, -2 },
  { 5, 192, -2, -1 },
  { 25, 995, 1, 14 },
  { 1, 523, 1, 6 },
  { 13, 10, -2, 1 },
  { 33, 14, 1, 2 },
  { 24, 1, -1, -2 },
  { 31, 138, 1, -1 },
  { 8, 2, -1, -2 },
  { 25, 986, 1, 4 },
  { 41, 188, -1, 1 },
  { 41, 188, 1, -1 },
  { 32, 257, -2, -1 },
  { 8, 2, -1, 1 },
  { 36, 0, -1, 1 },
  { 33, 15, -1, -2 },
  { 40, 1, -1, 1 },
  { 33, 14, 1, -1 },
  { 12, 1, -2, -1 },
  { 1, 817, 1, -2 },
  { 40, 1, 1, 11 },
  { 40, 0, -2, 1 },
  { 18, 1, 1, 8 },
  { 30, 8, 1, 6 },
  { 23, 154, 1, 2 },
  { 36, 0, -1, -2 },
  { 32, 263, 1, -1 },
  { 32, 263, -1, 1 },
  { 42, 0, -1, -2 },
  { 1, 567, -1, -2 },
  { 30, 8, -1, -2 },
  { 25, 993, 1, 7 },
  { 15, 883, 1, 3 },
  { 31, 143, -1, 1 },
  { 23, 155, -2, -1 },
  { 32, 268, 1, -2 },
  { 41, 188, -2, 1 },
  { 14, 2, -1, -2 },
  { 3, 1, 1, -1 },
  { 33, 12, 1, -2 },
  { 32, 263, -1, -2 },
  { 7, 315, 1, 3 },
  { 31, 142, 1, -1 },
  { 3, 1, -2, -1 },
  { 41, 190, 1, 4 },
  { 33, 14, 1, -1 },
  { 14, 2, 1, -1 },
  { 9, 1, -2, -1 },
  { 34, 1, 1, 9 },
  { 31, 143, 1, 6 },
  { 32, 273, 1, -1 },
  { 23, 150, -2, 1 },
  { 5, 260, -1, 1 },
  { 40, 1, 1, -2 },
  { 15, 922, -2, -1 },
  { 41, 190, 1, -1 },
  { 42, 0, -2, -1 },
  { 7, 322, -2, -1 } 
};

static const int32_t rf_modbus_tree_roots[15] = { 0, 282, 508, 709, 969, 1342, 1592, 1831, 2169, 2594, 2990, 3290, 3534, 3738, 4097 };

static const uint8_t rf_modbus_leaves[2] = { 0, 1 };

EmlTrees rf_modbus = {
        4382,
        (EmlTreesNode *)(rf_modbus_nodes),	  
        15,
        (int32_t *)(rf_modbus_tree_roots),
        2,
        (uint8_t *)(rf_modbus_leaves),
        0,
        46,
        2,
    };

static inline int32_t rf_modbus_tree_0(const int16_t *features, int32_t features_length) {
          if (features[24] < 1) {
              if (features[22] < 74) {
                  return 0;
              } else {
                  if (features[14] < 2) {
                      if (features[7] < 306) {
                          if (features[25] < 978) {
                              if (features[33] < 14) {
                                  if (features[41] < 185) {
                                      return 1;
                                  } else {
                                      if (features[35] < 1) {
                                          return 1;
                                      } else {
                                          return 0;
                                      }
                                  }
                              } else {
                                  if (features[41] < 134) {
                                      if (features[30] < 8) {
                                          return 1;
                                      } else {
                                          return 0;
                                      }
                                  } else {
                                      if (features[34] < 1) {
                                          if (features[6] < 8) {
                                              if (features[15] < 834) {
                                                  return 1;
                                              } else {
                                                  return 0;
                                              }
                                          } else {
                                              return 1;
                                          }
                                      } else {
                                          return 1;
                                      }
                                  }
                              }
                          } else {
                              if (features[34] < 1) {
                                  return 1;
                              } else {
                                  return 0;
                              }
                          }
                      } else {
                          if (features[37] < 0) {
                              return 1;
                          } else {
                              if (features[14] < 2) {
                                  return 1;
                              } else {
                                  return 0;
                              }
                          }
                      }
                  } else {
                      if (features[22] < 148) {
                          return 1;
                      } else {
                          return 0;
                      }
                  }
              }
          } else {
              if (features[4] < 1) {
                  if (features[15] < 1010) {
                      if (features[14] < 2) {
                          if (features[34] < 1) {
                              if (features[36] < 0) {
                                  if (features[41] < 186) {
                                      if (features[7] < 292) {
                                          return 1;
                                      } else {
                                          if (features[15] < 822) {
                                              if (features[37] < 0) {
                                                  return 1;
                                              } else {
                                                  return 0;
                                              }
                                          } else {
                                              if (features[37] < 0) {
                                                  return 0;
                                              } else {
                                                  if (features[34] < 1) {
                                                      if (features[35] < 1) {
                                                          if (features[40] < 0) {
                                                              return 0;
                                                          } else {
                                                              return 1;
                                                          }
                                                      } else {
                                                          return 0;
                                                      }
                                                  } else {
                                                      return 1;
                                                  }
                                              }
                                          }
                                      }
                                  } else {
                                      if (features[5] < 169) {
                                          if (features[31] < 138) {
                                              return 0;
                                          } else {
                                              return 1;
                                          }
                                      } else {
                                          return 0;
                                      }
                                  }
                              } else {
                                  if (features[33] < 16) {
                                      if (features[7] < 292) {
                                          return 1;
                                      } else {
                                          if (features[39] < 252) {
                                              if (features[14] < 0) {
                                                  if (features[31] < 142) {
                                                      if (features[31] < 139) {
                                                          if (features[19] < 1) {
                                                              return 0;
                                                          } else {
                                                              return 1;
                                                          }
                                                      } else {
                                                          return 0;
                                                      }
                                                  } else {
                                                      if (features[1] < 559) {
                                                          if (features[32] < 272) {
                                                              if (features[25] < 780) {
                                                                  return 0;
                                                              } else {
                                                                  if (features[15] < 895) {
                                                                      return 0;
                                                                  } else {
                                                                      return 1;
                                                                  }
                                                              }
                                                          } else {
                                                              return 0;
